{"inputLayer":[{"weights":[-26.822601377457886,-17.617444467242752,-89.46617111852274,-83.67648886626056,-51.0153661004001,-11.693728275578328,-22.272847206697623,209.84399840243978,-20.702174684368625,168.33964779014698,-0.8188909349862447,-201.42124953525249,-19.58956196689157,25.10426908208136,-173.46488910828958,8.003608444272574,-7.037869936419212,-21.851613518960622,97.73821365651959,4.556140505639927,5.879923313861737,99.43081101419291,105.40751685187769,-79.77009775320188,99.76219972646479,-47.44874656468622,15.301673093035044,-76.26089679455895,-11.501031343951487,-63.79215948510015,-37.16588218960007,-39.906019896181384,-65.072239062159,-105.65192657819463,-26.975032085378643,-99.34681419287944,-50.84614342850921,36.08089827095751,90.9487349918705,96.87102746962174],"activation":0.0,"bias":0.0},{"weights":[-51.55474903267326,17.801225119286148,-6.646195929320577,-100.97556622370685,52.80557333309631,18.247381783235788,-104.19181549229548,23.763052137035704,-118.54936463379005,42.942396224516784,12.654699841185748,-114.63053065677805,-66.50297272697821,-43.72773947126623,99.85997346597239,60.13263656903674,51.965527638189045,49.98908907221871,36.41989919107352,-63.352634122107276,-59.01318866104446,69.13005409314398,-78.65226970294641,38.94409328970577,-91.31025155569749,20.624236526073247,-222.38145647483583,-23.55717075840756,153.39416393575843,87.03193793034657,67.41352250737623,-82.67324217280243,140.4855458600045,-73.6204974707076,-46.56505714698323,98.6117202561889,83.53842244435445,11.99432654110031,-68.31619996726423,-10.333842805456632],"activation":0.0,"bias":0.0},{"weights":[-11.633824193162324,-11.028739154329918,-10.689076862502237,-64.24437776666424,-49.00224394791062,-64.70972117672162,-63.9468356950075,201.09016745625726,60.42924863321577,20.306638390923997,-55.704782459079624,-10.44400384697023,-132.18338628184253,-17.000603223501024,-58.51879510863603,83.80676664646035,-50.279668642785914,-110.02582514794281,-49.385824444238025,-5.247357401887295,146.5983564368345,123.99158866336981,-209.57004813202465,8.276490875728655,81.06203355402263,-43.140610767265734,70.08188146170005,-5.09235662563494,17.167609144283333,-97.18682108559756,-4.4407257062221595,26.214025794324154,90.84394229755561,68.70505940906975,-30.089006805155798,263.22235835571803,68.69885801465455,-77.91969297265501,46.4367044990639,18.95737821731857],"activation":1.0,"bias":0.0},{"weights":[46.0629730040421,129.09044014117654,190.62254144413973,-57.33801232046067,-45.23204966828386,-120.13526199269663,82.08682687113202,70.2003071997339,-52.270047128300796,-89.45604715922588,-90.88607543117593,-82.00022005834336,92.12059862203361,-0.3263786870764448,-49.19906113058967,29.95249974717828,-139.51451012979263,-82.90601838998862,131.98446299482916,52.04952668970469,39.449218227112794,130.56102747423085,-159.08305326451887,-56.67703246439834,-11.448674533209479,-57.7295667970508,6.82020681112605,-36.30329103888675,-39.72481758978601,-65.54893721136355,-14.307277714783668,30.12757767172016,-34.3991501095573,40.70099296605169,47.6455179568181,12.151788981781193,57.75385740862219,79.05280598118301,-61.700359515363694,85.53210802656287],"activation":0.0,"bias":0.0},{"weights":[39.90025852999018,37.35819472502147,52.8349139294382,-30.52158349822383,15.544498063860011,137.11371618030054,29.969813292886922,21.389734465449976,-45.26690703672605,41.386162460671265,-83.22896979188255,-115.81795368099199,-26.430771211783707,30.53138724633208,-24.122717276924202,-18.971456776486168,-92.40874877746701,12.221721664482544,-34.831780155745356,-1.576167611022218,28.4856169613609,1.0760822377865908,-143.40845784326038,64.6907960359276,111.16411474620324,-53.26460828190002,66.99978638802605,-57.70908515028638,43.855428489381,-82.22559033010413,62.369155697627924,21.050144605294932,-54.70094711770719,-110.84713717565769,-140.72519168058244,-115.04843681483487,-125.33190768728504,-2.559753326618197,-73.43668433622375,-32.4815078216335],"activation":1.0,"bias":0.0},{"weights":[-160.35795370089548,78.85574557000126,12.675672958059465,-28.622220269125982,102.36358336551326,168.02587873487676,-93.70473161192785,-129.49910928762816,-10.63708530157012,-42.996706664265375,-133.89853679465386,71.67511247733756,-10.643982762685999,68.18200356263712,-98.72596371148568,-11.984704264157294,-106.99506284009061,-36.868026345809376,153.36026830915392,30.371518910720393,11.313988381074827,63.343246682228724,73.90476002032797,14.860603453372374,21.048387612210146,144.0398388595888,-194.46497300749982,101.07563298304558,-174.55955222351898,-103.34188986923306,35.06455770551322,37.4078802186735,11.738776032908502,-58.341766535736795,22.707502029331852,8.123108271314573,2.4221080440657983,16.397808622861195,27.987725700868427,29.276474265391133],"activation":0.0,"bias":0.0},{"weights":[90.59988024944408,-29.500610727190853,-15.521274233925265,55.81048202735326,146.66569889013198,-97.86797630668565,27.901439557892456,-115.77309625004655,-39.11111439947336,24.072056686257415,-108.23265166876126,-136.91078659610193,-165.38594292488276,-48.900742293542166,-51.159199441776565,1.513478114904644,54.005006632773465,37.310908812689895,-98.77234652885335,-62.00516733991336,74.4477916480558,64.8542051139888,-136.66341129183968,96.28486526129356,80.36489182899157,47.171596491599765,27.032487887607306,92.40231599788326,22.219746978313655,139.67547016270447,-58.48498654477362,-41.191056270043845,-148.7868955162795,-70.11926339697956,-78.6546741623702,-24.547587414622527,70.71425180933419,-17.140324364780966,-23.21272003840084,-70.6538480976429],"activation":1.0,"bias":0.0},{"weights":[-24.749735953024548,170.50619113803597,-13.822710928341406,33.79936291449625,-36.75888249915308,157.11888924380833,-165.58551758690285,45.0405297458603,50.41407014677767,-184.6236137669802,35.21127054691192,20.51825073691548,-40.52248587846734,75.28679763217225,66.00633178967114,-121.6597810375661,-20.187430879138383,46.70222858526184,-149.25882491203083,-44.80564807449771,37.38760203233204,-4.6966943954849025,3.845726217540796,-4.774581558443102,15.447538189757811,64.87561765882398,-146.52591277528995,-9.020536725803005,99.12018233823423,66.93589724915391,-209.10646792215934,68.2780757724136,25.091664405057283,-105.40967939228855,52.29337405688598,-25.48084940877774,22.923631836750946,165.9267954167639,11.307802419589333,-65.35255406621509],"activation":0.0,"bias":0.0},{"weights":[-64.06063742885264,-33.60694300912578,-52.15791962895743,-23.497551274173315,45.82813399896617,-68.60782635372102,-9.359086165191531,-4.4311862552092105,120.66927284614627,-172.97631229309584,84.25044133488429,155.09664909321071,-34.066806460408294,-40.73891125394405,45.10957921946943,-117.0309722192457,159.47043541313303,-116.07549633208912,70.5998039785474,-76.40489797392968,33.78500229765119,14.841744402407063,13.908741324615189,-93.17406922496318,-85.30434298535096,89.24042657013527,-164.4013831854814,-66.43104098190959,-25.371267246691684,-42.331466683085765,25.323982154344616,6.284523086314858,-19.87576240178778,-100.1255737611684,-45.834431390789305,-14.856237241704028,65.55547232417264,74.85287277298418,64.78963110235945,-31.53775285297176],"activation":1.0,"bias":0.0},{"weights":[120.46519207105138,-58.92349386224141,-106.42448894542883,-0.3905701913265016,-156.74165072541203,-6.727481998883612,50.895885268295324,-28.857607533308983,6.883361467931083,21.19050285122732,172.25981533284673,-39.92998675752382,91.47224474058619,-171.2847045786236,-28.430567973978093,-71.0448034583047,-41.05246284544433,50.402583004444175,93.14367628532499,-128.00423218747778,54.38236902179482,-15.525087995445515,1.7211882581200264,155.93948080534068,-34.746213959427834,-20.961607361982736,62.933114110527676,-35.95917475220255,33.222659234811076,-17.30444659968786,-59.23345735870055,55.17917331206317,-105.76002674894421,-38.43383035154945,-150.20219640819874,-11.82423586578709,-45.838956047701814,-60.014385698877724,44.94656798463981,-54.227220561913974],"activation":1.0,"bias":0.0},{"weights":[23.174102441533883,-65.08022748528425,22.528014758761625,31.498759542702494,90.58025183305952,116.18708316881171,-15.99965263940961,-31.166244582813224,120.6197951181958,-260.27836422624495,-23.24232419560909,-8.81536825896965,8.475369314823892,125.38555504392907,101.27239409379258,-70.69021803956166,153.2791518247472,-22.080650464124727,87.69212866723174,68.73213422281266,47.67694091493394,70.67311419103689,53.479760086003594,-73.39799211585611,-56.09943682851848,-102.25894858184385,-46.69448849702374,-21.96150603990656,-3.300700302067056,28.425214923200514,-54.53687922528486,-67.47156921139732,-47.875423270180136,43.866873347181546,84.59729217586496,-98.29857337281365,-24.380767999957257,28.804317636643283,-15.826659721376206,49.476367317326954],"activation":0.0,"bias":0.0},{"weights":[-58.9076191011859,27.41106183047097,-66.16326411526879,60.89511575967821,19.0753108755805,38.42608867786954,72.73874355327452,-49.47903723083048,-37.925972070362235,119.27022047941777,109.37515514913656,6.0711642995882045,-77.23587671139178,-1.919521254707119,123.60727836498774,4.88241546268706,-36.08207174622081,110.59347388936902,109.09634641702004,-160.29688371197406,31.43377909946405,-96.10044456816425,88.68154102999071,39.70666824884551,20.880232298219262,124.93131088056566,-3.68674481663643,5.592272545323135,11.478371957285875,-31.201283416965204,-94.37470027527561,114.16308367831047,79.06602702781534,-128.33610584598418,-94.42002072401658,-118.63236042489308,-13.496855163996052,-198.49366247651366,7.816140589076282,-151.59415533033774],"activation":0.0,"bias":0.0},{"weights":[-70.60101720241099,-74.27847396337461,-83.05399599159686,16.25096479921777,135.86476337865724,36.10515189218142,26.750584073031977,48.697173214791874,53.38031847162484,-47.79682025599157,-50.7452900481113,41.55863761096437,-145.40618220166937,5.312961241974568,-137.64066582025907,-81.75028715335888,28.972401179903173,-15.27541200545507,65.38325239724276,-8.857418079218942,-8.643950926755341,-133.88747022635863,-28.426163811268562,175.80685810284317,-61.637953948131994,6.301050560603354,11.3486801403651,26.19318138060688,-146.2673239413531,-63.77986069945796,121.81276009468107,53.724578776692965,-97.45720928274598,-84.32274325301985,34.680766060753754,-94.82634419647371,91.1974966605733,54.642041040522294,-42.490543715578966,6.287540763711873],"activation":0.0,"bias":0.0},{"weights":[94.94426694793972,41.9588092925647,-76.65992157859733,-71.07715016265729,30.941403771089345,-8.059663882659578,141.69037786311353,70.90084102760468,-118.52618725104527,14.450817535611597,59.55012406795589,19.043228815566607,15.969294108947636,-50.04438463628098,4.867570293626901,88.59728384808406,73.82168099619693,33.32246621477057,48.526962040678555,-111.37563898294627,-47.00967841938885,-25.31864303995844,-51.42515963826435,-27.04780827532815,-31.487396276530678,174.43769764528926,-87.46497567593991,-162.65912707570178,-200.01571671847316,-68.02017654700177,-101.99671786792999,81.88755102531623,-138.34269143634498,23.37361385614814,-78.00170936636779,-22.033284271845094,-3.739435838026396,48.8556921299299,-148.59858798213128,-37.226190456020504],"activation":0.0,"bias":0.0},{"weights":[-105.08287511941036,-61.29279834087254,78.08366982093531,-55.58049286002501,20.685017803759628,-60.697715561992524,68.92061232985581,-77.46569360015597,-45.214242591925206,61.81089131168312,57.678033719423595,9.885769970071909,23.701117206243598,-23.4630087149589,9.302802623460934,-114.0255749004722,-76.34425493923052,38.21404589355108,135.95608359088888,41.65692339308757,27.84715763858366,3.7660800538798975,-11.812419494858663,-29.501429791865302,-4.570545780412883,16.218971009353197,-28.407413375870284,-40.59917738787071,51.91720157983371,-66.45710768998663,31.09936551208847,68.52332951634955,-50.02911691862105,-104.40090378360293,-16.449108280580916,117.91401956255838,-99.03686146200938,-86.60878635489524,-159.1304846582809,78.79466717865998],"activation":0.0,"bias":0.0},{"weights":[-42.30028190130884,-26.22830609653802,-86.9213102946244,-16.01084130305725,-1.6749681104313727,-70.60258422271285,34.0600934517095,41.073070620397985,-29.6260736957646,-39.272746278579284,93.97818509540946,-6.529461739592276,-178.65103694656142,-32.70444132249338,-61.87904775014216,-43.27470565287664,-73.70801312571226,127.55084810504673,18.02732243904626,32.5236842535026,3.8313160452496415,-55.05999308310393,81.67618310523487,-51.16445073694654,110.97323130621032,148.85261500597304,28.980768592927898,-25.74713366797154,-12.564680871900034,-43.30754990133719,39.43540650447897,-19.854080017517227,84.51292649069931,-75.44646768492704,17.77146091079219,18.616025905941186,2.8814409402310464,-41.33349595004128,-137.9402051241795,-109.33575729113011],"activation":0.0,"bias":0.0},{"weights":[-106.74653768527888,3.2728673320094153,33.703397086241814,56.76066122586367,74.1038828165078,-111.58085664703316,-31.92484914742057,-38.696008841413665,104.8252909665744,-120.66760420174492,-89.47779090438569,-63.27340995253579,-125.0746880832154,-2.720060810012556,-32.24126145329449,114.08181082276037,-49.27914083830423,-93.76998752193802,2.895893535249009,-114.49709007832757,22.789653496647084,38.35411829603558,177.2144356737004,49.16923503698125,59.49596408826408,36.89911219325589,110.16089834252669,-86.19895675727119,93.50659175879834,9.916995044974811,-0.7094500506884456,-58.98541911181225,7.225724783117775,-106.29165656287057,-114.69705566892699,54.79291215613611,127.31100737879387,-60.4979803884785,-26.223415266678444,115.30811470864263],"activation":0.0,"bias":0.0},{"weights":[-93.2911074776449,-67.33337330702352,55.85104307252918,-31.39329782920624,49.103275454522866,-99.15092956198403,-6.970529769779669,162.733287805544,103.4309631849073,-107.23193983952106,79.50308318405617,-122.74184510261541,-80.25637058911806,120.69150887728878,-14.81724522253451,2.413221524284477,-5.8148088747881825,-91.17594273778305,-40.00719196444063,23.07228937137256,-21.846311387041464,-193.1501685389792,-56.53773305721509,-46.84488799039624,27.964860156007305,16.136203284344745,-77.76196430999019,-139.94338864764526,23.4993732841179,47.20778951717527,127.82700659273402,43.37427738424976,-29.60878981542453,-45.790571753032346,61.224375485074546,207.3215688558997,-126.89029395678652,-64.85221453668736,6.2129405241542655,84.75371480562292],"activation":0.0,"bias":0.0},{"weights":[-28.167793524182382,34.41132297289769,-34.846098525822,-79.9116366740804,-46.749279564081036,23.65147383825001,-85.00957488602239,-20.795188666413956,-114.97432207118878,2.1545444530539086,-3.672907645466603,43.51528645818923,-60.09196804322923,-241.18660352049682,-89.88154474146447,56.931448973610834,65.81569737770725,16.09230020067595,-62.116491364238826,62.14376075436508,47.2418336803015,-171.07093897756167,34.519842496302424,-150.498987243046,111.3326460623624,-140.20416544091893,28.80424507799365,-43.66826313068709,11.962303816508047,-143.63076009264228,102.73472583232824,20.37668135327143,-0.42157227366247607,49.761683929134115,43.425033286712264,237.91970908584682,-210.9122217531123,-139.94172059592935,-121.07541996958808,85.59447778742957],"activation":0.0,"bias":0.0},{"weights":[-18.15841336985119,145.50735834451524,72.99078005343986,-143.68064849392175,-6.582262964017366,-15.0412754797146,-8.291423700455063,-31.44357447710724,-117.36354328075491,18.834771043041584,13.512546695314676,-19.511392671236067,37.37660217214591,10.996790736253217,74.92670101295722,32.573749179919105,-161.64425131868498,-33.36185869227432,-22.178725894314514,41.83927751140549,74.45783478346333,61.46235373605229,142.85800941886654,-104.13408690896762,13.336878876762453,-52.698195038120254,-101.41723535526904,-57.58701227051484,7.275249624782373,52.836197631294475,-152.77883642374158,-206.52300813882394,-99.96908821150348,-96.39220232581438,36.067368887956775,-78.75619347535662,101.44165852743758,-126.9781555118774,-93.13095186059272,-93.78078025244658],"activation":0.0,"bias":0.0},{"weights":[23.368393900343836,-23.20515608019908,25.56424426997322,57.678780066072044,-97.6269399770062,107.3459812142863,-54.8007395874278,-0.9374200536394077,-19.543503138711824,-76.73492641647158,0.18483997490593207,-103.33203466937609,17.30391139799521,-253.706821586293,-67.34109819545584,-129.09029431421632,-150.14645156846635,124.20825470862755,-42.34849362301294,0.6066291806890801,-94.84251622656194,-56.368211414313876,82.16650170531395,7.502542929809943,-9.714378263089973,-62.62092120485337,96.45453243937496,-106.58720137837008,10.439180981840453,79.94741683908856,-89.99642709661651,1.7140307884227646,19.18550989902104,25.453537422703867,-32.11403675806953,-93.73146990921892,-32.42275460938691,26.30685175698222,6.190551032244884,252.22712577714077],"activation":0.0,"bias":0.0},{"weights":[-50.930787347336214,111.38621382973658,-71.60544402635298,-176.165310946846,-1.2129266711836968,-105.10115251641335,-67.56939506687876,33.18780932729916,-80.09786034269848,57.05955983964032,-36.05366356413009,10.94691922810474,29.410058304571734,47.502058343639334,105.16665390409015,66.31102396492047,66.80074828980375,-36.82775613343168,-78.3876126215855,-106.10189575606596,-59.537415201747976,32.70229290791169,-149.04880960394973,81.00768621249821,-44.86901164479829,11.74817708165047,85.55176374307271,112.33407605243119,114.25297479321834,-133.4495820172393,-11.394996065686993,56.61655744747833,-70.43869390796951,-18.71220588473559,-236.3127210099765,135.54241190363925,-59.46178341536227,-15.524667668160399,-41.234901816342195,19.54907893869369],"activation":0.0,"bias":0.0},{"weights":[-44.5334963423664,77.24692219592553,-16.97953878984829,-80.15997271382689,72.23496301574804,120.30972219270117,59.00000951631404,-55.133992630126656,-99.62264326530239,21.974449306223516,-55.373561495986834,10.973685410705622,-72.5028697004742,-1.8525216964260147,-22.20645843419428,-21.39745355258674,-93.15891613704864,-50.54105946229018,-103.01390162644498,77.29123542397197,-75.20047190783005,16.67458473711384,-15.792814926659325,-2.3397793874436603,41.4927884224889,49.164844612776044,71.11174428464918,43.531190161098216,46.5376152817233,107.14181981061154,-13.501969401581398,-42.060548050306004,-97.19634643866674,-42.08489454158203,-15.52188175276754,8.475543050504415,31.5034500475737,26.203941125441148,-57.223601291869365,40.09428155203393],"activation":0.0,"bias":0.0},{"weights":[3.9928578757401305,128.7842680410264,-86.71586420690227,-88.63671745836844,135.4507131075426,-16.818681031530822,18.439856910678554,72.27052445536104,45.41873392121817,44.10114087419731,-182.90670764484037,17.342061384099072,-29.632682055297927,-70.31698646071474,175.24186477885496,-42.759995758993874,56.73703785443301,-140.27414488056414,-47.50069820274488,14.665936011433915,-192.06931705599922,58.71701292430818,-12.75563277430255,-51.6450275064605,-47.97893131095978,-55.87075204799864,-25.410718495713994,-13.859402301858255,27.776487823204363,-11.355792201450319,-54.553723245753375,-39.128055231303996,99.45262763564031,105.963212302037,38.84801363327533,-46.032968069943855,-39.695119924004295,-79.73629421058858,-4.1845641090996715,117.50578919539204],"activation":0.0,"bias":0.0},{"weights":[-45.58213810124251,104.83318384209761,1.4189186791613815,-44.04826084381921,115.58784763395029,-43.51951498526755,69.77884058204813,-119.73277944962248,6.960831593472382,-16.617545171051546,69.11122110605064,0.9823322040218219,-173.2712326995715,11.124137130955928,212.33432956815085,55.30162968884776,-68.29943002323316,-22.95509085859665,61.59904305777393,24.456586872103454,40.64021989428121,-68.6825854323309,-26.264785805209502,92.28411438503646,-173.97780422165118,184.05009852337145,-29.91339837798777,22.761744960989024,11.620678386584045,14.597470383605897,-33.34273123008519,-102.99559624835102,-4.9773765427101875,126.20993943158928,-19.48576294546999,-95.9487262453958,50.95073090795441,-121.27270373930284,9.009469319212974,-119.3146004538119],"activation":0.0,"bias":0.0},{"weights":[-22.551942780535583,82.75844120465003,53.54798186919474,-81.50356147737764,76.98625468840144,18.944012536584303,21.898294260570832,-27.101043141689626,10.82739435464485,-50.50933521787801,-51.048759988151694,-79.58361422362208,79.44528788699746,-174.5659770438944,122.36308939062627,183.08844697172984,95.57669635892411,9.690976408055404,-12.384253252255398,46.76992116538923,-125.02959205716077,-177.2691613176931,108.87624810697777,2.4437754517940906,78.28998424582922,-130.67613079538697,-46.27564583261367,10.833667457025605,61.08250316796775,-68.03092942304266,62.35507521337437,35.58340413024816,-61.348729292671784,-114.76842752224984,106.7293065590779,162.37358709657147,-102.94239915691357,-137.44998221107875,-40.64768845661869,-89.82317656348643],"activation":0.0,"bias":0.0},{"weights":[47.97760796882643,88.80509330776992,-79.27548903953513,-122.01586321898623,2.1256790698203316,56.76451351648946,2.655522556130201,8.584971195203154,-100.9908389107126,162.82689325942616,-23.736430775403285,-2.8522902488102,15.372313924921302,-76.02506753783923,-51.688795734798255,86.26061517652317,72.65890677399524,177.00314946414264,-63.521522555704415,126.85707701403686,43.34504942858677,3.746225163377953,-105.35027581415095,-85.66197788753624,-75.96328969296546,-29.406653650346158,38.42640202476142,79.49388996139075,9.148006801868899,-118.47607145647143,-119.04876394124123,9.947579849781922,-175.15721695558886,-92.47764173701603,145.76366067351753,-53.32999702899838,-44.91890328107469,-26.712095101627103,-199.24241083121186,8.79162197934444],"activation":0.0,"bias":0.0},{"weights":[148.42861081024117,33.93516960397303,-6.234820995370292,19.788100790997163,-27.265621848860807,-45.884065819143096,148.62745396532972,2.3632307756718807,28.28485812736093,118.22713752894244,-27.026310678772845,38.78641520527883,106.1580620277635,7.234722090934019,-50.56894222722362,9.357346335300187,-97.54717744489881,41.767666575429544,-16.844157035442887,-2.541107623701711,-5.990157996505571,-28.46120782575204,79.55587949299702,4.45227498295716,-23.578364754196457,138.14749429865728,3.724807166834904,239.7507845242623,47.210811674388914,33.04096393304464,46.08539747954414,-34.76104621750182,56.562245746545464,-25.54360993286417,-1.1950209572235484,-135.39348909342735,8.121063547820851,-37.402404882283065,64.44348674002507,168.01326024807676],"activation":0.0,"bias":0.0},{"weights":[58.05395513411425,-109.04924560466327,-25.840210778457376,-87.83500794673097,-122.8577333018435,-190.260789110364,23.300668838521613,-50.7416745167552,-24.22837171135995,-124.63895632645435,62.01373916734447,-150.1969242157349,-104.77121543083825,143.49098671121897,-60.65505324850752,-50.55914839995045,-17.941304823768554,18.32838444106947,57.370587117827824,89.46785710503148,4.902987910705818,116.60098772874915,25.212360340979156,-24.257049368072334,-87.28386346827732,16.859316544744757,158.4614945223527,-284.54640859426246,20.588780202397448,127.43072107199383,-14.66822366086923,-137.63622039344722,111.48200253502054,-50.36122211500616,151.71470466100698,-95.40223940357367,-38.416153307247484,-71.25581103703139,-33.048313829760346,-13.971012940089478],"activation":0.0,"bias":0.0},{"weights":[64.62542228833011,93.66024276017627,149.03505640339952,44.91310426164505,-4.651595536313536,7.440601322759919,-41.350833753097696,102.94735611201438,47.50899150320747,-156.52351850029274,-28.537023906719497,34.9399588535055,91.82483014506916,-166.1809538045252,53.12128760125475,-145.56630301707827,47.251012458423666,5.576847893823351,186.54327537591067,-23.986895864086687,173.47621028597018,16.221607843012773,218.2389739097131,34.07068189549049,73.50397085737008,-86.20114981081984,-51.99259475754974,73.203080311493,20.345038411343303,-21.51552842287384,59.38467043110259,-22.015172717923054,85.8513827824116,-125.56511506570352,-56.32358542229599,33.571803546767725,-107.56314419669425,-69.67972660712,183.43267909115553,168.13707055598073],"activation":0.0,"bias":0.0},{"weights":[-54.65178932664995,-57.14621676451877,-3.4049142372100576,-42.347931330495555,41.51953741943083,0.1490370380588263,-34.251156867373474,-112.59268051622853,8.426652958094301,-64.21734611098617,-6.009784134588557,-46.57991716377832,11.306677457992798,-123.22627650953933,16.781681372724503,11.340906025940912,-50.62420882812179,-47.1817520225862,20.324452541847965,-59.84641736020146,100.25221307132182,95.11665695628993,10.480646930873098,-88.64311082787431,-41.03584368569796,-37.68344359893368,-2.7193961141080214,-73.71574052781315,-148.910500263081,123.46968979602646,80.31734618961183,27.61061572839137,-88.0418058458629,-71.21133385142971,126.65614307337191,25.039479145820362,-34.1248285417742,82.64828340436713,7.845573433862942,-87.51418217444439],"activation":0.0,"bias":0.0},{"weights":[150.52313628151452,-11.241859603288837,85.65202865144859,25.506941094649658,53.62604613495437,120.95835198010276,1.7918537044965965,-82.68725463998649,-139.22887662368956,92.07920748745033,84.63741664771568,-34.58202730369664,2.195175719526457,73.70836290155322,-16.81842431522415,49.899066277000635,-55.627202705379645,141.0265400007369,-54.18476901272452,102.3844740372138,136.79589745807775,-14.442888878063133,-22.839430932752432,-96.64572532768743,-76.86211980073779,-66.19296805420275,-69.7903480057033,-17.270056643905477,-94.62895633081597,-22.088047551139915,-81.5885931551155,140.72356410351657,146.60882978470016,-0.5692126530140663,75.45026066042452,-106.09363567705695,-65.55901476908944,0.806702922681735,-6.767097670147481,-24.553686083943788],"activation":0.0,"bias":0.0},{"weights":[-17.756724670930357,-109.15449665655316,-84.393728179738,27.969608561519017,2.787915407058239,155.97893191085547,160.7200542069,68.21612078456447,102.4443157909084,-36.264117267316784,-45.33198991934298,13.18798228848903,-43.20468681823718,15.66226451314267,-1.3782593676823545,91.2843047649608,-192.87948230896723,-27.284209219651423,16.731762263234966,-44.288175567505526,30.17860339805756,-67.73289031183168,-72.33038040147639,-14.958947501309177,-27.02865126691156,-157.9418186394349,122.64526371473465,243.4427222094032,-133.25516587201955,16.399951457910976,-67.32019971745754,-74.53398176414177,-47.46144220110473,12.761258026444274,-22.50767364665494,-85.97519881092467,-56.04777438240361,154.31900393613955,182.43580813713217,-51.62827642600928],"activation":0.0,"bias":0.0},{"weights":[0.41628525142503825,44.1152259569845,123.32111074203914,51.59221105308507,4.24081748055123,45.82268876135137,-91.28484672015564,29.759806052896426,-77.12475905124583,-48.59595926205796,2.4283148684118125,94.31056192968049,-69.1250995206638,85.48970757420966,-121.42780406143756,-59.27471715804736,77.22297887984547,-68.82633110034513,36.39558876953524,-20.518925693038263,-85.65711106443453,-8.408243057836117,1.3938272215142253,115.01052651919197,-116.85638621721995,-114.3886830749665,-57.42599831256487,32.70267599864278,34.11850623389637,116.36712999833706,96.14719886818939,-83.55839898624635,-10.674975806820122,-44.2987081266047,54.850046463365075,-100.82970603735885,-49.42031278073679,-28.673227207623764,96.23683386892218,44.362246776695606],"activation":0.0,"bias":0.0},{"weights":[-6.265665562743387,-61.94878623049473,76.86097695562725,-133.6561909301719,1.675057559360023,155.26152136279558,50.45297320765298,-35.98285096671629,29.74984986988726,-11.06516546093036,42.79468671040705,-72.32675867098413,107.76971549576625,-91.93661234273162,-113.32073653659222,38.66342266003251,-82.82268090696783,-5.0766907901657605,-86.94793122288148,-46.87013061380944,-16.763019985518827,32.11377114108229,-108.57219559056811,149.98994132096496,-82.20150839448587,53.59236743722293,123.03806638142251,153.4827077127755,104.43989593416195,-115.96527769410213,8.158445081463418,-106.48620138567341,27.06279132860499,-67.99038930125366,-38.66886109321083,98.75526821729213,-200.14532714487095,-93.5493105172272,-57.40318886569889,74.68576887312231],"activation":0.0,"bias":0.0},{"weights":[50.996477090819376,104.07696171145446,-2.037778337502772,-6.902534801034202,-10.835231558501805,30.98381501123166,-27.63094893911625,85.10039857945588,-34.057188302945534,-55.97063020246197,8.484471284744316,-199.59028625189165,251.88540517747091,-89.79114484127305,-86.48371085754013,119.69740761610629,-71.67054038543483,189.93938532713824,-120.98705235919992,-106.6741355796842,-31.044370036050005,-81.576696081244,-219.02170159586447,46.96405461107017,171.34060331967916,78.88989095173454,130.13154985037826,161.79688918702308,-0.3262280879892898,-1.144702361513802,-25.33601021166383,-89.68078593930764,-89.48747691651039,134.5916806503707,49.709209866418284,29.169627130949706,-31.180387300500872,-127.6999107157657,-147.61684184064669,50.49978014416523],"activation":0.0,"bias":0.0},{"weights":[36.254289070272044,59.23670583948735,35.74221505816749,-60.38977189050806,-106.51612660116307,121.77317917683791,-41.48188193218607,-24.98069515733886,61.457704753822846,-118.8756522148319,-9.559091866145382,160.75458416186632,100.3122860687301,21.913730913050628,104.36566875059697,118.04628223057948,-162.32921381621645,56.93264404940884,-41.65803708615202,-102.39197225035433,17.17748008575784,-48.21313147782492,42.14449631628054,-127.70307319938433,29.59341759008069,-8.455112402809805,-5.173758964985239,65.28041446113266,-55.09526432578968,-67.35561143900925,8.225086992945855,-14.838357611102696,-10.024297498021962,98.66052836371527,-145.21381567644232,110.5280037604519,165.0738003154945,11.189873996573839,-156.80624814387525,-71.8266885672073],"activation":0.0,"bias":0.0},{"weights":[-5.895578984832326,-48.22813946418244,33.889927037839975,-15.761643253457041,-53.826695257787435,-91.99159817383057,37.76372617496692,114.1506670861662,-49.10447033129488,-1.9379490685320626,-19.13270482488982,-61.2611106152489,108.01536463034779,-79.40878070974682,83.65905661164963,-49.3763593532803,-25.918554756348993,-18.655898531668058,-5.146893983005697,117.42201975241088,35.707850624631746,34.10574364985788,36.51726063786711,-10.288270223682783,-21.157215095309937,-21.056289496088308,-94.50341840305508,7.164934714234297,-180.30770014375045,-81.45901736507413,40.19322487912147,-79.21570116097725,20.230369473417294,17.279871319845586,-77.73655166748654,25.944664084414583,67.28269985479774,-79.73834724025762,-68.00028468659896,75.74085416830903],"activation":0.0,"bias":0.0},{"weights":[-25.163445515150435,-26.102149401387912,-125.1470096910947,76.85083155850994,14.142421144003055,81.47850109172751,3.135483885064185,-36.977717509771786,56.26632620672797,74.08906160925449,-75.87399240537066,-75.96268273150062,-28.044111297026028,137.01842694051507,-47.09592907560274,13.65244960880084,-3.1905846977975267,-123.52186061588651,-10.9699748453358,-3.7544428954526854,75.05536530098044,-124.94716172889552,-102.85399806874725,122.76305574527886,79.47667640985698,-6.186902542769619,118.8515168022107,37.95743125401539,4.897730550035978,-114.14435354810922,-32.73203535287046,13.879100580337266,-3.35128880435804,136.02401509568978,114.65205834102005,39.60466108226172,14.58245808262766,74.39867577227945,45.47659511499713,-2.970443028849898],"activation":0.0,"bias":0.0},{"weights":[17.17290836503704,-8.93476194195164,136.86392009449216,-28.719626022538282,-123.96210616352782,114.4017921686892,54.33763803115196,12.655772159891876,-140.90389366156091,12.593724111595387,77.10590235209911,45.361051719702566,167.55109309339215,-17.118012903107743,-49.34286583137266,-8.323326660851084,142.17776668460752,113.89113680711576,65.15322108516949,-151.54517880104066,-14.51373504742463,-51.201691510273896,-59.210430941677366,194.77497477780435,10.639712020235576,-32.70826416505922,10.020209509644289,-46.200224567832024,25.842671497440286,120.46749842412045,-67.41911808374196,95.9348875784442,38.504003355344004,-64.13507239427894,-0.8299510590862673,-38.14567252675519,-64.63551694714684,-50.68387837246589,37.008215576579914,-11.557120562368214],"activation":0.0,"bias":0.0},{"weights":[-130.0632572633706,-40.01868628581307,126.06145265373578,23.640042592432504,-76.90718307123119,-17.91812662302075,19.14861416657311,49.570676647429444,-9.957459779814336,100.94959233078238,-82.76156794022242,119.90443883492945,116.85941914680662,59.71780155449344,-10.77647278087658,94.46531221732879,14.177127933891885,53.818090787447346,130.29086633225532,-16.357973774870988,49.09640110082795,87.93099553591108,8.210065164040344,14.125458510679513,-110.24046426315729,26.740233099668863,61.14029799807968,124.45185789004564,-252.0125159104551,-52.426793505770306,-7.878226683974441,-68.86293546463735,-70.90755611876612,55.888502814381575,52.264080444576706,-205.91202425591732,-11.618916236217515,13.405357990957418,-94.78822105914207,4.536728400811796],"activation":0.0,"bias":0.0},{"weights":[71.33186838149932,5.1730488213951205,-54.514568457690075,-64.95364983464334,45.8102366586355,-55.92212239817578,101.47620474179432,54.26386074139826,-25.742054267825875,-97.29471456747119,73.12224659385743,-22.865498187400963,-54.768191034135285,-53.15210336824204,-70.02547560394798,-26.672102741967105,92.11102808129918,3.30196078977577,-50.94155066754404,75.41820918892857,87.13792544391855,-38.837809749019556,130.7942557060665,-112.09550918417,78.45255859173986,-49.446321403799665,-26.09093881847562,34.551294029202985,-27.51758503717137,179.6535982695109,-42.352823880305486,43.381259779765294,-37.20493001423992,117.14509178189323,-79.47440355148973,-8.589689523076139,47.87643879637997,-72.45557207071171,45.15922121166388,-15.169803325439672],"activation":0.0,"bias":0.0},{"weights":[108.15323754188239,-75.35740362785057,-23.117626662489894,104.67718730208159,-29.152754126635063,-11.193215047624184,-79.5661547055737,74.05033972396191,-62.471745261616334,-25.239235206422876,-0.16409292096328199,67.47748988175825,81.65427724507265,85.69952915479338,13.233168532602443,35.276419903481845,89.84237427452915,-59.62425299020731,10.91445759100377,-36.615802408036096,-115.15441314584679,107.35081574558558,-126.10110620409714,-55.03475036278037,-29.717620573104945,-40.03002135218895,-18.740809918614907,-6.087230864981537,38.76734335648642,16.84529213679328,30.739885336044324,-93.2087485735465,-3.280676277607137,38.762007589276,-0.01301673715193441,1.6262960471387258,-13.837332590570126,85.02486157065155,-91.11373290319216,-38.57740946799899],"activation":0.0,"bias":0.0},{"weights":[159.95841841498031,-54.79341488585959,47.47618393145952,-42.8131495641583,10.375278761913028,-157.25921419310347,-74.73333580276034,50.943516465578234,34.007213598698236,-58.47111226883839,0.7835315060804605,74.91811812361381,-24.367919694236363,-65.54793744582085,-28.667828858495007,-25.333672938925947,-160.26293781198353,87.57466012386655,125.30011828527414,79.68660584631037,-167.67186453635424,-45.13884446503418,-50.81702047511604,84.68692975201424,-47.24707335732821,46.166085125441484,78.60630173477124,-129.42861444496927,-49.77981828495546,-111.45471727293328,-67.9135158877672,-88.53521607692399,90.80956667773627,-1.065567962607923,61.51893371685316,-56.737032166324894,43.28936784566815,79.53708204401487,97.69824447467842,41.122877479016196],"activation":1.0,"bias":0.0},{"weights":[73.0613265203235,56.776189439160696,-141.9282440901579,29.11510658734255,1.3551924062996685,14.570144632937284,33.859252517091875,44.29615874911247,46.6303395010795,-27.626987420912695,40.564229394139495,39.21031083208693,223.9615077139388,-40.16499128952669,-43.43966516555356,-155.43382162966665,9.37193017413299,58.522029460871025,13.907598548120422,-2.172413817660263,50.757867651024476,10.30603136762007,76.19687004034398,45.74405175265529,99.48024606533306,-118.23664104882114,27.164374411640615,59.80562584936109,39.19832665198028,88.21449565506359,-93.31898535853601,120.26798586731759,-35.968958412825465,7.337690280388035,-43.83069980308131,175.07856634579056,-34.711239336704814,173.969607191139,43.357712448947495,64.2988482635889],"activation":1.0,"bias":0.0},{"weights":[-19.772961000154584,72.2384245171946,-9.142891677941266,-134.87544680008372,-73.72640632545875,-93.32971269703185,-87.42811155257706,4.1016536158241355,15.17796711745107,-51.56468234294286,-140.86915700280193,-160.3235497194055,61.90146650147081,70.70302360233134,74.03376458219249,-156.52090301865908,-134.63870033875875,-29.330544447319582,37.051195830640424,-147.76529216175308,-136.4050027097653,8.392540753576577,-76.82526638323112,-74.64958858663172,8.431878282688333,-90.0168116303641,-49.42431765039553,133.1553658171966,-60.591576118478706,-4.241231325371527,21.56415659513064,57.26363626125415,-114.77280857111106,-24.094836579077853,-2.1967775803553575,40.185743576626024,-111.64024418483766,41.035235608415256,-20.770438267805353,86.60162910608969],"activation":1.0,"bias":0.0},{"weights":[44.203394634541006,-149.1265475659073,-8.024067626734517,-63.2022473461111,7.6744921222008795,134.60816111430714,-58.91855644993951,101.77665559627339,-43.86200786992277,-12.240641855523268,-90.90895236677679,-14.33404707403396,-90.34062796954697,70.65033923501439,53.30076646668641,42.491516983499615,-145.6276801915071,-38.856568393062545,39.90633489240283,-27.818129461993497,169.851662443749,59.56655666463573,84.32856862082686,12.759667718980353,-86.45744592715904,25.99199892882276,63.79379187014524,-175.2306666303612,-41.770328480108574,-8.77488344927526,-57.76034206422837,-14.99793669885476,-120.14214704376944,50.995296144945236,114.61355903503872,-1.8033378127536965,2.06581504145242,-143.5761713225838,31.440409813967662,22.936127167245917],"activation":0.0,"bias":0.0},{"weights":[-18.53917598999827,70.1020461368092,12.452502070767748,69.93881853572498,-76.73163025917208,113.8677681612524,-20.240211555307983,102.82559558114971,-106.11658236505451,115.60621855038595,-46.33845537278226,-86.3265100736852,-62.34112784550075,-94.81433268558565,-100.70651001221455,-2.755169128389154,-30.658332527892725,-102.33386057362556,86.11315603754171,-74.74626272123525,-15.233715969186402,-61.0559029897152,-65.41015562086672,10.704806150912134,-85.03064720258376,-3.3437290083313522,14.870455960692414,-21.294659985134572,-16.764813347519002,50.31365108360229,-146.1682814578148,106.48316406350156,27.459038933459592,-82.38291135940658,37.13280639487029,16.300285749695313,-9.697399667764893,-86.48930854865569,68.86393454635267,-143.6091191763444],"activation":0.0,"bias":0.0},{"weights":[-85.96927292848538,88.40260010287756,29.661543673228596,-110.06179845933691,-8.419873040751577,50.75456273791258,198.5248298634236,-15.151425556745812,-13.310392622479673,-52.74193450682664,42.46655713635766,32.45937193336032,1.339092640947588,95.566290239795,90.05685827038972,-120.31876525842743,-26.16749503336464,-21.381771079900275,62.278310157827796,-121.48690025970228,32.40929192877694,5.929556190592026,145.37478221790934,23.428228631482032,8.047997207565931,8.026290863814664,-107.54606947471457,36.07933478623288,-135.08786059163202,-28.331125696772,92.04644566038519,-75.26119163754743,-33.195019750474515,101.94196325821478,-77.00086762775072,-99.21397776360217,-93.65555941412615,26.071655737264592,-34.61331786605877,48.341505687110676],"activation":1.0,"bias":0.0},{"weights":[-69.17948125594347,-173.10213315171393,15.675441854454059,133.82151814869633,-143.73325566063244,-62.02625115865172,-100.68967555669023,-19.051897081070273,115.31678688205028,-41.426467145661945,1.284974249071988,-41.64536996818733,46.106363267466364,-7.079921718785608,58.069535986167224,-26.497658445380086,-58.43251390913607,-5.4741450066365225,49.743838658912246,137.7744926100905,17.8872363912448,-24.62609786663678,75.56503014715237,-73.102424001889,43.0567526095642,-63.570872112751445,-93.73914374733816,21.201901473906045,47.25845641974961,-40.64808360046271,-72.53394346939002,55.89255458686874,38.14128179868675,29.476735213097466,-112.3130848580946,67.0812562081561,177.25701309232434,87.00726135273493,127.02382774185584,-61.586319258162796],"activation":1.0,"bias":0.0},{"weights":[17.31216180391744,53.841844242140134,-30.545869825806488,-111.03564312762119,50.5007126240118,94.84042718381542,89.59207029105521,-84.4315867213791,34.707400138420255,73.74359186545853,119.09233423688147,-4.3398156784437365,-48.136090982830964,-130.25514223297643,41.14683907793899,-87.98001429359769,-17.52972299001929,-94.54195348373966,21.669987254545152,37.03355162053215,13.572196324972506,14.112526226518856,-87.49248718599185,-234.3383718726829,-13.600874341770158,-68.25538421190308,57.119742040524464,143.50842894309628,33.096167261829464,174.97126069258331,81.31903171182168,-61.03545463439341,119.72828507356104,-93.01020636621772,-59.10586045511672,29.182329924065314,194.70739197449527,-23.082954764235545,53.51131449782283,-0.5048557686011148],"activation":0.0,"bias":0.0},{"weights":[-120.56762015946606,-104.14587819924037,-22.150483441029344,-175.2367975410771,-4.657699713631714,36.020407310588986,51.9844765586296,-237.88891054768567,21.497405775261864,35.46365829556152,-77.76891745312341,83.48646651338306,-98.4661201745236,68.31625963200868,-42.39249362801646,-40.951051121370796,71.49367951789341,102.77598769724585,-8.13176989900823,-15.779073081327759,-86.5797186434915,-25.44790834857106,195.08299890750828,-125.58917590363164,45.91863257593525,-93.81255164396345,17.810221180676194,-14.24712609491954,-35.080830324308415,-33.260604794781905,-72.47197150808097,-138.24510699069845,14.462906843000804,-14.981093190507679,-63.612968203073486,127.05385232343275,9.035855438386383,-33.94035737458461,-19.73654506569965,-29.566180256315196],"activation":0.0,"bias":0.0},{"weights":[134.3129561251231,145.96337724631516,25.331780022366406,188.77074928611003,-69.3436117523929,56.7868685408212,-36.93294813555263,11.160504755371164,-188.5319570533184,38.625173836586676,-43.826161530780396,-6.550122862593142,90.69719797564376,-57.54257563210632,19.694315228214816,1.4784971176555652,6.112336804662492,41.385282053359205,16.419111374248036,-32.91290385939423,-98.17314632674434,-59.39204951752138,-60.332475566362156,1.5402820514710802,-102.11669807485252,115.27523088133242,35.35263092261174,-36.72966454717655,-79.72767426085188,-24.327624908136123,169.9097296266598,-110.43537997300855,16.06508173703629,-67.2181604119989,91.37615140808383,90.51064681673076,165.080567021981,-53.352948890726346,-140.54315234167723,-114.29786797056668],"activation":0.0,"bias":0.0},{"weights":[28.68245504201591,72.6657438630985,-39.42477880782079,34.98802848088903,122.27547861699237,-93.83950221006873,82.93564804899758,120.90275436520339,-53.119140782034506,88.84726024741605,-31.773523099542636,129.98757401840714,115.43954781540505,77.50137774243635,-7.7205142168592165,85.63351201477018,40.00352637402691,-72.64683409266192,-83.1102999218114,-57.69780105787278,-65.83293895751798,-42.65416948219935,24.4912130192513,164.38306541484914,-115.58595564970618,102.19042376191013,57.25555374582779,143.34301545198215,9.948122300677714,16.59154261761808,6.57297735841822,-145.65691783400345,152.67948329366803,60.540100101921496,24.80861733418278,82.78542359730972,95.05292638358034,-63.433374853706475,15.73926662171691,4.645423163084574],"activation":0.0,"bias":0.0},{"weights":[135.4162140151521,26.208196983071215,-2.8702160421667715,26.807839131877728,132.0153312169963,118.43155779053484,-89.93968421494525,27.167978098459734,20.26399574352727,-81.24298507629388,144.79395813135082,-30.61420390708153,7.775726260155281,114.1440788103935,-19.74285311377387,26.05931036714707,28.49364314338616,-133.68120116062184,2.167899511878666,109.25098327990682,-84.57761589609036,53.11999739807535,-30.665979438515286,-65.09051821124501,-10.874120805004706,21.396929162906545,52.23781139727021,-48.989227588541915,79.78940249162046,-27.59065813403101,6.814055335907689,53.7929924377021,-88.19994473584661,82.16372025035145,-34.0165113526029,73.14977876354423,-14.989546013153278,96.98093568050537,37.11400079941221,-59.47778553912841],"activation":0.0,"bias":0.0},{"weights":[-71.08455291195807,32.73444008978084,93.72385684794175,-146.86044693493238,-7.747383017240767,28.22135471003477,117.81857544141013,-63.1410630595479,200.98601391707476,29.737597870105567,-33.2922878956538,-60.588557439140516,-27.43760557698236,-47.09860003334241,14.098492705478556,-116.49095669156523,5.180664780578896,37.41834446833663,125.66837214348887,-109.90151696008809,24.039729125581395,24.092329400613377,-58.02733313735177,4.418024505947148,-82.51344197124725,-36.16506535991355,-56.617149027209024,88.5489222519863,65.65073751978018,-204.76175190013362,61.146567234746136,-176.97253582784091,-66.44577922191483,14.54636365162437,-3.748032265528671,84.81132889600674,93.40014031230147,-38.978837864983156,-96.22429111991089,-68.52122682410833],"activation":0.0,"bias":0.0},{"weights":[-76.73531207468673,-1.9438201040712855,37.16000362904568,87.52360139176248,0.25080996669175315,-62.80916635924278,7.563207528724429,-95.27401173911512,-8.667730643507856,36.67730373344928,-2.109797415898176,64.13826645951313,65.22491570355761,-18.95997271484806,52.97839169248946,46.556253154116966,-86.08817169478814,-36.94959352332455,-94.53052562242338,109.99279307046949,65.19100133738782,42.00565804970555,-40.08986970614077,20.880850411094233,-38.486296473228315,-157.89221345888419,-13.056334503111373,118.013561956948,-66.90569912159414,206.29746965625716,-77.24058073757645,51.376505867330216,-35.75807595308064,-130.20579558390926,93.68587641225066,40.37656747096893,-19.01171519212424,251.40383707017693,183.93454292158566,-17.196688546055885],"activation":0.0,"bias":0.0},{"weights":[-107.85195470401251,-2.7455438397859258,93.70335429413785,55.012600996400266,-90.8308092823766,68.70169555680894,-58.18418074701582,-66.51730016055313,-81.86008449078656,-85.10231141280687,-42.15256898553712,92.90865999490784,-19.29728659017342,73.15755547958476,-111.24698011470674,-152.17025804932123,-7.56895622790843,-29.91344180702923,-117.96308604662799,-61.48361948338296,-100.23579749192466,90.81689057965559,36.92216931346045,-17.3570134748643,141.16400039618824,17.2061331177611,-68.70291766158307,-42.45941548598955,32.747811914764604,10.427040405819413,113.93831043870333,98.03546694000315,-33.33412336106333,3.071428191008023,-44.413591647586806,-120.09117552485718,-61.92462336762526,206.94194924806075,25.96225011537853,31.67773978699432],"activation":0.0,"bias":0.0},{"weights":[22.708535418285866,-29.968172360050012,-13.940239448970717,56.05268976640415,55.18077049011761,152.01552864761277,116.04632196228522,-22.509867633476535,11.258899477059904,-145.1879503787706,98.716650278999,-26.989865192302876,155.87442020410293,-58.88651474622437,62.01706964203509,43.06917781167149,78.38435151202154,-21.224591717900473,-33.07782959442034,95.28362114095187,-8.11643179190765,-10.620450008101045,27.408178369976117,-90.41523921805009,-4.253108210684455,45.339445023848,6.196994453974882,-87.99839279980432,131.1775611659124,98.62086508857541,-4.471901781802325,171.3263767473241,-36.12151072210137,-128.91651771706714,-145.26834330539631,25.562059533771265,128.08056190959965,-80.1927995137216,-3.984950616227505,-68.67525642722242],"activation":0.0,"bias":0.0},{"weights":[198.10785959236415,46.99004729707681,49.8488739511251,56.25590771764398,103.22135164038973,83.2603687831356,-50.76875798241862,167.46071486751222,35.324616633490216,-62.67615373597217,68.24683943503399,-92.97779366015186,-159.24116970917672,-29.601453949983075,126.9085533610189,67.98939135250372,47.768842114442855,105.46355881489784,128.8766224014757,-13.770195477990098,-87.38295933560235,-95.78059848364708,-42.45487921436389,76.47009468519205,-18.14409944615878,-190.44299200678066,22.661530299109472,11.812834345370854,-51.177354317355466,-26.767103236627335,-26.573472139412345,79.56809162911354,-89.45183247766569,118.87872010930245,-27.56069344075012,53.99361067710313,88.29493927255525,200.5140829801446,-27.887772655731744,-125.56415225694604],"activation":0.0,"bias":0.0},{"weights":[169.11866885948348,149.65726138270048,41.56613233027943,-111.76766034579501,126.96254690830195,103.5120124424342,-39.75718599533605,62.486988724414054,46.595142142870344,-103.39347780766876,34.28372038162349,147.5755455177581,27.647948165895848,123.75843616044922,-78.774552776021,127.15095840127161,13.685558577701892,64.30317440273966,-135.7450391056708,5.402860705832807,-37.23266735529468,19.742945424776575,58.19924770944671,101.67445804824109,166.56217727632946,42.776793256331715,-53.14413962034819,-96.03082366149074,-18.998295869457934,36.198448915521915,-4.766639563155589,-23.234411244716284,85.28740046397685,-22.6451149017891,26.581666155302045,-78.59773181999142,-59.34982043211436,143.71819729350887,-85.77966012700362,-24.88658394008719],"activation":0.0,"bias":0.0},{"weights":[-11.048561506728063,19.61137423230894,-14.100446778744887,68.17986736475072,-209.1195100744561,-0.4853800716731671,64.42447292916063,-89.02243272885865,-152.72602641312974,57.383875322066906,32.54888367896861,12.613505039095394,-43.136379356230734,173.59052928956905,-186.15795931147858,83.20618908181011,11.64550681936868,19.993050301162846,132.1716994406863,59.41896809685232,128.63492500918875,51.71914605809154,-142.86207126458916,29.522860568309774,-95.89216457804595,38.79613511062927,26.293332908166366,-43.45022468725853,-9.184114894363443,-135.62920090017937,106.6311383064042,61.28548619809341,121.07080436723777,-13.911401296615336,4.550940568391731,-176.05687397619084,-13.17282490034918,-154.57187349617067,-61.29100694920101,-3.8000053754605077],"activation":0.0,"bias":0.0},{"weights":[-52.88258048600894,14.76134344127505,-11.05938233630564,41.44343942396097,72.67496748382597,-90.09438322721309,46.6667307275071,217.5009823734462,57.405080080684094,69.77093535672108,122.61120305944556,-17.936359721668033,78.64915262357187,45.400932578437676,-13.765714907015283,8.459357922881216,5.800416148512378,114.15239134556487,-128.20242436160984,50.97651586477785,71.65141001056543,85.80976982492744,31.305553326403555,-69.99178655751615,76.88934773858524,36.57552272524101,58.51993789266891,-14.154506517140465,-48.84547435502656,68.00555832600004,205.16164195111085,47.406214396801886,-96.34488645900713,35.6138842292821,50.76570812274402,62.26189152873978,-70.10869999131901,79.29453621520054,35.52024616060095,-97.00135348072625],"activation":0.0,"bias":0.0},{"weights":[-26.58362812491379,-10.501514076832274,7.780957772797187,23.15853944888728,54.56515253094331,28.180565847737714,-27.112588395959225,-114.17430788687095,-120.77095092879514,-44.40878759215437,-47.06405344739215,-83.97031564499498,-138.64455904909948,1.365534465938385,-178.19341704609676,-49.661642362185404,-2.389042406421755,83.60558009797,14.363158942815609,77.69825369224883,-125.84230701645053,-69.48718044954435,3.6811265509889024,11.95238681458104,11.785601806475432,75.52599975818335,10.2868957301276,56.305505834412365,27.636848272998932,25.806030254743664,98.17448255028214,-32.73405513684448,63.061412444878904,-20.493730277277336,135.45095708432208,88.62331714619886,50.0363281132735,21.293792311194327,-107.53215140790573,-137.89460759958575],"activation":0.0,"bias":0.0},{"weights":[30.942178432612597,86.37749621490525,20.15337772479575,177.65023519992084,25.18414042224199,-1.9330307327229495,-179.64368381871378,54.73394512528778,142.80173755553068,45.399692549470615,-24.466928824289074,-79.55249742255752,-81.35928045074374,-7.806747300347058,72.97052815289379,4.499538974239665,9.824416767308483,-92.12876367747852,22.86741664761967,-19.337127322377444,-75.42843883656083,103.66730427661342,-163.123737787396,52.170009134814805,-13.982094861690296,7.771745412967412,-75.08153739448389,-27.349958511397897,249.39480801551792,62.69449737671173,-43.11328657441506,48.757918708282254,-134.6153403173725,251.54770119144615,1.1366146759668414,36.994506287140474,-182.48304105274485,-126.47571064737942,-166.1884267411119,-20.478486052637123],"activation":0.0,"bias":0.0},{"weights":[28.56701989524549,61.99497216400785,69.60922371350149,0.2709753479112401,83.51844020659321,34.93434448565434,-62.176559294021786,-14.240919092701553,-32.453764253752546,3.1962198995071125,-12.567944971923012,107.52907500171469,117.78188888466579,216.0465810013921,-27.373104584429708,-75.81670428538277,98.77717813021033,-48.06126679087524,-82.24781925856918,119.04128071000245,-53.36910912908157,-132.62551750521678,-32.380882831789776,-204.3590180465737,-139.32416223368094,2.669749556567176,43.4527143017621,-75.91387115305238,147.3405535316438,-9.961068438863045,-59.12862102550246,-38.834988560927755,88.80988511323463,0.3191737365844365,115.61706829331486,15.876000272395963,45.75257337406016,172.29462820253863,-9.891810281561321,-69.66562204988821],"activation":0.0,"bias":0.0},{"weights":[-9.848587195479118,5.626196896431078,33.10611854224796,75.75412376800344,61.319516247527005,-101.88503637065126,66.45797873659284,-52.20144918104552,76.31717038592859,137.30111851380846,-22.50476190641807,-39.155106902559844,3.365794841182433,29.547669109770254,-0.7159238355717996,89.7731288431913,188.0513863792238,-5.998694911440959,123.63313594455751,-75.60074373874221,-187.2785810808902,30.13006148276366,-48.19694056079554,-75.45504674844123,60.42050802339512,-139.42220258477994,-40.044411393007856,109.096782316012,-80.6233533909239,-70.88571225046203,-73.23648652015162,-53.456908333020266,38.8659152501033,36.356150511504936,57.57110433722664,99.50686053051459,-149.45189956110286,-75.17337964749463,-21.181837533822858,1.9783037639593695],"activation":0.0,"bias":0.0},{"weights":[-11.922226493058325,-44.21001587968248,-136.39838491752843,101.51393432439617,23.363721377188902,4.401699795599001,-75.04578607691035,85.32113568787554,124.81203518186236,-142.61885414554283,152.70544057558647,-82.88641712013397,55.2869083215956,-23.290892663282385,-73.29091584922645,45.25146702785737,-0.42928858299070705,-58.42724879976336,25.38761484882831,-79.15235209261692,30.590430693161874,49.17159648769961,93.32878117596596,35.10794369704321,40.24600258307589,84.94512762313904,-20.177143759291013,151.0602934755843,98.23076290322429,-140.82739614463298,-20.71500877504446,-32.39077638427085,83.0360201571852,-8.210068373234659,10.376818371768259,103.82457090422483,36.102474814038096,-27.489416109872153,-128.82301302971575,21.88721971526032],"activation":0.0,"bias":0.0},{"weights":[70.53624456530177,60.85186277181593,-29.42601608234332,-17.07388820098842,86.02171246360722,-45.056178544251544,23.866277297784485,-77.01864311445084,-91.68628856701606,217.75035781398344,-104.90047009131128,1.1121321910516169,-22.21909702550963,118.36183637198948,18.955193574194812,81.91622209507979,9.822900006125174,0.6230654474951008,94.35400062900847,-27.137705212447763,36.63009266473063,120.24867348552334,103.33994927224265,92.04756924271317,-79.68535457903964,-16.264578821624045,26.485002171401614,-115.8927748613191,-147.25851451356266,68.1789958932381,112.24743813683284,89.97547152224132,56.48086106614731,-202.0485900161114,32.23859312751248,7.582276275021411,-30.465035711895055,15.062816174916184,-15.202653098693354,4.936553933836682],"activation":0.0,"bias":0.0},{"weights":[-34.83993177873223,-157.25643146264207,-0.7413546807162781,-134.9014681599983,39.772236685345625,-0.7556817927996109,-98.23187000524828,96.22915639997852,-12.621859184813392,-68.96344543671924,-86.1633125530006,51.74280632651107,40.167593665263766,-50.191500508177285,-244.1411289714842,132.45698836351727,-69.1761390881834,-72.8027604381655,-112.61139528836175,3.4674302168584332,18.755107402523507,-197.52767734874809,118.6356542215817,77.26532424919692,-25.266763753214494,14.69725230738463,4.056800646458941,104.34415377661061,-29.326183940561663,150.62411356997052,173.41038734267394,113.90592694092558,-113.7263328844331,-61.65772528043807,-102.10129293549377,-42.05808769679683,173.18690387303573,-17.79571907226939,189.80016452879443,61.45268561119461],"activation":0.0,"bias":0.0},{"weights":[83.05804638758386,175.27095809252322,37.50134510817581,49.88648742280814,36.60363136078973,-74.8655945275065,-72.8337343189883,-92.36636738608046,-27.195100875282744,76.47899524618167,146.86649507619813,-93.32699126850146,43.1595166863994,-62.216342446090195,129.78864524215894,-16.86494682893736,58.50830062269334,168.06913986633253,5.403983335533052,-133.3931557069528,147.90016812784867,15.050797805563928,-22.754708871257318,-74.81416023995938,-120.76937820204375,61.42530558909926,-58.70591250046982,28.11688521682057,-108.45347217379704,-45.08480081437051,71.8144905961365,28.39482263976332,-41.16003432024443,143.61026721428368,93.24153853737151,-71.60758144657763,-86.89389803426639,11.071805046076868,89.21751796774359,47.78683512600866],"activation":0.0,"bias":0.0},{"weights":[13.59267502814289,-22.246798131080688,54.83534691137188,46.265338745799,106.66869752508943,87.87632533005129,-26.662777508556104,-7.5919057893496396,87.26051414468525,35.20919999532267,-66.81383411534188,-65.5091445806892,-155.44974195678407,-19.754526883854115,2.428050469805253,-123.1492025942546,-71.32740327776021,-66.75323390584578,66.52552780557453,134.12820561461695,-38.10574136749142,0.0024760234599611186,119.2092892184968,194.96870193689415,163.12624962745187,39.24824046050051,60.810522222084195,103.19460832539657,-2.4579760953521768,39.94437533457375,56.32345576986174,21.314096768261034,-123.62323106300195,28.556854064365663,-128.71513144980426,-164.8812745994892,-164.59325655346208,58.36459329620712,10.23745286293307,59.05751991824037],"activation":0.0,"bias":0.0},{"weights":[-26.97164568421973,27.38525627700754,-103.07371482899836,133.37728977214752,24.317230961541735,-106.67353338532997,131.51649203814534,-157.29926518373162,-81.31478906163304,55.946851404749545,2.1672350738273964,-14.539004406432502,57.53559575573821,15.481833254881561,61.7983929334791,53.61681523192365,95.49804561121523,103.07899782742864,50.89153772404336,12.400469351597083,41.20130611872959,68.1438161082059,-107.17072314004888,-97.96620729479652,-93.00700446917605,37.027258273332656,-100.31350584038829,-176.00513495107484,191.7298028272144,-90.28353127027465,-55.102912088796906,-2.1046830592932233,-13.740827960454759,33.55740187789653,-34.41017863160795,-77.81190469115187,71.16932206003445,10.452268012904756,134.58035164328075,131.5849665404427],"activation":0.0,"bias":0.0},{"weights":[-46.42411346184833,52.81441041363796,55.41014407758878,75.1400451754184,86.52844634469673,-36.461254163927656,-67.30048167467851,-22.383075587477663,100.88421844603286,-115.6824344600484,77.21099460776438,60.553495871110684,104.49974894888351,25.792497043691228,-29.867386326739414,127.16026961074762,119.41030234371328,42.61223918662884,100.39072739844576,-77.9097818673745,-103.47237754108929,-68.57000853210141,-114.554287887058,11.75057049409789,-9.781165154459652,-69.42581874378764,9.988915032852955,-2.6180355151745784,81.40397925409316,127.85554976396563,-68.44261645817973,25.425553422361542,-22.122214949968892,66.35714127019111,73.35017809403442,74.28768179783218,10.524121369161891,40.25984436463175,-106.95037598608457,0.3753432316481745],"activation":0.0,"bias":0.0},{"weights":[-61.74336293651143,122.93499674222247,145.35074232450071,81.65017639024428,-77.68592834660032,-6.479097622590645,72.03201809090619,-174.74716181484357,-5.014096490973664,99.4332360809604,57.535873928519,-186.62592658165124,159.38118373348533,-11.858249746405184,116.60045333061146,-15.671874805120602,48.842481483585615,2.4420679089863175,36.80679799572564,19.21015291829091,-22.74175920043905,31.08472438128865,-63.819524667232976,37.175403400082,-17.088193519539953,27.121292665154723,21.03913471131572,56.253185769669706,62.21977207193192,-102.39593684030108,-32.32375338699927,-81.94695198964004,110.14388810162863,-59.3198978119216,132.83713896194396,-41.506890462953756,99.9519305847887,41.08832872143408,34.93936014785241,23.792338410219248],"activation":0.0,"bias":0.0},{"weights":[30.046292970498797,-23.125221463044095,19.015185464165743,52.73614323647371,-16.51238229065889,249.798003758918,146.3419896659517,51.002428052082244,-85.35530595142775,-54.65398467141013,160.7820679259185,-25.974718361200622,10.42058633838844,140.16179787392755,123.07237279054611,1.3583939914301282,88.16426740334151,-14.333879634557594,138.58220465511175,-106.56293514492366,-95.64747574142318,34.486517216074255,-12.125184489723885,-83.61400464273262,-52.918389284629455,108.28160293593383,-7.5384015835657046,-106.78514915898211,-66.89607168430369,-195.3086083244069,4.257387917510648,-1.2741101721304302,-31.897100159396064,100.96939902064616,146.85118471205936,117.40009261262011,149.9725532967249,-8.218076479467546,-130.70165138775786,17.345202408045495],"activation":0.0,"bias":0.0},{"weights":[43.04776194253247,-219.75804917709564,-85.63095077119243,-40.30240091801197,41.83226411329316,-139.63087369434697,-50.03830214002903,-62.30296158561027,66.40874161613822,-24.298580170823037,32.58817294236787,18.457683983713085,9.99281709974294,96.43288580226375,-6.5220147101297465,151.76432969091343,-26.298122467030485,-49.21390092747015,-140.43962031039595,-24.022213003394565,38.20458233829536,22.697232814744478,39.235531776020295,115.85444483293753,145.64105169676236,-33.903291715516,-39.506373776258975,38.41180425538909,-70.02722959473428,-156.55830037086034,37.410078738209464,15.535939501573363,-22.294564628980126,-0.9009291200158906,104.41895407096999,53.26169227255237,-9.936940392473623,34.44381387270656,2.162133277981899,31.519257152858167],"activation":0.0,"bias":0.0},{"weights":[27.275218413669897,13.347913047672431,74.27537287605415,60.07667582588384,18.730980860028215,-37.55677257576882,-30.30443041792898,-34.472693307620524,32.293862914190626,-68.77797485372085,27.78541163310471,-14.588003273435298,61.55186505457022,63.896622507649354,33.03726955824284,-101.0007214588758,-87.51243189781431,-15.645078123647616,43.68512412693035,97.05532735754849,4.907595401892979,-20.507415218161476,-7.037490256034191,24.401213417937278,146.5922373691727,84.79631652578388,-56.090696844588074,-30.64069356391248,-141.72021142356036,-29.620977657558722,-96.37586332856198,55.37706628214745,-14.735368282656365,-48.107370945876625,97.385912594442,29.903931615192803,24.67727046645435,-63.68337231676972,77.06548470838574,48.033328823901044],"activation":0.0,"bias":0.0},{"weights":[-63.64324558082051,-139.2836857087619,-7.026537987213497,-86.37267186145893,-6.823732016271594,-56.58177516920972,34.598578747586565,82.56970689099592,-108.53724038242797,-101.05646818014247,-33.96459664099356,86.96733392372658,56.98688050690557,112.73769262633472,133.22296707218499,-174.5951765841395,-21.150774451525507,-31.59254888651365,132.05692997860473,37.596393641124706,-32.6185150066098,-39.70044905466267,27.887493666985076,80.8425649844159,-97.36529122214831,-200.87431915090798,-48.91369380956207,-19.993300652757586,105.95932588335027,-85.77821740887644,127.04092394091948,-208.5110006138842,124.07688032554998,-27.653317801748784,-68.55199378374067,-44.99331590781889,-20.446000070531596,164.83657894775578,68.60943984737835,-68.75424896022734],"activation":0.0,"bias":0.0},{"weights":[71.6800323517772,257.6661686990107,189.07062206363727,28.184267461260973,112.12340816623814,125.79749005577459,81.72510605557326,-86.57772577871874,0.4812431512135261,-70.81712156716524,72.43044104786922,-27.83078495143638,125.66543843022723,-31.366239731930605,97.824862748111,6.063506908120351,-99.89534522706775,-53.769070658771284,52.02778990394478,75.72357574896121,-15.477077535123215,-68.11845316386878,92.19355222201123,178.94124042788164,-29.181934320920128,86.6550933329357,82.8232900910794,-0.870151943291454,106.57481267231239,71.05307309826479,-75.11633939062321,155.74116477493445,7.13859791755301,32.98866477784803,75.44921948413531,3.7278239588345112,4.9505724968040985,101.01474610715583,38.361462908817984,95.39915051693802],"activation":0.0,"bias":0.0},{"weights":[-2.732569965894053,-26.061270587424943,-23.085961314726433,68.81273016925854,25.758267547081424,-79.89536195661906,-138.3924162662455,-13.996067782905644,-159.5787455385993,76.81133926189005,-21.458741067011452,-20.301444603063867,18.143147173740736,96.24820212479541,-113.82587758996726,-46.27365927555521,-112.08900334540765,115.77473147074046,21.577355537807012,-193.00534021095856,7.394654943236298,5.550551977882373,-183.33992001222254,-54.76780481293668,-2.3073407113452076,-11.695784105000776,96.24029922973004,-25.554923252202723,-78.38564486553757,25.005739356119257,-144.6192817871737,108.7387332678563,32.970809453894745,82.94861494257063,13.754381399450335,157.95061162679934,-63.13364176402259,-38.474959038992196,57.91424551099778,-135.90793324010338],"activation":0.0,"bias":0.0},{"weights":[-53.15112964481931,43.8965106737817,32.97658262211131,-50.18304537281027,25.760636567885996,-75.5266345574974,-37.01807762725179,104.69699994194221,-2.0794945849104463,73.27032921829813,-27.239887663737832,159.3267132435475,12.438116358742187,-67.26452827980569,-63.34555705688022,-21.9004302598113,-13.333697510661805,106.28844695419382,96.47712541685155,-42.42435340441071,-65.35430510065366,-83.48385718349427,127.49126908547889,100.87852107532463,-39.9219521223767,-89.34237475482468,-21.636435867642863,-36.99144404190971,40.477648681663844,-42.93005963774168,-12.37743617555439,52.66472846656549,-20.274065928081303,-12.594931898794924,-84.65863485310447,54.94435351838746,-112.31371977832154,-7.331262279481837,-39.02821940992282,17.49922071796702],"activation":0.0,"bias":0.0},{"weights":[33.87967101483884,-61.247558959572125,-50.02692215095295,-42.69697100774819,110.62988170920734,40.54711340581958,69.26101966431973,-26.266846032461295,-113.1915363951497,38.71510357950621,189.97083090956653,-13.68773931694036,54.92113380579068,-2.917117608858576,18.4330767815334,-14.81906160293429,-67.21422387734901,6.506155236112841,-47.95614604787595,40.426865800703986,141.10367828134483,-18.46948655067519,-31.83767905236287,-14.481532842033896,-104.23814183654274,-104.45557901252975,-136.80970351632374,342.1189122565345,-21.480815208307156,20.496020322412825,-44.689972692045096,39.79287509607607,-72.11358176017912,-27.307944588473724,42.77207777295816,-24.850339821967818,-59.88894838843124,-171.47747867084763,-49.10394111111344,84.72886002296791],"activation":0.0,"bias":0.0},{"weights":[63.74929300429522,5.040143374161318,-72.820899976233,112.15433189276598,40.479106647448,-94.14475988493184,-115.48782038094419,57.34397393180434,102.28993401629992,226.38250174097044,60.95128703931123,-23.020917074876483,-82.76254155924136,58.334620413024815,-148.98590359971388,-16.762814269655397,115.89673834645781,22.774275143953645,-2.5522310314136947,32.90735971666868,132.4455349681605,32.55025383416533,9.593707820585514,-94.66232394559712,-51.72676491778209,-115.4324682277772,-110.542853595754,-63.53445658932986,59.746035701313026,55.66461722545077,147.0680573023619,59.28632224375937,92.35365445546282,128.58950909589697,-193.24983816908644,56.41246944998072,17.04791869746387,13.85800318960997,87.21031939074877,-37.40586725918496],"activation":0.0,"bias":0.0},{"weights":[62.47238146937221,42.98597469156696,-46.618510917122634,-21.117422581535028,-4.346603786698746,-6.192451604268695,100.87499467396424,-49.26898281536394,-3.7369745516034536,50.82617139220204,77.30580770023285,-4.692415947612319,-30.02384492459104,-54.44642899575315,-121.89290623132835,120.48446561738234,14.884946058322981,-65.23888053332168,-65.80224663813503,-144.33662035662556,226.23039794037246,167.03543607905465,91.80831836945335,-31.831662210949254,14.89249408442353,-7.230111060255931,4.3853592268352966,57.59471695760952,-10.852687140363324,22.45236393785721,58.563200635178816,-28.959086167573126,122.51892839526225,30.761404586600634,56.53062945915562,-146.0573724080124,22.406717425476398,31.309227743053246,102.52006236579562,86.63614793462159],"activation":0.0,"bias":0.0}],"hiddenLayers":[[{"weights":[63.6235507714576,42.58177502719029,-61.00986992709858,91.90025101760004,21.436694277412087,108.80460580228649,25.647163787884907,-60.210437486946574,-11.756968426120906,-12.689379501999326,67.77697933732702,-133.8132432348905,-78.54503555156057,74.05761383759523,-75.99160142647773,55.93128278747392,18.40973178417069,106.93520132532028,108.7763162187244,9.753837142255597,-57.09131014724748,15.940270361933235,-64.88707595709715,-37.67358851925911,40.0852184504082,36.44702221218157,-12.6417121738873,45.00320482297993,-32.29039342028403,45.66993240498396,-23.90601085632604,48.923223958395795,-27.943382504744505,104.10725964785999,118.45749985790472,-35.82957577830099,-57.7526782107249,-75.9596520360504,81.71430592540828,28.521082027921786],"activation":1.0,"bias":0.0},{"weights":[-115.49797964333439,-123.07433136420113,13.722866549303706,19.382571689387213,-151.18463572649455,1.387723768279057,-19.776655270930526,-10.947092895370277,118.45520795594895,-106.22313935329821,-29.375807943838772,-4.2223942399008125,-16.834574468312557,4.326197343118994,83.50657150500783,4.966605645443413,-135.37186193580342,-6.7874529136623485,-64.6888262283003,82.98248364220866,-56.74728762629985,-29.150524047201735,63.51218818985181,-44.69211734630949,-18.611924146611514,48.681588373933295,-105.97198392465036,-31.716344988929176,-135.78645086634063,-27.846623729885664,-109.59311769572993,7.019948268064889,-54.850502892198264,36.08745059554467,-167.93240849020322,-22.009144105765092,-30.558259602784766,-93.27505578651517,-32.43842311196021,-48.948205832085215],"activation":7.702718854428914E-47,"bias":0.0},{"weights":[134.73896725545575,-70.37009874438967,-129.067978233315,14.717543973450368,-49.590816254208406,-11.17307377687014,42.226538863451395,60.388491991923395,25.562001684931023,-57.381796186076336,11.600790686794404,53.71161729371909,87.41037572664568,-17.325852574522404,6.988524468158491,-186.10639501396716,-37.23538306673923,-61.453207761228384,7.665205681620084,-77.7274171731497,-78.59992226012528,-29.638038526460356,-59.928505748820704,-73.63103524045576,19.39596763994253,-83.52869032920633,-17.713367916761086,53.71340466171691,-85.56577067187536,15.84870778671019,-30.15454110707245,25.16872686088086,15.500017557898301,39.30340630032779,-50.30131848920161,-22.827644443357578,39.96615002473424,53.174138674100526,-40.98182125370841,-32.92393854550653],"activation":2.4565321694210843E-83,"bias":0.0},{"weights":[121.26993554564093,-26.597474922905775,-58.90085671639201,-156.01491138132567,-17.98787500208112,186.65882977013973,-69.54954781563075,15.754939705499602,48.865137214799866,-36.77080521153894,36.4979421377022,-64.45721545354193,76.82253853650828,52.012856583331185,65.58194464634843,-86.38984568403757,56.82680885090513,-83.02223554829978,226.76921018336873,30.923684783071295,-159.34243478318993,38.865045058202895,-98.66075179749758,-48.547596731719096,80.65879143514299,-6.000449411262557,-42.06209624951286,71.52426288654121,50.05298850184343,49.483504663695925,20.33590150512392,102.87078667706785,-84.68534424329472,6.792314397658886,101.27827135997845,4.680115945600133,-140.57305729016474,122.8277966942345,-85.26280171707494,111.48277525077214],"activation":3.172775747697019E-82,"bias":0.0},{"weights":[-48.04813935151861,52.1398780738348,38.72936559432158,-24.314881256234283,30.779212726133043,-34.01747136005386,-37.87883558993428,4.5804229883971574,23.302606346075024,-12.689170767393186,-17.386449009547913,-80.69371740161564,42.06713079354776,-125.00928641973549,55.98168367642148,100.60549044228065,30.057117863830932,1.8778914328924712,-30.789683731759414,100.76190475209614,-2.6565841283245235,-35.879464837460546,-37.12549303537954,27.979740495561224,-80.77083801339845,2.983215193443235,-49.5675852994925,131.698412382734,-65.03987717384095,12.885239172189518,-13.684573000617645,9.554634036962838,-45.72183892504564,-20.788090570101208,97.92740914189926,17.47571361694651,2.2587915745870863,-213.68849939480947,-73.04033356503976,54.665264337060854],"activation":9.833412932266923E-93,"bias":0.0},{"weights":[-88.94221642138446,-82.37866943732146,-68.83546988673245,-33.560331153906816,79.09351264020066,-45.18512352259884,-15.09104981622586,-46.705049007719616,10.692567851219353,-8.951674840935208,96.79331654078344,77.79099850945738,47.83412203780612,95.97595316685174,-81.65805469747191,-37.57056888655224,-8.751598335603788,40.575544690098496,118.08697431998787,39.76137703766792,-67.40668810464862,-90.37058023793823,-78.57224106868807,29.36298106550088,14.908261779011559,-52.499494303549284,-45.374908885088225,-67.01240533500813,68.92815657617162,-91.21815189342001,-62.257097774879895,-50.32425892343333,-131.30466938955405,-103.55701851052774,-28.743339512564802,12.750940965391035,65.43843989742089,-65.65470186847318,-20.695684399997113,-67.9952299966053],"activation":6.707147852943053E-152,"bias":0.0},{"weights":[-52.06059135520968,86.40116189060141,6.458156264956486,146.10751410688644,-174.23400367356712,89.28086429702564,-61.011011074950396,40.62547760859916,-91.00083110910762,-128.07175212286415,-20.168946687742586,45.93141610617773,-58.25544355490645,-28.866856148113097,18.701457982576684,23.678788474671055,101.32504530623108,-51.07593260537297,99.27292542652891,-80.9557787331196,85.39930528707845,65.79212694996855,13.197981039288397,-51.48778308633209,-58.8723202760462,-101.65561600665542,-39.30964786089149,-29.131317755765956,-71.41755898232213,-44.13970165073009,-22.322284114823727,-97.5604204653705,-73.36879358870219,-61.31404246915903,-54.78941989248339,87.46912558991026,67.36030847351505,88.9856216192859,217.39304301661423,96.9966024802174],"activation":0.9932683175218464,"bias":0.0},{"weights":[-78.22430458662406,62.78046196678929,29.889090133856282,176.151437000145,-53.89088361393918,-112.17405887386224,-13.537319931603085,-17.67688688145335,157.3647236360808,120.98891701351242,-25.33279778404286,79.70669170820105,21.409484407027257,58.05590259238231,10.391434349144566,-42.70459355805987,-15.71191177284945,-146.50431936248827,-158.3333710988913,-59.65365651421763,68.26483679526325,-51.29488132903679,-49.436141230794334,22.925097547514433,80.85087822165553,7.871669540550927,-183.6101203977652,45.531268316164066,-100.23478306086788,-27.86906099896472,-120.6222277930899,11.813349642106866,-51.459343730465335,-11.147956895144203,-73.74772381121497,115.06334535111577,-29.737018101820183,80.0017890676973,28.716587110074286,-23.657038022573353],"activation":1.0,"bias":0.0},{"weights":[-18.681814062791243,59.651380267766655,-21.192116549875863,-99.63790423096941,-100.69646681606825,-105.21819347172503,-90.06843099920958,142.235898760041,13.052838381083884,-92.1775655586562,-62.527379424447396,30.57608194828925,90.82502565514088,-134.60248094910196,1.2750239657022178,7.161914690699897,129.46697918373397,205.4936737850836,-48.05738388681584,-85.9859549298816,-1.7438365973300052,23.882023273474523,124.08795419704875,-62.75067142016909,-53.355410867037264,-70.69808227138164,41.97151805055382,100.28807679349309,-17.320616095004745,147.42846535084897,24.75753065311359,-33.58157506417115,-277.4443101173985,128.51576334859135,-105.89516569386926,-24.94382516161853,78.13358913063793,-62.34660448733755,10.33356572923048,-20.753211924410042],"activation":1.0,"bias":0.0},{"weights":[34.592720483191805,-102.96868410990822,187.16957562045562,1.3899080828406416,-57.49023507377486,146.30652913687874,-48.90762355312756,28.470014121834502,107.40933218732795,163.50270269597192,53.40486505518552,9.396776868800917,-139.72251833908004,-17.047498121982215,-32.787239240015396,56.00540699628891,84.22785874444843,-44.55789314552809,-145.28502257023547,-43.5256437313022,-207.66662151110987,-20.04107920291628,59.30795352256278,84.39755729606185,-63.394141413356415,51.52861573375903,-39.54265117342017,-71.22183716708284,-107.18259834207419,-52.04723320090306,76.52066932666818,24.387046861975577,50.909203025062844,46.63363908792457,-12.491344583352127,170.38890706920384,31.48103196513259,-3.0906437792123156,35.10554655922793,-101.71119184197],"activation":4.410228490527544E-130,"bias":0.0},{"weights":[-97.68176799810082,-13.440082920195168,-55.72907308958135,-159.30744696105498,151.87611153900306,-47.28164694605933,-13.953555032860013,7.645882123733243,-83.85136294076453,60.81821790769356,-4.003988310867935,-89.91530934257706,12.54560623051096,-52.726129125237236,-58.49791643890183,2.649745808945566,-84.44237993140102,-14.94500949070515,44.61283186670872,-33.497077517267705,-46.73108514943119,84.31372607361416,85.88389986095645,-48.862650091964326,162.707365836851,85.26186576898253,46.858759350322245,-86.19575834315293,-30.391969681454302,67.19211632887439,87.52922494731168,-136.9135646246369,219.29113558509792,-72.7445956506977,-67.66576435492246,96.62700110920747,-11.403173841867085,9.881904377179769,-69.99975395467993,-52.40067963646434],"activation":6.877635968924744E-21,"bias":0.0},{"weights":[32.193378734869476,135.44888019590462,10.584104858053173,-21.76540856824477,-11.787657843870674,10.65895548567539,-148.67767977914696,22.627278708208742,-70.59550114554871,-37.831546364602545,-160.6552684137987,108.49816165135998,86.07442150915587,-97.69318024781217,58.83180539017054,-73.20050969514462,20.659872654905723,51.888306362431216,10.284844160591685,-124.88119975705352,29.00911749329274,-14.91023406864532,-97.43281886256288,-231.43393353879773,17.603603805177077,14.70466929034529,25.714567274713236,-220.8374419761667,105.4372831074185,-14.481771909420008,-51.25175493295755,75.28196105239105,17.84437656731323,16.21370802618512,-104.26768866815544,111.58373235379565,-0.0879032960523295,108.66728869299313,-69.58190999978507,-5.179592215360299],"activation":4.678009456114549E-89,"bias":0.0},{"weights":[12.618939032966521,3.441700157581806,6.117094961903635,88.4601499327442,-35.13101186716733,-62.24672926058528,-30.116067865883394,-1.3483761675259007,-100.07091394993591,-103.42970683059703,18.464182136261364,135.87811300043634,-68.74349243902044,191.9776299839121,-206.97744180292906,49.000812753417556,-139.3885246838046,-37.986215515171935,-85.8757317726021,-70.7342729129709,145.79120133306657,-4.798703024239058,81.89588729489367,-131.73278641323859,2.337396584603347,-111.49337761685663,-90.07958483021422,32.58983516986597,74.33701119681206,-92.14364960277554,109.81693232243299,-22.79737611642438,8.694344864167238,-36.99609904726786,-85.32733830983184,-33.55226740900332,-21.37031008321302,-51.40645922032481,-42.94971254899606,137.9044112683468],"activation":1.0,"bias":0.0},{"weights":[-62.05668971883556,-115.76160250024009,138.27589006124748,-64.14625998701361,-140.08560802141287,127.2632743468497,106.03599037114564,-1.235353783013161,7.256386905578181,-31.306743738551575,-71.65774356580083,-35.679002202692985,-147.7543220182839,-76.66751988212033,-35.58225640235393,56.283384208910086,-10.370547665233255,122.8543242329312,22.697089831207222,116.18753121053766,67.61250428615581,44.61047616476112,-58.50646877884714,-50.43400460004914,-60.07126174377217,-111.9770185824879,-52.34129897317533,63.70545945730634,-36.151735294808965,94.63381967366678,-121.18889976928976,-100.84372502029922,93.89446075091412,25.323830314395803,196.94953365385913,-82.72339505486873,43.34805541910635,32.30869963141217,52.67837507852416,-2.8480037357712003],"activation":6.065531601212785E-85,"bias":0.0},{"weights":[-58.02856738259754,33.59849875844501,26.63301855631262,-73.64419381144158,59.93878553313973,-3.2796726476248805,-216.07991231428772,54.43344722654819,-151.42678167880783,49.74228932421869,99.78451332454235,-23.566857822829252,57.84111613402925,-14.854038776002588,101.402366319193,70.39444111590744,133.55319732924428,19.457345680734527,97.0502792193418,-8.844108571398992,120.07303522430952,-60.5999556512987,154.81563883492336,0.8609521430943916,17.17579817916659,-88.76263765550782,-115.45450031113808,-93.96812912255156,139.69807545383856,-36.352670317499154,102.44035549498392,-5.066219675755377,8.116775078104345,38.07896469525661,-76.92094379972917,-33.88190126564323,52.10304466781004,-107.99681545245159,-43.6461733580654,-32.22286437702749],"activation":0.999999999999995,"bias":0.0},{"weights":[7.693290266210598,110.56100336753519,-106.43335487840805,-4.7069695991147125,-117.76308812896959,-96.11144758121604,-153.51666141072462,-49.65299241363512,3.6529582334878237,-103.79107335972017,82.82533134598313,-14.966869045419784,88.29722022777938,-37.635787755168884,81.63819158293595,-66.17117662470861,21.355775450100122,-21.23494107650906,-25.3799813837404,-59.39595478879186,34.49152269380671,-27.87411090307077,-1.3226959935103668,-15.523353069475506,-58.90894607926087,16.87770908902168,156.69969179067286,15.471059441980591,113.06127332815961,-10.606595423108057,-101.69327749599765,17.374694443495912,-56.14287327417821,55.199854214844564,19.318425303046734,-46.2720919524507,-1.7708176760724956,-39.16522040761339,23.07683349482349,-103.52020514243264],"activation":7.772995153140707E-264,"bias":0.0},{"weights":[-77.86515984565335,54.704251494354516,16.669846788416812,-185.7230105939229,113.17474546799302,18.663146718598448,-131.51820628036884,91.16300663298877,-132.17712426420883,-112.16871216759014,17.571479790713294,184.97291724449408,-76.32160102630735,-12.934488638836662,-105.542118775943,65.0217370752446,-28.429928840100192,-88.17820670950792,50.347135704122614,-113.68581987162426,68.15381150488098,-24.176867973455398,-79.60976224582797,-14.407966024111756,-57.23724276780141,31.68932553988292,-76.8132731481345,35.300751236443595,55.40401383601103,187.96462278125728,144.05836206981343,-136.89089606003353,-120.06754882493601,96.98139776191006,-127.7673459287696,107.83951721078361,50.786396919088936,147.60271918112736,-51.129860602011455,-58.26154634703725],"activation":1.4732025318867993E-148,"bias":0.0},{"weights":[27.244505027499212,-34.973802309396355,65.69655323349824,29.335668874905657,29.512844424941193,66.89969866595833,42.915458693898685,5.441515368856934,-108.85088027208006,-27.147505279160516,85.73992091396215,6.364340383950572,-0.639712447744725,-115.90535721016899,-201.30953757750015,29.156613886501926,-152.874159977555,-1.6159371851761635,123.94949636399716,-116.97127148533954,-89.12571272487764,-59.908531050467445,62.2921778127972,88.67960408122265,145.8957192268282,22.988666717833716,-81.06977653294166,-115.35617675816086,-41.21216941025375,37.05946723850364,77.01080131595718,122.59990942217178,31.10234414626834,64.24690052533884,-8.109089077603057,15.167809995634178,99.88855783929314,51.36282915483997,45.948468244375675,-87.9899422081142],"activation":1.795857350266536E-16,"bias":0.0},{"weights":[-90.75730927325904,90.63576273969787,-34.64442769203224,54.287738611358606,-36.610488018281124,-36.03992857229552,-27.30885686012889,77.61097513898834,60.23075329318314,-49.506002535024145,35.93478100479682,149.7196827040384,99.64338795101834,-141.9253414720629,-26.866938619884642,-0.7217484434056957,160.0645763094616,-93.63501827869717,48.31155373203209,105.44027362507808,-47.55556853242365,37.60749878764441,29.411487023061266,-187.48693370443863,64.83900942661322,-89.31294625655211,-106.28568726869088,-26.01703698456185,131.05776508673773,-74.14782416972955,-12.451869681537293,27.364557333890023,50.8882155132131,28.278641934544478,-106.56105516587036,15.345923217385277,-42.90901932764346,-13.82387473723483,153.7977385861701,85.16289839866519],"activation":1.0,"bias":0.0},{"weights":[-80.33222815252992,-23.888263591807185,29.119922071374095,96.59616069122218,53.95318276803003,48.523529973268325,-140.0162472401203,-13.031190147331724,-134.46851655976417,-27.73173988833142,-54.00927800766215,90.0415222616964,-145.46295161743816,9.330426137848038,9.525604362975375,129.7441571308162,83.02072233635413,54.991354491408345,-55.3714272024562,60.4528338995318,8.866694150161596,-130.52968103082807,22.49068655536305,-90.06249752421937,66.89087351065623,51.63035911578009,16.048643219659457,30.170568169999157,-77.57343164420023,150.2355863751893,23.692854100715316,-66.22933235213216,49.27334341131287,71.99847724470662,11.82343339563789,15.788743171402835,99.17635081154503,186.8446135101645,71.4445343081954,-91.91577194738656],"activation":7.911663010435248E-143,"bias":0.0},{"weights":[39.87116747044144,-178.0617052331671,32.116394867292406,16.49676837082476,34.89320068105756,-29.13954284980091,-37.89042642376935,-23.932601856798083,35.3737153832268,-146.82061159965306,22.60599555510685,-77.05238341215306,47.32379969242138,1.0155095500267912,-73.37218102365536,80.19135265083332,-105.83031026213708,36.42340653197083,-118.16036284115172,-29.414374385575513,-91.67953727250841,-84.89139036373632,181.73427160153472,46.98602944718523,-2.068795612491134,-61.64156396737161,-38.74482361127549,-26.247355803816635,-122.65369038380214,0.21394930649626442,46.40952864162089,15.768863462737867,-179.49981734398554,-6.900999317442329,15.886960298008328,67.77155974835246,-74.99125750833518,147.81540701293346,-2.721161799323615,41.686164637089156],"activation":1.0,"bias":0.0},{"weights":[-114.75662032184451,35.23481042779056,4.417320154016959,60.05042799271976,118.73121615964956,117.40184991139147,-23.046494014058236,81.74327493125617,30.146029610066666,-87.66966672681336,84.33269003568466,74.50828070468299,-14.276641363693537,-81.26085532121172,59.23586431453604,133.3279496215299,-5.567728402768957,-33.06460880359741,-17.23691621765759,-73.58319357950606,-38.52420419424214,31.17742333443331,93.48642597797244,-131.33548027644582,51.27083669395536,157.07724933850298,77.4874943975973,59.60760368519295,30.5408230457295,-37.64113523737321,-56.02356789541266,81.04068073148102,21.559262320264047,147.8331433478149,3.093740840982772,61.7743101884963,-224.34257928356834,44.88449100205932,-42.15692073477672,47.43870166769327],"activation":1.0,"bias":0.0},{"weights":[-31.555334864442294,-43.25480680366593,41.811038940189874,-5.408087618853695,32.1138007045658,-79.00471491220745,-71.18460854766967,130.31079088526775,66.48946840435337,-48.90501967764815,-46.23109493217504,4.0273159450797404,-145.4608763108458,59.65273827620467,20.206721414673797,-18.858674154865128,31.734261625510065,-1.2730073605887007,-62.30929219433547,-66.20897098951592,63.72756456365289,15.803881757982602,111.12658442789561,135.06371944369675,38.455487843315645,196.53821531647165,-23.952189391790455,15.9046542685074,-55.3411246778696,-5.496261448139503,56.21232595196739,-148.44748771848245,32.246465281846326,-109.24569939436135,-61.305874141431076,-25.780926289844054,-127.70654429210971,-18.7640782988666,19.77204076046731,-48.8688075747643],"activation":5.619401878210267E-133,"bias":0.0},{"weights":[-53.414438899125344,-40.986385273181625,33.40821267326619,101.53891075198133,49.73645608889961,24.098715096164707,-16.325366967114192,109.63965664461553,8.270365255401288,-1.736280983940021,-28.838322863622366,4.375116861294117,-166.7230648090101,-13.44494840203861,-24.912773636968264,24.95248992653674,-33.48473081710676,-132.47164948622614,-74.5329069345614,-188.6760005973342,-173.73585641734812,58.7458913272462,-34.26055273069863,134.84386896384646,-12.822038783578373,112.66291049109768,-126.46206024393123,-50.98886449675012,29.436263860239414,-150.56576244360542,17.834668776399724,38.56454627230134,39.55176334799444,30.835461345190456,97.28567014764717,-166.85364870511225,-121.50054267700169,19.61999305671906,136.89538206361453,215.63635767356664],"activation":1.0,"bias":0.0},{"weights":[75.90133615091388,-88.38065532992799,-111.96218837784596,-103.99950211340486,-116.36945588264858,-38.84423780766299,45.78401247740231,16.972427991929028,-31.73628312370866,-141.24569069389338,-35.36744112113261,30.147680386959188,46.95031332413756,-78.54970449738767,-129.4011484489631,76.21392037966147,-50.39112503158942,190.02155248758413,58.294987570341426,-150.13904936777197,100.63738175800165,5.1892125594115255,37.23336276839281,84.0217697572749,12.456661878090648,32.67335133620196,-23.63460003910427,-135.69573536307766,53.992902703726884,102.70429065436149,-48.72412824966502,117.32094379368617,-5.582240119713758,-88.57509564963786,59.62176974909796,107.81901863877789,30.362064966008713,-56.11542090723485,-93.5849730004969,-86.39006171823796],"activation":1.0,"bias":0.0},{"weights":[-130.50044043478573,-13.140291254871697,2.0742205574107944,-98.42465782377101,82.03589670165941,89.5936299564751,123.96773681311782,-74.87730799095898,-18.348430241002212,-108.61334378842868,-22.343408084601116,-40.37329764273032,48.34266312929665,42.51652981577361,-4.605426769295255,45.320836884997945,-59.584896114698736,-42.34143242834725,6.420155266641181,-34.576113938586204,154.79679587849574,84.48408791734506,150.3874297652427,46.84064501268921,-33.92446629587227,-97.66576935960246,46.78402094329903,31.51787524483339,-101.5444678373017,-78.29146212318415,73.80711357817972,-0.6066148217085049,79.06355943220069,-21.87366348886585,4.606681434275573,-162.3065029797355,63.9821132471544,-17.12883370348683,91.23206776370382,23.177973102184247],"activation":5.686818417349131E-87,"bias":0.0},{"weights":[-9.052258538435375,19.55394669127494,32.185693272243,35.13238982411526,-168.01593378029892,120.28184876461204,78.44287155145443,-10.6343727239164,4.593848164379946,-43.2046262005633,-77.55714956625818,-165.35808903957468,-86.27878096760897,151.39491554299846,12.956391060675871,-156.94444572082546,52.12835469974408,88.44431600896715,125.65573430832906,-69.62447481675807,69.37213045300511,143.92741596326002,-69.19088277888551,7.822644196026214,155.3134732177408,66.17495576296751,-98.84009272425713,6.165144911877381,-60.82434690859114,-98.54317230347112,-62.86093476042655,-48.70996504473929,-55.404643683737135,-37.4531154753733,-159.53279807958668,63.35466389903507,218.27020623908567,158.13265530102612,16.163168588936035,25.233515877281068],"activation":1.822292427665074E-36,"bias":0.0},{"weights":[114.17714861334596,-91.15960020785744,20.413486762587503,-5.2334186221935175,43.175788443052944,21.4589902982221,27.510054337907295,89.84381614525222,18.665297630748107,-3.979967975634983,85.5122198387515,-62.023769245981875,-39.959646907838895,74.84901876239819,67.84202895583246,-117.98979047319364,-52.369434937813566,56.26586595409304,-60.737807657026316,-124.08114124857941,-126.51734746616607,-37.93201127183605,82.18200639061662,73.36810741979247,-120.87475763542827,-95.06390628364998,192.53350398270712,-153.45761925254575,-180.3305945749893,112.63934418587664,65.3478969497319,-0.6272497692729537,76.22688353550723,45.55774973766064,-48.59450557248506,-95.07357371276565,44.24890909145228,72.48180355677997,86.69952007104092,-48.13320869650112],"activation":1.0,"bias":0.0},{"weights":[-49.457800315312134,-66.34896281103276,5.5237292807888085,-2.285473801426247,141.16190461594059,-27.49597691659667,175.23980934015665,-27.837134111750867,-28.025211562304893,116.86319169061964,127.39064418661621,37.169722360397465,23.41990292286929,-33.063914301626475,-117.12922231552106,109.88276520291322,-11.203182817910447,21.28359083250895,122.55174622269232,83.79049984935953,-0.2645213230716775,54.06599447319823,-4.1670582210793095,28.1347987338681,-82.31385137845882,36.91597924210769,16.11058148871962,57.29985062379214,-173.86402945055437,95.41933642777809,4.020787476008404,89.08234586348163,-129.71438600637183,-71.17288347827123,68.04797382410729,50.66691390816268,73.84559031890748,-9.045471305105,-13.057467091258658,156.89057931220384],"activation":3.2196010893357954E-30,"bias":0.0},{"weights":[95.20791684576639,-62.501467699838315,79.06292077108479,-37.4943957937294,-85.7567873731122,-149.93599166467058,-29.69342958102599,85.53680204095483,-83.68969373829006,-55.19780211372876,-39.30167298025398,-125.26213392344846,69.80901042897094,21.341103953860404,-41.314813961453645,-24.59569396676286,-39.58099414816146,-64.36232446448558,-10.787239720863672,35.52583415513008,-76.58383246047123,-222.8639886397812,8.046182001790923,-74.7224441920516,81.814509994956,-38.656241681708394,-89.51689713794126,106.96527943397804,67.35552008118853,15.83084688941814,6.245541507134109,101.7920317198545,7.946053367675947,-15.35831153509761,27.222234632021774,86.1551898449098,-25.7913851480404,11.720692431838723,-71.96435454281206,-0.9766862983708655],"activation":8.92450818871191E-86,"bias":0.0},{"weights":[129.30908357183822,-56.75691540208477,-50.91038273203706,-57.90103760496093,103.68891901178635,166.48743306964082,-88.24088693924112,149.8980296134926,-18.387323417596484,-0.49071357313903763,85.67009685243794,150.3199869822922,79.39747671227556,-20.479664497905965,82.09388305595493,-102.96108640632455,-1.005346746475245,34.71385225588057,114.47490174952965,64.89074306311478,-62.70516573708104,-43.66565268257097,-86.28040311135707,-41.23273447417652,47.32574268700446,-66.02984087282628,-89.96924720686926,-21.25931280637392,-22.453554353388366,-2.6866659317221675,-97.41019911571047,-77.42887296969083,-74.71341055247558,80.28337013611498,64.91851944991372,49.493544446777825,-22.913757769396966,-23.474050385593173,30.613030675477933,-69.34502075940429],"activation":7.0562384050246925E-68,"bias":0.0},{"weights":[172.87591285019948,-120.06583966386637,-48.04350654537289,-32.24625675876239,107.49175696516367,181.52045578085986,-7.682558271878066,12.753015503846479,-51.803419692087274,-23.44679629892325,30.558204629819084,51.90925147114977,-49.130909557016835,-135.01523606419315,59.57896032202125,-24.451481163292684,110.5311372967336,76.22327017989596,-87.72373120047313,-0.3145036250026497,6.781869100868603,25.42916509212872,9.016049676974655,-133.5469656734967,35.563148805860365,-21.946971629975494,-1.6071296236971104,46.0113750467125,141.32989596752094,62.147791062536314,20.81227185853324,-81.87848080025394,-120.38738409574427,158.34421235630484,-72.99413435430877,38.7550043777754,-48.91017397929787,-20.001226301398084,-81.24253618332412,-46.57827424437894],"activation":1.0,"bias":0.0},{"weights":[2.324133958166893,-48.94935316047441,-117.9488399365628,59.451694699498475,-57.60529470731585,27.444491648014054,-11.711773349994345,-145.8890964502571,-138.7762922838051,-211.90848178224363,-12.118909451715545,-92.58545759568769,77.19875425343544,-58.9565924202097,-35.77591572501728,31.395592835763004,0.40944734626572366,0.14611633793221868,-78.32342814917433,81.01412705288563,-36.667435866722435,-95.4722987920196,29.495003751351174,-56.762735719986296,-4.141327007315878,-55.311575686456486,96.61581745237883,-64.7533024560405,-54.280456434960826,117.26520041767563,150.19622894750177,-33.999803810386446,-10.9535002516111,48.02635633531584,15.280935616569689,75.81313957767165,21.48015227693017,-50.65926479081193,131.92089832890105,56.94273150694855],"activation":4.3286865468439164E-128,"bias":0.0},{"weights":[2.511384778767077,-160.81114757346083,20.09200694720242,-41.607440030378605,85.58303893324158,141.83548288258854,143.72633934776383,-83.3151728125317,-87.03553546747166,200.2780492129125,-31.769923383631884,-103.25249738531187,-71.71125427407894,44.03651096598241,56.52785822274555,-91.17345758180831,5.11598437693603,64.46004127741217,19.077960430007632,-28.87437942123541,47.935437001160935,-157.97315966354498,60.355122337839326,-16.408295852845463,-114.71717050150947,53.98891017194392,146.83737753009723,-96.74231571166021,148.03317991054942,-151.46325824911017,-78.04193938200537,-204.6706637219769,69.58759109921634,-2.3720757217034576,9.171855625498381,3.305439071993728,-22.160608586320333,19.484110443094814,-143.43993056428073,-163.96954758890257],"activation":2.5353825003478E-60,"bias":0.0},{"weights":[-23.604296554046325,65.07343441138877,-38.983778550751225,-84.33499164791358,-42.515834275578605,-46.309193981014054,44.22221257708087,130.31622143764616,-50.600326100014364,39.854056029330756,-79.14397925358075,41.51816309089738,40.864035486164525,55.6940136092914,192.3928611484509,-13.532446131394723,-67.77072126714496,-94.40977150362627,-27.105420427973247,98.49414458957357,107.71948011166683,125.5204801198015,105.12450387804427,82.26996962383994,-123.03686563196739,14.745684446591946,-105.66342283881137,75.88394934273518,27.130348839385043,41.56928551641958,137.10570088922503,138.2422737184966,-86.3527023818746,-67.0512458385079,-11.893484205074277,15.657881708029493,150.95864827371025,39.6251665154067,41.27121914780114,-34.845747380129886],"activation":1.0697162387502362E-269,"bias":0.0},{"weights":[125.09449049072109,-115.11527040078698,127.29707272675012,-49.6292516972983,-6.438164928862209,105.99920747088828,247.36633177345186,72.34297519546314,-6.505371840429149,-54.617536623509366,-43.858318275500984,-84.72835377105946,-44.05800989329343,-118.85231124944289,-111.71094559343203,59.9991950575668,4.572845088476965,8.557440371085828,-21.888257446547016,-38.48021648153735,-177.5311324484849,-53.298582252437136,-71.83408454266836,-77.4351199201516,166.6492501647931,-52.741849778672666,-22.875868818897757,1.3938672284102678,-37.172059398860384,-8.689861387314547,4.56690555050632,102.6944177312748,-72.67696571178546,-7.758414683758548,111.58448744451816,-81.55297796609698,-19.804954134002703,-23.842941544311277,-75.91971314603764,-14.543124562574208],"activation":1.0,"bias":0.0},{"weights":[147.55774404690658,184.28564035141946,-28.310608796000118,17.26266184439408,-62.335926636815586,-181.51149429420994,-55.09866848748323,54.7231433576036,65.37018123539573,82.34696937244571,101.66371930931464,-84.34286177416567,-81.58569249947882,-49.622495591845706,73.08271747415058,-95.16674288058616,-3.0949200532875536,119.83190548390148,29.924800481667017,114.72160060162211,94.35067355223987,37.30710428842451,-109.08909207783856,0.7542334037706707,-40.0166571974849,192.35641858695755,48.02132707583882,60.87110751044819,66.3148936557551,-43.19787333666363,95.18286453636004,116.53537900853094,-102.10617797974406,89.6545815547864,36.44344175045842,-78.97245077752625,-22.111507822723386,-153.36838669945007,107.69274846424968,14.910878901454568],"activation":0.9999994063981384,"bias":0.0},{"weights":[32.37108788733688,7.498557139904554,-80.7823102338233,-48.69116345978006,11.486189410316445,-93.86451656849873,92.09418401738093,-95.23180642143446,106.23217582494429,-20.723011464088177,-124.15229210356125,139.13011209543546,204.26901720016403,83.99236226528294,67.86922579599897,61.94976685164312,-80.164512386911,-31.88551902955297,-23.025503692990796,-0.39535411961180456,-70.82891499453521,-69.16318398920514,-132.35444938168672,-24.12098052948484,62.08745749241312,-66.33256893120915,-45.778127473388786,-59.2316734421215,-7.592223538385127,-22.64736564134439,-23.68583637772615,36.18320196632448,111.85273532824957,-6.796210127468489,213.6683455077958,-116.76716150412484,-83.84402844148622,-80.98280784219494,31.674391963259662,28.79323054212341],"activation":1.0,"bias":0.0},{"weights":[83.59835924456614,106.86117747078583,28.591643357614515,-1.3679773436035645,6.789954765694088,155.02841503015745,26.89738817320516,8.366303485708851,-49.43174881239737,83.71938789207353,-86.32884952234481,34.64753558939427,-37.72581597798252,-65.44058077153275,3.6856193056424207,-46.4040602797892,-44.35940911011685,112.02420188180133,-87.83938585464101,100.8297227298079,17.061200988262538,8.904111796960029,-62.28530746094098,6.814373245955716,-55.18509032372049,30.517533813613984,23.34452645173889,-21.251446616289336,-72.6073168441681,10.135904586663983,35.23854106663201,-126.73075164259431,84.57143940686142,-149.33639397769718,-247.13727070925518,-54.963815922268815,-25.39778300086576,90.80556955358858,25.60609958502419,40.97486710796592],"activation":1.0,"bias":0.0},{"weights":[-80.4553737921239,-29.695981882925427,53.95334754345572,-55.24482146984047,162.94018023530106,-22.89527155816596,-63.454915543472914,66.80127594371844,-25.560443916671506,22.32032578741133,195.77486021931247,-104.11507597221919,-134.48074606425345,3.019694891999355,-76.12374661350681,94.96639935491689,110.13086686791596,84.39600156651457,0.6636333154924875,-71.72928831160681,158.6463101169758,86.6117296333311,-99.69414824859038,-143.74361375802934,-103.1179872959078,43.473208492541275,-90.27945183022202,-18.72940173337803,158.7088026249955,55.198048381447265,-63.418616260632795,98.7013563825785,-197.5118105756808,58.12424908204648,-162.8354726479342,30.90248436151708,