{"inputLayer":[{"weights":[-0.8443110985174853,3.275534035015199,0.2533163955068789,2.1631379292211292,-2.151449310284496,5.0,0.10852579029278797,-3.7188520230837714,3.3433773238280233,3.0670118375628976,-3.116530108075763,2.986178085804743,-0.7646885569260925,2.783964225270798,-3.3845804463204257,-4.568425600311333,1.684529010580703,-2.858188519726323,4.424307194705067,0.8834206944797974,0.9920713227195102,5.298862858333239,5.0,-4.373066785567493,0.9997837082742397,3.6510127508365335,-1.7172360247654244,4.667138167280532,-2.184609303993466,0.4946340619715628,2.445199060091411,0.3771048470380909,1.9728164995456094,-1.0584250247292077,2.2938329679045673,0.34815484274348374,-0.014849378367337684,-1.2708305924918228,1.5322177214005497,-4.19463227935205,4.100404146471708,1.9437731695014073,-4.1630636004294495,-3.858676656048182,-2.0651194447062027,-2.7363371333699122,-0.1879293529342696,-2.0615580160587896,1.423499550837094,5.0,4.715900630743075,1.319634374226291,-4.267445954993583,-1.60353694505451,-3.09771857434585,-4.170070317336831,1.5616994927080932,1.5533969739358056,0.109981117014464,2.3282084111065933],"activation":0.0,"bias":0.0},{"weights":[2.8156971373365383,-2.625394600345033,-2.229097100334112,-1.1408901679130545,-4.706231431779756,2.5331099163692032,1.6979949377963244,2.6519809072268554,-1.0901159059809422,-5.0,-3.8262968244218074,4.279297443912249,-3.1969176851613668,-2.6021756858943594,1.8417895964598208,2.33303556163455,-3.1837196814519038,0.19838906266085143,-0.11656817535639863,-2.7038303072144165,4.38708012176764,-0.5782105053290372,-3.417245652444104,3.991961832217501,-4.826098124352229,-0.9219902925579202,0.9337171934613078,5.9115581690002275,-4.887046100066139,-3.8325101218544217,2.401397900082101,-1.5169349324582706,2.3403740094788335,3.8449131340772382,2.3837737749881516,0.5654452694157723,4.498418510198583,0.47628009389645243,-2.4698603347479766,-4.100052705918237,-1.478883063526633,-1.4397679770515903,-3.992698692366016,3.6607812710317207,3.686012061218637,1.8197968909419502,-4.96068833233577,4.541825169375267,-1.7039737377975652,0.6551020011473916,-1.7440301342999343,-3.062566866880039,3.2750102192001087,2.2327124044566973,1.1532941221486523,-0.9982205014441006,-2.3323606972078696,3.6076326791079647,4.886992062120468,3.0375627327981753],"activation":0.0,"bias":0.0},{"weights":[-2.6757225327748584,3.5683208050168633,-4.159759619225299,-5.0,0.7873199705403753,-1.1745351842283922,0.07918740263371615,-3.1193196442284883,3.269163738801783,4.6405842131128825,-4.050242325151892,-0.3915241724111844,2.1875905615371316,-3.743113417971313,-1.5011082196406595,0.6658608737160677,1.9717822610421547,-5.0,-1.0644442198300945,0.09926040755526322,0.9301965878823759,0.8932281814000081,-3.1780008415553915,3.0364160857137397,-1.9415922623778579,0.9450858886237172,3.606922597058447,-1.0317599860860287,3.712210900522739,-3.62525694469839,0.23123073288867046,1.2492430102039322,-2.5680936225029933,-3.2650429697632317,3.9203885318667373,5.0,2.706569717805288,1.0663476703121577,1.5433306590825175,3.2840506901815396,4.275927949268134,-3.4108701447442646,-4.545929314680934,-0.4100888761414908,0.8085550784217006,-2.4397599006392428,-3.1008962758149257,5.647364940260562,2.3659467244007297,3.078890605545488,4.656194698572455,-5.0,4.555104709923834,-3.4370438180524645,-3.1694542064063045,1.0155989080988534,4.441276067331366,4.932448383499466,0.5188855827165901,5.0],"activation":0.0,"bias":0.0},{"weights":[-4.083479010963453,1.3381252610899579,0.3368128672871643,-2.6425829978383844,-3.146569194382108,-4.822540393915891,4.478118277900595,-2.937941017271827,-0.4378446960807717,4.434356302010694,3.825901177248657,2.0571953462810293,1.375569678842211,4.856624329623663,-1.3994480857023444,0.10341415299800771,2.512554385630429,2.1716590823858555,-2.2811364960377056,-3.853574590316697,4.710794869807698,0.6143055460706667,-5.0,-3.7992940545735885,-5.0,-3.545924150321251,-4.63732907992713,-2.245431028395178,4.268119923519353,1.320871902361478,-1.4460499182284958,0.5717395216728519,-1.4730526008233724,0.6131400035703622,0.2981160826887064,4.509064766494462,-2.3641036976499312,3.3729419785318595,-3.4160157055378546,3.2912141601255995,2.1839263822443113,1.123121736491525,-0.020426251429793707,4.3107720574272195,2.2887194438940632,-2.824602965166307,-3.7143984683877838,4.396840053817829,-3.730224119535185,2.9770955878538903,3.70699282730224,-0.478189545082115,-4.561412401635799,1.270618517023149,3.413633812533898,1.323246782805046,0.7754408473123353,3.4007966656346844,1.9134189433124664,1.267504735458524],"activation":1.0,"bias":0.0},{"weights":[-3.86954025378188,-5.0,0.9049392991684404,-1.918751117851666,0.5455904381341763,-3.2324718716471716,-5.517801186242644,4.082746243740414,1.4968086876387952,0.32711447821053663,-2.629161682962761,-2.878512143184585,3.621724695275445,4.540067396902031,-4.039410270093878,-0.004704741113722322,-4.000995173109356,0.49689323066047286,3.667611269196799,-3.5062082547423383,-0.13077515487767166,-3.355222902758287,3.7561622651302304,0.1693883819023868,1.2839146775015013,2.686775227245705,3.1261786390340722,-2.981785709399486,5.0,4.7626563817209515,4.365493291699052,-3.2021098588866153,-3.345535516370422,-0.15328964183332716,0.40912288535394037,-0.3225825614139508,-4.422739501658943,-0.5077823869958109,-3.7890308357496663,1.6885557618506817,-3.9398329776951635,-3.4733775432708542,-1.9948004906044108,-4.157037402997567,5.0,2.5271949013514816,2.9819090221125792,-3.935886977685204,-4.5577292589909275,0.4555143145084619,-4.696669785894218,-2.5212158325774676,2.5629834019580624,-1.0873857560562856,5.21672188895898,5.0,-2.6716107407225858,-4.88787807902649,-1.9498925867241468,-2.795736642644963],"activation":1.0,"bias":0.0},{"weights":[-3.034546274844529,-1.962260005838961,-2.3263322333067293,-0.3227220311886517,-5.0,-2.9203462695923634,3.0298496393490364,-2.6324689967648895,1.8879055658247696,4.691183237433492,-0.5660254272220486,-3.1577554821272877,-1.602535047288196,3.6322304936813405,-0.6280063516717496,-3.584834608420264,-2.588613322841426,-5.3371637774260545,4.426359472900425,-3.8848584759788185,1.7620461047898057,3.2975118823170266,1.836635881545881,-3.2595354520193194,0.4612604592466969,3.951971403582151,4.394149788721934,2.0198807737613125,-0.9205174606009207,-0.2646533265153703,-0.3289915723260851,4.945639362829183,0.2314897655689886,5.0,0.028574535990566807,-0.7840269943127919,-1.0322515831043746,-5.0,1.3209926732183488,3.017452703663812,3.8140277752521943,-0.3883459045783677,-5.349761059233192,5.512563741901969,4.325190983923461,5.0,2.7054276308855227,-0.869642599619081,2.55578389456216,4.6023739850362,-1.3738800329349097,0.6802781340910681,4.779599172598431,-0.6193357375281866,-3.0420323886067413,1.4106735249739264,3.732823005619852,3.501020526693917,-2.577910668039975,0.2566874993845507],"activation":0.0,"bias":0.0},{"weights":[-5.0,-4.538034082040098,-0.1316304854385043,2.4149031643915633,0.3781567011768402,-2.005565897606902,-4.274691166624169,3.506965071389861,-2.7782744799943266,2.9713860955808116,1.6003009244911868,0.7021314348903729,-0.2476930365982325,1.7770853847996664,4.519940819881196,-2.103347966655216,0.48868695396115513,0.36991624235474874,-2.6152502088800182,5.057002988347742,-5.0,-0.05556823637430319,3.170405700922258,0.47453581942173007,-1.6700658042532583,4.7983693859843335,-5.0,-0.33946359605842125,-5.262978382150816,-0.4773692561641183,-1.3279329865964167,-3.868481764861461,3.1664075020735005,3.4242859944248685,-1.3077275094001395,-0.38744563226044737,3.759052353119038,-2.04094869835086,-2.76198819240932,3.2420962281212695,4.839920790993464,3.309475469090134,-1.5125234801604024,-4.8613365643249,2.8924305058976696,4.8193133230081795,5.0,-3.2545987295730496,3.4484681444170207,2.4594517566247887,-1.413703955562402,-1.5292148568718966,5.858273314776881,-2.607963833257582,-0.9695711174391524,1.6032099912836328,1.9966596595975425,-4.0794899317293964,0.5196875114593281,-0.5553120709688447],"activation":1.0,"bias":0.0},{"weights":[-2.3244264558268024,-3.9594394146727714,1.5734768973014566,2.9414889118921543,3.451017459624279,-2.963755432402966,4.6345201286968365,3.6150754926378466,1.7724759677820583,-0.19598492276248125,1.0525794070244898,-2.373104985384095,-4.983755146759036,-3.1986948720565236,-3.700109842054106,-2.9704252231406514,-2.7307816976659156,0.3063350409439939,2.787238095970558,-3.1988333660193877,-5.0,2.2351242542366143,0.8985373027694752,4.492409674335135,-2.504535226343031,0.4297711693714701,1.1740299199883855,-4.450354749209807,4.278917622738781,-3.9438916540799136,1.0346459043459106,-2.872919731047913,-2.6052407060779785,2.592351126580732,-2.873024532170544,-2.8337374917482996,-3.8051717105611265,4.669371502240583,2.2423627070115177,1.220531447242518,1.0708678279658692,-1.4445328364851755,0.08068241599231307,-1.9910804139972558,3.440065264854927,4.833557115897463,3.518168453354426,-4.9291461410923985,-4.748670760556349,4.8230957241819565,-1.3175884870321388,2.5162398283255043,-3.8949062025591505,-4.684205365843884,-3.6181130788585474,4.987704647997969,-1.6861024521590933,1.8652949615194307,0.7776997276820503,2.627762468323668],"activation":0.0,"bias":0.0},{"weights":[-4.29992827301868,-0.32254113423876907,4.912656291694425,4.958169234374869,0.9078956819643004,-3.471469617624212,-3.473304576121114,0.9193297772271235,3.318339649019508,0.37515224064510533,-1.387867257420281,-4.110493995137439,-2.7337378636564376,-3.0327890211437585,-2.513150058560428,-2.9606636488358196,-1.5662672295272344,4.015213255433659,-4.057702970258468,2.352699757178026,-1.3721707981422293,3.434945217985168,1.1526839366694368,-3.203952591216961,-2.6687282036307862,-3.2241763901772402,-4.441761296042855,-4.605324887784632,-2.5709496477172773,-3.2450983317134554,5.0,-5.793138238355943,1.5726917317013291,3.030267274802802,-0.011735121392644321,-4.059232956922968,-4.019048113265433,3.3602771177980024,0.7752321556007971,4.251790307995596,4.9624725937857095,-0.08510508104350545,2.8035193016592705,-4.318569517783663,-1.8682425171695005,-2.571378675548679,-4.6458468514593845,-3.9899099846365074,5.0,0.5637429626533289,-0.6929769077673574,4.366285321796708,0.24192860103241542,1.1043917115607729,-3.7579352804498214,-0.8074108199647196,4.082115285131013,3.3711787821935317,4.463842332652133,-2.9619789421187352],"activation":0.0,"bias":0.0},{"weights":[4.7956128012740615,-3.347350471249661,-4.318085143319994,-0.885738180151884,2.780559482601613,1.7066127255423997,-4.023331192651686,-0.01333643531504125,-3.7284290610249538,0.4852579371610639,4.223678748832337,1.753948697639324,5.050210472334688,2.5097636878154095,-1.4847506732017588,3.3447008662388313,-3.03853196057106,-3.506324125687612,1.510343358666153,-4.312840269250572,-5.0,-0.340498796206155,3.0583573191918214,-2.4024651687878804,-3.5524787776596147,-2.539611743563717,2.8782276569956444,4.791799907292085,2.4230232734370722,4.454495009585713,2.1182276986540125,4.125510616480983,3.925114114006403,-3.5409419185179956,-4.516610879673132,3.727816358931782,0.7069252535784126,4.176060752943849,2.0249804716953426,4.847378338494928,2.4721075305999247,4.430634208786412,0.029253592869520895,-2.500542248962974,-0.2047234461753641,1.9407775874566777,4.731768001114651,-0.40948357312995587,3.0334580486153104,2.0559966352741887,4.251402842551274,-4.359521493995491,-3.3870542709313622,3.182280875469201,3.0687846907509284,-1.1326368461252312,1.2905139307698175,-2.046192918037886,-1.258851490312547,0.16968811249585358],"activation":0.0,"bias":0.0},{"weights":[-2.239808049893293,-4.951645084440115,-1.3527401934017214,-1.0865761776816085,-1.2411171340067035,3.0960355961874733,5.0,2.330454063999989,3.3537859214908208,-1.5045089546521861,-2.4016404979695274,2.207183929545418,1.8119619810381131,-4.5035347371554115,1.4745001579725616,2.621968133308256,0.3397566335235177,-2.598700601936867,1.6923075290654683,0.2707102936350777,0.2853936282620382,-3.760197213880188,2.9235679351626986,-4.795224208094173,-1.012353235008844,1.534952193155679,-5.0,1.7659350487541563,2.7396023947993493,5.0,-1.5374653162637584,3.2495833872361493,-1.5900940372908852,-0.7844370176656431,-4.768001774842971,-0.8432571503148536,-3.1725676816463073,-0.9830735925545596,0.19604262777307568,2.2202167077653177,-3.215961934764065,2.982002345941443,1.8400370096882785,1.176981748649752,-0.4513238293438604,-4.112266110311337,0.9176167892481537,2.486071072729502,-1.90758496389082,-3.791665777120663,3.902246580256045,-5.0,-3.184037520945552,-3.9321498706658486,-0.3789216419447894,-3.5991680035322777,1.4055953888912456,0.14975301062001012,5.2786968408940425,4.687070081953745],"activation":0.0,"bias":0.0},{"weights":[1.9373606281331726,4.8414058261220445,0.13926761473000449,-3.5726874347250943,3.747760459740441,1.2613901725992505,-5.0,5.337977387984002,0.4955390077957309,2.996215542756014,-0.569451382522011,5.0,-1.621378492824993,5.0,-4.60016655892267,2.31155217439549,1.7883401112990227,-3.589842293413839,1.9336258434866913,-4.742229980177453,2.0933339685253016,-1.3348612497148982,-1.2747275918425216,0.025652496823484694,-1.5793576413028472,-3.1612668501557155,-0.4479824757396551,-2.173541216289055,-3.6490114966433325,-2.2052193806591696,-1.9880135843591846,4.380699995571625,-4.489000386208579,2.4213694640952386,-2.1888661920662145,1.4002980203897524,-4.287979495066651,-5.0,-4.195977144931662,-0.6771711865795497,-1.50501875997333,3.753920757505775,2.2562854778725985,-3.3093959669150124,-2.5537560805289328,4.370420250346454,3.995252973233633,-1.5232099718967442,-3.862890492664992,4.067451290182346,-2.71819082582394,-4.507516848751354,0.6096326104509997,0.2540947458444671,-4.921668429405671,4.943452246667787,3.5993410560417005,-3.4469633846309353,-0.9121682585049585,-0.7425864891255407],"activation":0.0,"bias":0.0},{"weights":[-1.372603962296307,-4.715026860808879,-2.0824640335366436,-3.447565770466404,-2.1572503945608843,0.9029345859661811,1.0951498025444808,0.3376460433670416,-4.622778248107529,3.169912759518187,1.1090763541792745,-1.4233122183589277,4.070866154959212,-0.878592636165983,-4.54277527635888,3.7550502791252396,3.526231836860202,0.813258042507862,0.5178068338090169,-1.6251346371427116,-4.822172888737628,-1.3631455745352707,-0.2538779814837845,-1.5065899211627196,2.880580601130287,3.389295361424084,-1.2059110566280586,4.093528746280633,0.6155817144945899,-3.958924525124901,-1.5392369120805158,5.017969781850023,-0.6824578435655466,-0.4088967221432379,4.710630910386111,1.3741419494036875,-5.155319293681896,-1.1840510120068335,-4.615989966931449,4.83793706379955,5.147125439610778,-1.6682022527026221,3.750436776932835,-3.3604233801287964,-4.186644022860827,-2.1675578399589304,3.017853679853874,-0.3221924618566434,4.043921105410512,1.1388529853220213,0.40056852146805133,1.8473183463433267,4.4474727037302335,-5.803175122242604,2.3779989346451247,-5.0,-0.49831196669957245,4.737272613517105,-0.548981402296339,-1.4209690319170984],"activation":0.0,"bias":0.0},{"weights":[4.635406522199356,0.6928754531674847,1.190278268405558,1.5129137793165273,-4.604909272040515,-0.9754378871057947,-1.769252472084041,-1.856890554465179,-0.42383447913326655,2.1601012875617753,0.9477845100125344,-1.8298629716237687,-3.0598188431062683,-1.5815419500273236,-4.1881434207649875,-4.307985151650043,3.027658198182595,-3.1371866422448096,1.526435897065419,-0.7025164561071404,-1.1606209602378559,3.756534187005101,3.5067821545609705,-4.890192004924852,-4.6446114967316205,-0.704361373408714,-5.0,-4.4851244603483496,-1.9616747322622388,-3.8765273443930472,-0.13469272569609037,-2.9024461923602476,4.962100766414254,-2.567100894201887,-0.05201644106152303,-1.0331645411607964,3.846311461347732,-0.8111837235917498,3.46138066798795,-0.9218108728079193,4.441426936778635,-2.547112488797476,0.8482821588280363,3.4518303683764633,-0.3451090282726086,-0.03321846117083749,-3.8103633718171905,5.046879392477968,-2.979255847687533,-3.734527929287852,-1.2672143745775903,-5.0,2.8641509372367855,-0.33678479811491546,-4.961945422285217,-1.1362533898468716,4.536933460801807,0.34119681088006104,4.991187777335924,2.9057057857678],"activation":0.0,"bias":0.0},{"weights":[4.25687849415717,2.5795196420431905,-0.776768275246304,1.6060451758365129,-4.089141781576602,2.7242493030109154,2.5691441545789804,-4.269118230289299,-0.0058987731184977354,-3.5982780475703815,1.2300481668741783,-0.8801276567909166,-3.4121108382890717,0.7670480036569679,-3.5904412850203262,3.958569388374672,-3.111183007416959,2.425874099330744,3.138471197582148,-3.0943360734227983,-3.2939235555328055,-0.9428889493758514,-1.0407180174658572,-2.28830345641705,1.9384783176094715,2.5388052978720803,3.79899385334256,2.2129903494705814,-3.991457756492878,3.27905881912253,-2.7398018920697984,1.834868458148685,0.970302463412515,0.8840148530813996,1.0611607584649732,-4.3372253431665175,1.509701423139589,4.7396119894695055,1.438018632236934,3.0889891259211186,-4.64413531987311,-3.573671253989699,-0.07259856334552783,-1.28254377506864,1.9715203359503053,0.5855677867446851,0.7680289256381083,-1.7836599574527001,3.958856236538346,-0.46812849819400715,4.356009955644671,2.574191829480938,-1.3896027909639166,1.9351010748532822,0.96582360732181,-2.5950313217828653,3.5840392276023953,0.8446366606845129,2.825089514372015,0.10743386440126423],"activation":0.0,"bias":0.0},{"weights":[-1.808879277458292,2.318625276518316,4.195124024128861,0.9895938511863223,-4.261545774504225,4.420112435762393,1.8531329038524798,-0.5502024084607173,0.32932816269261167,-1.561371727594781,-2.305545755637961,4.667065876205647,-2.382626405768658,2.484777766956338,-2.4504737132276517,0.2174587135679119,-4.883325628446934,-5.364475433649579,-0.832145053632296,2.0619971212692954,-0.8518475749686314,-5.0,3.4188744659199366,-3.2576489790692706,2.054599228249355,-2.270244478754448,1.2208932201515086,-4.692753904375056,-0.7766689931718564,-1.649684378272326,3.6034415841587455,3.3310821444615457,4.206910767421867,-0.7817423559481083,-2.690942475537951,-1.4165338974987172,0.7958188092129946,4.3526921474995275,3.0866155187989768,5.0,-4.488579042231498,-0.15145881221662372,4.434646144316585,3.7657828036720877,-2.204225759002504,-5.0,4.0008129733541935,0.9388154376510881,-2.8135958793467095,-2.4903152795385415,-2.4143183254325,2.824386846895896,-0.6578636171331067,-4.335335864880633,2.6404634257690978,1.6957048679122924,4.537626713095965,-3.7830365721153405,4.923558346174079,-2.9454081433785184],"activation":0.0,"bias":0.0},{"weights":[1.548127344416445,-3.743020061509886,-0.21975871437997596,5.0,-5.272153361882011,-1.210438424323184,-4.861635362293678,2.690999209278006,-1.031507934457287,-0.8573084470508009,5.0,-4.51241924768165,-5.025776954781689,0.3406550624586311,-1.744663814974881,-1.0786918706801667,1.5667721097692242,3.32569522443962,-0.8911275488086764,3.3196282740485348,1.4857685005249062,3.299167198370735,5.458324445409345,0.2670442237715517,2.83663999035902,3.2681084905516804,-2.3061592222641734,-3.184643037156646,0.5102286388238405,-4.420947317486557,-2.965203507080809,-1.9408732947929614,-2.545788932487372,-1.6693658752528422,-3.178515870198853,-0.2975128868785981,2.5311510166795936,3.4041230705836165,2.6401089582553543,-5.124046721307259,3.1976357875193644,0.15615131922364722,-3.244253964000192,1.9972640569341953,-0.13224978592590342,-4.336977687271228,-2.638677265145457,-3.269293487625681,0.6776700823082273,-0.2076428943301485,-4.531786402410125,2.2880785524677436,4.050345169174393,1.6737559073425576,5.0,-4.7481436648153625,-2.360948866740797,0.2981722747087455,-1.185630317193079,1.7431684958064024],"activation":0.0,"bias":0.0},{"weights":[-2.0317777708636178,4.446063824367281,4.883503678851593,3.766224182998342,-4.273004106515946,5.303795677002025,-4.58243556305428,-2.4827843406863996,0.40314802421400486,-1.1615731275669767,2.6469386316400536,-2.540206573342849,-3.19503022467366,-3.4679327397720385,1.8223007248725103,5.321587792739425,-1.1611639341483482,1.8163880042919684,-4.661510015961385,3.0078168495884157,3.178004677151689,3.187321055032103,-4.877978884016314,-3.518984316646553,-2.893598734144886,3.8646909917444368,0.6394821564062836,-2.9983284940178416,-4.959269359061429,4.714133000367838,1.6645009314738477,1.9689120167555472,-1.0763272855947128,0.3474397423919957,-3.7827316443668355,-1.9361921641719806,4.984009146701639,4.931315062464596,2.2318541721384086,2.1047417095004812,-1.8471241548885475,-5.0,0.8142464109548921,-1.4008600455049365,0.5352146183129665,1.8192156223096996,-0.9057029672040393,-5.0,-0.04570968852515522,1.0100467335640584,4.962365341027965,-2.8491579781774865,2.1904214023402973,-5.0,-0.41897901372521007,3.43924163885723,-4.2926723208137325,-0.3199098706661725,-1.2189716929672159,-3.190321520830947],"activation":0.0,"bias":0.0},{"weights":[1.4421090886008896,-1.8701740466072203,-2.442477967110417,-2.184697461396255,1.8625334924124406,3.7359087893861536,-0.8390920299212692,-5.0,-3.9872941466895964,-1.6562639946884565,-3.3136285997985953,-3.8048459685868354,4.569046296345434,-1.279180250761618,3.0192418437926287,3.0807380136986824,4.675558443198904,-4.027071314482963,4.239469279098456,-2.5382085768470164,-2.5880918889153124,2.339880220691574,0.251186349205902,5.0,1.6715760631383607,-1.442368889626985,3.576055678861386,-0.8892085463804272,-2.4598949901361213,0.26609552786334045,-1.1251252577220043,3.2166186100423957,1.41250137501287,-4.286707726516308,2.228338792599277,-5.0,-4.256047975682087,-5.250930040623614,-2.6574154856872463,-3.5355136046646267,0.1042873731734264,0.5966548040014267,-3.9672858449916175,3.0173764668574665,3.387090256225605,-3.821405786976657,0.29116966245851583,-4.231324269058097,3.1354067423352254,-1.006682990388272,-4.482647335306759,-1.2867956422396052,-0.889865191069404,0.060173186610259166,-1.0312558864130965,0.7275108664336255,3.552077799922949,-3.526422474510431,-3.854413409766605,-5.0],"activation":0.0,"bias":0.0},{"weights":[-1.5267371609015845,-0.4754222198588084,1.0564059343938146,3.217340097017715,-2.732813706757793,-1.6498979827495526,-1.654947577437976,4.484374691118227,4.481440037996595,1.3915585993703963,-5.0,0.8473730491251372,3.3137080856987784,-2.242930046826914,1.4978451897860374,-0.370258291125073,-3.738654247686335,3.1563247666990577,4.500043051921363,3.333754095090228,-4.72637592140376,-2.902374485382307,-3.6453186084022136,-3.7242606232798496,-2.021978142639216,3.719003489853215,-3.604072894210975,-1.1117574484862298,-1.662603252062712,3.023576889676632,-2.6796362270259895,-2.8770075865127644,-4.291808456625912,-3.993277535597866,-2.2247131374117464,5.5995396731047,-4.6469986216572075,-5.402117125172751,3.3173669920546223,-3.111187575655557,-3.434823285169907,-3.029877960061241,3.195307294332971,-4.013635405098356,-2.6206936667816776,-0.9438844842465977,3.801129922677998,-5.0,3.880997897487471,3.0282288131894717,3.2118530078487835,-5.0,4.986173870911026,0.5170751231115397,-1.2624191889575027,4.718846752084554,-3.630924022658532,3.703942751588928,4.369833873381171,2.231522742268081],"activation":0.0,"bias":0.0},{"weights":[-1.6637009930327407,2.9041094269074725,-4.8976123943661225,-5.0,4.2806262874881025,-2.437376321173277,0.6022698889746433,-3.681001327640856,4.447560492742879,-0.18925864226438094,-0.5306233553728956,4.080192705347296,-3.8473404480997964,4.2959004758494395,3.6552287893432944,-4.303139561487165,4.747086488777815,-3.2149187959186327,2.5914385495577834,-3.938309583766955,4.777589247439122,3.0499985856732543,-2.161472662295157,-0.23935090865013553,1.6449977958112871,5.0,3.163502483757951,3.0947368916017797,0.599367193338622,0.7098747496666457,4.42956466972078,0.08218274736170894,-0.16832578516392294,-2.52223838814912,-1.1015633028675933,-3.4528448993131393,-5.0,-1.7568909400375097,1.0953542062123698,-2.0954156730653715,-2.2827106808445556,0.7418620991542253,5.220731847612054,1.0583227209646275,-0.7215642470528483,-0.7458658552856766,-0.8085004362462341,3.0143361492162555,-2.8078654063836694,-2.445995551651337,-3.969102918179105,3.3742139140320857,-2.7052974762199664,4.767931565219389,2.823584397213054,-2.524856230347089,1.9468335321697832,2.552215366674623,1.9148906222450128,2.992489288433993],"activation":0.0,"bias":0.0},{"weights":[-0.6375138257537365,-1.9148141883142134,-2.052829113060531,-1.7360258122644328,1.5541830988291911,-3.9078637092329274,-2.0715361492357514,4.574757511409512,1.0268005085255854,-5.0,2.396255823440071,-3.7522063514163673,4.513940211869067,4.810034031264577,4.484128560975309,-4.002838016304263,0.09284264124470265,3.76266859515099,4.3836144633236325,-5.0,3.158704274522026,0.5541610726323613,-0.4535513670963802,1.6616493293411705,2.134575246570293,2.5362149297057024,-3.848437372764423,0.348681071436327,2.590126510264032,-1.0575072527651332,-1.2714812441205998,2.527539052918349,0.6261834568857948,-0.6703493763820295,-3.6438488320199482,-2.012796835837929,-2.9613789616438746,1.0500558787767031,-2.4062118639910692,-2.1608257478562276,2.174291088388417,0.18095951858302473,-3.6572254857944513,3.9180169823084525,2.2143332838019982,-5.0,3.1255121369287684,-1.8633559218824074,-3.8619098823783755,-2.548405812252419,-1.468025637291563,5.0,-3.428306486672274,-3.566268183901453,2.9220478430134547,4.2372547889970615,-4.3073902893694145,1.8597941836075247,-5.0,-1.112590282567071],"activation":0.0,"bias":0.0},{"weights":[-1.1044006867422262,-0.5899563307614568,-0.6157365211375013,3.5200068021413617,-3.1426559706625,-2.2506865188374734,-1.8802340508826878,-1.0592281890825848,-5.094038610374039,1.3590383464391576,-5.0,-1.0434817461849222,0.48174036373407314,2.05713929655872,3.4304361423596488,1.3382498713187003,-4.615082021063412,2.782897042688382,-4.173842602910744,5.0,-3.477107538318187,4.027966839273467,0.17980158513970756,3.7110520212275566,1.6564243232595284,4.013691236906478,3.0498961418538144,-4.815458554326584,4.8422513590846314,0.6568884302125015,1.7344202343614696,3.246731167928449,1.4580012297359324,-0.40422208540733273,-0.2560340768629801,-1.8248224987712174,3.3287213468254517,-3.9221090055299737,3.723025791796618,-4.35560474303905,2.925572686526233,0.6845802781408479,1.8338378359103338,1.4513353470717483,3.85323793385334,3.5774039551016914,4.186263086653821,-1.1208189825572585,-4.9803371045392435,-2.672886996831065,-1.0143340587832335,5.0,3.939529303541457,1.3695728547976582,2.2293589888703944,-4.008920261341001,-3.957480976993169,-2.7201255715496138,-5.0,3.246656714646799],"activation":0.0,"bias":0.0},{"weights":[-5.0,4.039948601118117,-1.3074677448115268,3.039256096983824,-2.233741829075801,-4.118786712195621,1.899385197200176,1.3416856649417848,-1.8128506478345248,4.565292995594984,-2.807001110768461,-0.9514001450017322,-4.7844986478173945,1.8787788095408096,-0.36363105559688835,4.537269677769869,5.0,1.566230052486869,2.4781795358181578,2.0300855411692202,-3.9468719962006613,0.22825068338073307,-2.4902814087893823,5.0,-3.2237228477951234,1.5584052605074814,-4.88880374040486,0.40423845069080855,-4.9725342435179,2.2359698311100313,4.327253604418069,2.004080900390855,0.001956156972105827,-4.9667606295110485,-4.887761910145453,-1.6815253268137138,-4.178088292811932,-4.822195458631497,2.546815485956985,3.3311986472938497,-2.2235615051413347,3.358299413925629,1.5649969259396825,-3.2317012037602026,-4.195481210851218,-3.6281200948853525,-1.9120044779061125,-0.5483274345026836,-5.0,-1.295240781477507,-4.199126564483724,-0.7903174278144212,1.8742239380499455,-0.037234377444820055,-4.4117396319571,3.6303074668101387,-1.8600699122800943,2.8517125659152596,2.0019576654681503,2.4928452658004074],"activation":0.0,"bias":0.0},{"weights":[4.241763381632074,1.5115439478602306,5.0,3.13983221077006,-1.1674894664818012,2.4292782613352237,0.3125473186359855,-4.772918558587631,-1.450950163869015,-3.0194009664249766,-0.5478864673537959,4.864503490248873,1.6194828544856272,1.2446321648451384,-2.0052327783294825,-2.4300527808407546,5.528007828921077,2.88186414750074,2.281634963222632,4.545422580759636,3.4508020521373313,-3.0944480870505107,2.082059798170495,1.9186025259239945,0.4779176967168651,4.753927621565591,-1.2013438688664257,4.242720527604398,2.0681755793288294,1.8844314200712708,1.455755980900475,3.001218071757424,-1.5283337226627243,1.4882268055768333,3.2584966110790887,1.9986445102672246,3.895829814747972,3.5468153235244353,-1.8878133875485936,-3.500813537009784,1.459463870597007,2.4728950909305,-3.701041188350453,-4.747441183949722,3.6744366998580933,-3.9915478403797753,-1.8011682866703949,1.019467768670233,-1.1666777530963655,0.5024688081062197,4.920601443753523,3.840149499559077,-4.87954543215651,-3.179270843916519,-2.364869412001256,-4.6281193512221215,-4.037324872305846,3.9671484811918774,-2.0241109757604736,-5.5403690422966045],"activation":0.0,"bias":0.0},{"weights":[-1.8270424118201127,-1.7513778890886131,0.18855262636645465,5.080442263569717,-2.911640220305374,4.651898073164326,-4.6428029637020645,0.18448779655920633,4.019225724978643,5.0,-3.635277031421504,3.4617880721876744,-5.0,2.634531129234667,-0.3649125246408548,3.113794987088231,-1.5983167091559087,0.9853606887464088,2.1031901775846804,1.9191622510940505,-2.073050647144628,-3.6159723225423455,4.188739185386062,-5.0,1.5510709347439278,-4.559740619542408,3.676730838676784,2.4903423950317958,3.4936823707015936,-2.8563710840311893,-4.051463459297514,3.813776749497988,4.5442515936780365,0.12920521160799436,0.044029962343288376,-0.7027482509480265,-1.8698436199334132,3.1097066278559207,2.351243402989846,0.8193376521179598,0.19100521445611718,4.845124247729764,0.14841882229401604,1.7797946284894124,5.15076387558639,1.1625572549984864,3.5127993905774564,0.6740384518395462,1.1842933425225226,-2.9804713741404227,0.6489183936508017,-1.4078525507608886,3.5614695793656588,4.950153079583548,-1.4079460150910825,0.2613123164303204,1.7884621800293936,2.7129067287147075,-4.217454237462369,0.802369347478951],"activation":0.0,"bias":0.0},{"weights":[-4.439373512785074,-0.9328968487114129,4.376760317672937,-2.7290545131034634,-2.18934558917479,-2.259342604060327,5.206238516498475,0.7124035945448733,-4.553779417439676,1.3887911016166856,1.0708896622167,-0.3943389186090892,4.040428972837584,-4.526234740398117,-0.48986409420315324,-4.050934467349474,-2.5946759349628175,-3.928078857299403,-3.4847392147366825,-3.566086944726693,-3.464609730549081,-1.2178401296976702,-0.6713135857542041,2.9098045217764197,0.6015168067058851,-0.5623205850791096,0.22951958787472793,-5.0,-4.39531965846991,-3.363750114029922,-2.9818029091756415,4.87655842713615,0.11343561955208525,3.501711367928269,4.130297716888669,-1.0005313877277784,-2.470061234433442,-1.6640365986855592,0.9124937417475553,-0.20057362663746003,-3.66428138087658,-3.97949649902484,-2.121921532783676,3.777320238691332,-2.94416891300794,-0.5297550197689695,3.9225076758179274,-0.9399094370797543,-4.725063095217459,3.1520574556561867,-0.31751965441731933,4.616659131914027,-3.549810606843768,-5.108046940605117,0.5667781239164855,-5.0,-4.260768579890652,2.40792326257772,0.5835574066314431,3.6548808111080318],"activation":0.0,"bias":0.0},{"weights":[1.5372224168279351,-2.958983795950975,4.848382650364001,-4.011540815603882,-3.6941345699234605,-3.7872043479638204,-3.359224903118883,0.716554680389042,3.9623969446628804,-3.8927760439247625,-0.23600087652337587,1.0263805765981773,-2.2631409245338974,1.625189420555216,1.9327899260299055,-5.112265968243525,3.824922977877508,-4.4215408023745475,0.7571830355161259,-4.494439361774325,-3.107837627427582,-5.0,3.6928078986947006,0.05884257862278741,2.5729367967622685,3.6461051037986456,1.9223107251362728,-0.7333063490912234,-4.857588017733658,-0.8006889000119071,0.9037300434894519,4.729603411925889,-0.8930757141506178,2.6729670124258402,-1.4277855172951979,-4.688023835546323,-0.8398650061735802,3.812482821143468,-0.24417972897437834,-1.3551236338608161,-0.7311674571274097,3.821903936767198,-1.5251395732729498,-4.592602497691125,-2.8700647771896795,-2.0433408582023698,1.7616144994207334,-0.7866495607349678,1.2946521901285954,4.136700761661574,0.9699158467773786,1.6694002133330952,5.0,4.12876673776607,1.7563817423464172,-0.35804854003799014,3.3217187294379045,-4.032962405713398,0.738300489965248,2.30143541343314],"activation":0.0,"bias":0.0},{"weights":[-1.1969033070350064,-0.014734562201721979,3.2679290162581958,1.8711675190043873,-1.8292650011016602,-2.172699828148338,1.1634940355396042,-3.6407069706073854,-5.244825608854024,-5.374173865887468,-0.12962195119433795,1.08021071428118,-3.3337226537212983,-0.5249044238849273,-1.1583957386837018,-1.3102325639769998,-1.7468974580108325,1.8604748218844864,-3.0751586454927935,-1.6208797445113885,-2.858255761336907,0.2164926640904563,0.7663610380126751,3.3615609276500398,0.5573231575138832,1.9092028760232025,3.2008669856427368,4.892466613012129,-2.587471501246436,2.2687845177030157,-3.627432381928892,2.8828146849980065,4.560258524404419,-3.043990408506134,2.1531614720148973,-0.11506683747465951,-1.0526021213464962,-4.185915399528863,-2.5310517383869033,-2.862703311997221,2.5596178699285392,3.0595374403246978,-0.8640079321556927,-4.209290727061515,2.5084425679478137,-2.5792694563188006,1.851286136200724,4.213916461427666,0.5073258814992371,1.4372901791074413,1.8658498651543174,4.054078770305183,-4.453555014678617,-4.652645736615884,-0.7641584543277599,0.7720254811216961,1.3264912392397423,-2.4011502341829427,-5.0,-4.853468831539374],"activation":0.0,"bias":0.0},{"weights":[2.250133475762852,4.282906540893425,-2.642772657807868,-2.9617896313146153,4.126419280247766,1.798584690374476,3.3319741653459727,4.533333530177643,-4.558311684607908,-1.2936410038885362,0.29337954749082873,-0.12834575704112727,3.764693675609757,-2.0377283992997106,-1.160623075627442,-4.767742274110722,3.2237334502632926,0.23180569766466164,3.045049481387448,-1.5973385247933523,-1.760909749690303,1.234494584649964,-0.1952564319319453,-0.8088054845757038,-3.488509820293668,4.418543707821756,1.4957501257733532,1.5682981861207055,3.3618116236849174,2.3157535211091402,3.062252189406521,0.9799540859671929,0.02575893872618107,1.8878450828333593,4.745774960989496,-0.35500489043700467,2.47783418592033,3.891528435377798,4.585149202796781,-3.6561616062872426,4.569769882228042,0.8456247425837266,1.9186686886430737,-1.385503483194694,-2.1900459114796162,-4.734872046962682,-0.9951186268274222,4.303818041757596,4.803540232459358,-2.301463970715646,2.086863906651103,1.731221481540031,2.1168323551326895,1.7139844497470271,-2.9184810715833605,-1.06113796410897,-3.0668510333861416,2.153460182526535,1.489321915188506,1.3583265935703854],"activation":0.0,"bias":0.0},{"weights":[3.377217090163888,-0.6241346424859106,2.074355361616312,3.1720713048439877,-0.020321904760729148,0.27822372769833403,-4.883388016916621,-2.4805186125007523,-0.17531389976125178,-4.456007159095173,-3.765693403064935,0.9078271925890221,-1.7762180659023203,-4.320492667594664,-0.09536547999726974,4.862833371272023,3.310931466583769,-4.564280629097352,-2.662630331856924,0.2981638759368316,-3.8649959607903215,2.9626140851906384,1.5829063888439732,-1.296074556211614,-3.940740374425693,4.520059285987876,-3.0856763527568187,-3.809389353822014,-1.9123135325356695,0.9600194537690405,-4.862472352487206,-2.291756420447685,-5.0,3.4200816059624524,-3.55168334980646,3.6949575505253076,-1.5026784669190674,-1.2161187794620396,-2.4610843786301544,2.24011921527155,2.1696340601144257,-2.5404753009357104,2.5579382422465295,4.14875149386898,0.6773999141451753,-2.938107589860432,-4.054707122075365,-1.5280304053900617,3.387301969992424,4.847573733531996,-4.156351033732201,2.1079231071590465,0.40782334665723097,-1.3365931692652648,3.1639977255218996,2.6895750442265607,-1.1684245086374188,-2.3382428572228333,1.0493164708502545,-0.7379562316964885],"activation":0.0,"bias":0.0},{"weights":[4.493026824281465,2.2619923180524744,1.3577591123022605,3.3232503148847155,-0.647657600486163,4.077722251063786,4.048647180374131,2.1590060445210844,0.4374031167183653,-1.6335030702977937,5.460095535300416,3.1453105679695756,0.38450973819108847,4.2793068418375215,-1.0416792607053096,-0.725839522876147,1.8579419208607064,3.3017596370783693,2.905720364680134,1.308383416287676,-3.3368120472495626,2.525771109049393,4.423473904594394,-1.9429847634719568,5.0,-0.9791509834071396,-4.604648004370615,-3.381945034001382,-3.849877858938034,1.814837306673579,-5.754581625613975,-0.8505577267546626,0.467583470008209,2.5863749802102287,3.5600645655621292,0.4222330984005096,-4.144722655626219,-0.5063320774032877,3.4524564635653108,1.7125413118455066,4.28644147101889,5.15760693308403,-4.661650029165508,1.5770410186039139,-2.5515494067092526,4.153486209506291,-1.924538086254816,0.3715573825849495,0.536049402537165,3.0852011999209115,1.3780969933824423,-1.7556848372008977,1.2979356698388602,0.05548090605471334,3.428299726570248,-4.22814565744238,1.3597531023574092,0.05876928482760124,4.055745581059477,-3.104153977208791],"activation":0.0,"bias":0.0},{"weights":[1.2218539311421814,2.0735897803641117,2.997291197914448,-3.038447177378699,-1.7321251673259117,1.3756330343316523,-1.298637253363085,-3.6778803055446483,1.182408747395177,3.915507459995806,0.2486131830304299,4.654253076405397,1.9868342890924453,3.433572280647511,-3.543073286285076,-2.1199278869460807,-4.330022872456599,-2.3837983295648852,3.7115582954622197,-1.1655832854162411,1.1090904609412227,-4.637345756410685,4.48086456693666,-2.1602380443142115,1.260534026983259,-4.936340985373872,2.338357956592919,0.18957453910037136,-4.581504352281647,-4.902731212974921,-2.214238823640902,-2.9234886868848475,4.20378105716317,5.0,1.431229917062662,-4.475296186493868,-3.049010044455354,3.3279390726461955,0.49738480317237,-0.4096709657109615,-3.4643180779227216,-1.202025575048109,-4.585793735393862,-4.482223474675165,-1.1492975318117316,4.204347463113626,-0.6377585197562629,2.077775359506779,0.3063872282123229,2.022700887120191,2.832727315969934,4.706929774596046,-2.1668781530904884,-3.677877874866714,-1.4737137248877703,1.6239975836422755,-3.1316477572327717,0.20255807976032858,-2.0600006981063497,-1.2372838896535843],"activation":0.0,"bias":0.0},{"weights":[-1.1181099724935026,-5.0,4.7166836978764906,1.1132147627482236,4.307094162557563,-2.9411124828201114,3.1136957422398623,3.211265437231522,1.1673789019070684,-2.236744650070981,-4.327355964081265,-4.547875153622816,-1.3592186762962082,-3.110996054469921,-2.3848028422012626,4.287511439565768,-4.8423742395215985,1.572724972535437,2.369377022140526,-3.553017664225611,-0.10497858054801634,-5.0,-1.3982579518351268,-5.0,4.760675721480063,-4.496386416492437,-3.0392737126145017,0.14677828735953236,4.983190577456044,0.7291701207451753,0.3099137876618503,-3.3046901035964757,0.406063661276719,-4.16280433062578,-2.3386582176912403,-3.1427716469081757,3.8975342758492433,-2.407994294275952,-2.122904662801469,0.5821556577930591,1.889781902645813,-4.678210583344399,-5.0,-2.292510340222123,-0.56758843893073,5.0,-5.159927716806774,-4.7713729239388805,-3.0495063804820273,2.9580484504843088,-2.5389721125609177,-1.139841683238785,-1.3085802396800728,-2.1367943055902336,3.8694631063666787,4.654229531662096,0.23856526553394286,4.018195158029238,-0.9747633861455283,-1.8153406813666018],"activation":0.0,"bias":0.0},{"weights":[3.5166951197413407,-1.3994224472316321,0.3592035718646581,4.252180117430461,-3.4590415689524634,-2.1731138853969703,-0.709001316742542,-1.5044419718509978,-4.763529485962215,-4.879791975610122,-2.42954279455734,4.5368493920359505,-5.0,5.170126011157823,1.5965011630746049,-3.8145667934872813,-0.1863890630093492,1.5807979821432092,-4.047678047744862,-2.972098553741821,-1.0758895693328399,1.1130398740689667,-2.0473977725066694,0.228538159031492,4.624006888548406,2.6739268089641337,0.4451126938750236,0.8679408799597286,-1.6149140894008367,2.3166000535633735,3.3602013642473807,5.44703823327012,1.218204155725922,-1.672630193883733,3.513859310603729,-2.1675115362676536,2.3616631508477886,-2.1327910226519333,-0.11560299989744827,1.6840562003555144,-4.70687285189935,0.03400639065532396,4.443642145154336,4.385425810256935,1.101387892177956,3.518641016920383,4.074396737995596,1.9463565484844871,-3.8041951325057974,-3.9372034739073194,1.3970955536793213,-4.0134263826108345,-4.184797321379627,-0.23686828916729152,-4.055425913563926,-3.2674969268190535,-3.289582193482709,-0.1752910117558859,-5.0,-1.4093915319340042],"activation":0.0,"bias":0.0},{"weights":[-3.575458604278317,-0.5747956855382793,3.1238345379141754,-2.765090778373183,3.324479047630227,2.6745842049667576,-4.899340148274695,4.409882879013628,2.0383697272796977,-4.971392477878479,-2.649072616048384,5.0,-0.7805345372243009,0.2917393798222233,-0.9326892620805662,-0.40910006974808577,-4.040757104500569,-1.8370830243977077,3.6108073237898966,0.47615499661349725,-2.656531843961754,-1.8566760393218564,-3.3198260439848912,-0.5033398761934123,-4.780432827636664,-4.206557178220951,-2.0983360596196436,-1.3373902541616458,-0.4879532252218771,-0.23999523788802624,-1.2567449231656114,-4.781955655127348,-5.0,0.6370965351404553,-3.8672500496414575,-4.654387673055194,-1.3012842027547458,2.8674550033859263,-2.7938610982212504,1.4558835542556072,3.2436588756686566,-4.99412954712596,4.752888662614423,-4.973708539091183,-2.026401659559367,3.5149049660226663,0.8665964727294412,1.636902525151852,-4.899615893443306,0.96907633811066,-1.3131578510848076,-3.0826020298441823,0.1892022393396553,-0.7381869182429659,0.5605586803424109,-4.827126898375109,4.503111035732748,0.5495425665038576,-0.4965834345504325,-3.609973009045164],"activation":0.0,"bias":0.0},{"weights":[1.9323744113233727,5.0,-3.6236852005740774,-2.7126802118644657,-2.46474882801377,-0.9914045770467579,2.6169435761942634,0.6461022304400771,2.5440715875629705,0.1369562965312594,-1.7450125355207833,-2.452862469035209,-1.3800882245134023,1.2959924580961344,-2.3360632565312427,-1.2354891911652657,-3.0307528984006677,-4.987336766940211,-0.7346902767169998,-0.8862843092880655,4.4031075290670065,-0.5156669572075986,3.681214302466699,2.2463547912843,1.057838594266384,-3.7505495967028186,-5.08681685726493,-4.706506497995776,3.94185538328694,3.0700886720884646,4.9668128075303475,0.233084108738974,-3.9357317417058137,-2.731029479004133,2.955452321452243,-1.5096422460033396,-3.029046629170844,0.49030111703437496,-3.567740860292254,-3.270434278851613,-0.716417201268222,2.1290001791665705,0.5183708051526766,-0.6767687357098204,-2.996374924560482,-0.7952923107968503,4.841541235412483,-3.0521724321122568,4.1709551026553875,1.3309462997216164,2.177939732228079,4.746071324887677,1.2263391863658044,-5.636123017522449,3.0772065108614415,-3.0838483783053947,-3.4691718306964474,1.9994956627979132,2.8848166062240996,-1.6741248678626812],"activation":0.0,"bias":0.0},{"weights":[3.433763977525816,1.917592292150447,-1.0050679717052078,-3.829980045930043,-3.700582088178325,1.8091248851809547,2.7404347250501497,-0.41408628661265534,-4.738137069017313,1.1891697733387674,-0.8617020446352304,0.8305375731848296,-5.3131460359012745,-2.063233711953008,2.620922391213226,4.077381912046587,4.26600510983214,-4.845596451757774,-4.525887118434348,2.3190992941601367,-3.554519957281587,0.5341187972986583,-0.978195577225405,-3.9223313202900005,-1.1711731780037398,4.202997810759957,3.8033235260588656,-1.7065412284515609,4.917749474917844,2.0318993868546906,-4.582241951222254,0.5343715869482342,3.6487249031175826,-4.055184653585851,4.020432524499434,3.33635721430922,-3.093260052432974,2.2219739132762837,-2.5878451521765466,-1.4707795796724175,-0.8764984816065589,0.3844852696404738,-5.0,3.729156794370346,-4.724412590249731,-3.3539191645614634,1.8670587520228823,2.0754446849646158,-1.9865733202115279,3.042204205204837,1.2332013939412771,-2.6008290392278406,3.9470271412348974,-2.177260632691089,-1.4204319780176151,2.50778397470378,-2.35774522775745,3.6901892920194745,-1.0782440205309272,-4.420333269090575],"activation":0.0,"bias":0.0},{"weights":[4.01019553072943,0.6655653841101026,-1.9584476640862212,-3.7912148221678126,2.183241701556967,2.7091096613257752,-1.0698217594317967,1.842471692548625,1.0867369099520927,4.0600691097156405,-4.87969606426818,-1.9086087865029282,3.098414254235835,3.8334099212145683,3.5430444391109437,-3.711367781299645,0.207480115648075,-4.310382205864902,4.680826812540663,-2.505479903091006,3.413360531041726,1.5898654552888072,-3.307527613762808,1.5168736369867264,-3.7505012586960373,-3.944504764932358,1.7794622306833652,2.798995770186737,4.003828907725393,3.349454887937582,-4.296590852279744,-5.0,5.0,4.658429914003226,-0.021114148896078544,1.4407848843602202,1.8468662703134453,-5.0,5.0,3.521535771116518,5.0,4.708281900844018,0.46373595622779584,-0.18633945429211574,-2.060770298331252,-4.56308855952454,-5.0,0.8082727586974033,0.418590420713813,-3.3291739257855917,2.7966252717491384,-3.4678971156567853,-4.0829839825621494,-3.9260901732987445,2.966438358524295,-1.8576792483154645,3.003251946309787,-0.21430819000027324,-3.363678318801165,-3.6039741661919384],"activation":0.0,"bias":0.0},{"weights":[-0.7015061315688489,2.3177397948526224,-0.6424113168865789,0.7150483343172696,0.9969954759732816,-4.1027255020403395,-1.7914601507928691,3.3859087574575013,0.7239878240237372,2.195675764420375,-0.11651847241794044,3.3059683807319002,1.0721702078492892,-0.20367319905366243,-0.39868844417948857,-2.8699628262774133,-2.3126648109203125,1.2040075578557072,3.8821235971248846,-4.481893794933707,4.115294899592957,3.0052480897641067,-1.0911882259188457,-0.67790243237027,-1.9930786514183463,2.0888438723457075,2.4397342633776105,4.735337185354125,-4.17737861614162,1.011777654848054,-4.5080852235972735,1.8331339183586477,4.4682441100724795,-1.8196071055341332,-0.7148124037557562,-4.477208949223229,-0.7149912387057218,-4.2796304117698725,2.962075476097334,1.3243691891259002,1.3112856972573743,2.675241917079903,-0.24837672900951424,1.7190571212693715,2.0258257170969194,2.198914085881253,2.287151899255231,-0.6187492674314468,-0.30863100949538746,-3.9537657125766437,-2.455379756120959,-1.0478501586879772,-3.3261782383439624,3.493753690106595,-5.0,-2.579184433209238,-3.8799309170530956,0.252101419465368,3.0405432198760605,2.111494197051789],"activation":0.0,"bias":0.0},{"weights":[1.853334588460322,-2.050470259049432,2.3276549558205133,-2.5047538184576084,3.299605143235593,-2.2592325123532238,3.4646420053278337,4.644223256942377,-2.481875662635293,-2.362725842109198,1.5045460147046357,-2.2434096760114075,-1.968982275577274,-4.3235726081084485,0.11623445759448536,3.811888329011352,2.7880775311739376,3.178589358932821,1.0750460844713516,-4.980005376398804,4.867282669702553,4.636095395937449,2.8652124617755694,-4.572971222067127,-0.2496879968771225,-2.923715638636126,3.030861355925527,3.6193525100864004,-2.617663607178897,-1.0477011258646995,1.271852572867319,0.7579246549974746,-0.2833581978181521,4.84533845702662,0.005415185744657491,-3.1243343844689035,3.212034250383152,-0.1735675217088385,-3.040814881280077,5.469868116033491,-3.3396747928096127,3.6949552826311347,5.0,2.6384741304720682,0.8689406247488745,2.0202820999406668,-1.0568515855373442,-3.3281625505723755,4.4032913373314875,-1.8701602336937815,3.705912118707344,2.2179955834471468,5.0,-4.895164996794471,3.340879946715959,3.3068304731494096,2.394316125178652,5.922480604154647,-0.05980749195875623,3.884445868926477],"activation":0.0,"bias":0.0},{"weights":[3.5364532946654172,3.9979935855562276,-2.8995347585810745,1.459269243494536,3.8022933586390573,-4.723355685748471,5.2015807510122,3.0319860968711874,0.11112653598508215,0.18748124436982172,1.6035099977303249,-1.9911932318499015,3.156208491885189,2.5679276417296006,0.41955549715145857,-0.024919514737336113,4.223094831565026,3.6876352890450947,3.502112254851109,3.2748888909514866,-2.244995911662158,-0.4119835853825756,-0.5017831430593352,-3.404793739089556,-3.706711381485008,2.0765679633221543,0.1928132474495048,2.0737380506006446,4.920867173698778,-4.811637622617989,-4.282410080102619,-0.26577773548846284,-1.7052459100493764,2.0256051580133283,-2.4264594844126735,-4.358403188055975,4.71758994145609,-1.4752627580888196,2.4298965935845516,-2.6776710911616286,3.3290829338209007,-3.4282898862742246,-4.447523748871187,2.858869748787029,2.70105048254525,1.4920838975538273,-4.698153887912735,-0.17306246596305352,-0.644067564755336,-2.020850468454933,-1.773471834067017,-2.7066534721755087,4.6061050598012,3.911125047773276,-4.514300121116607,4.680548218647225,-5.0,2.759511049637472,3.4336228661096726,3.4751462488139966],"activation":0.0,"bias":0.0},{"weights":[1.0743256433335704,3.4443893901573226,-4.594371861925603,2.1670203113580806,-5.0,0.9372249824559226,5.0,2.2298804633993328,-5.202780115232312,0.05778957073714719,-3.5317746306479108,2.0874294781016207,-3.5364821132807456,0.12850467371669383,-2.5253788508101063,2.926249615322299,-4.387783671321007,-3.5109069495375698,-0.08097072760749335,1.827931799370858,-3.290571822355476,1.9427448468765207,0.7801221629098268,-3.116500080125931,1.8676583476553996,-2.365179111419694,4.53943473968465,-5.0,0.5380584171855247,4.747891910192847,2.555601589965956,1.5694579610442334,3.228317165642716,4.783341195574585,-2.6402771222326296,-5.0540670705091575,2.2497533157926517,-0.30906278022484046,-1.2579329263245127,-0.9000094714214305,4.234687261736001,-0.113663379715925,1.8615268744700597,-4.081871637675151,0.20239806226259927,-0.17448409647715213,-3.8588368110184,-4.974324340481306,5.277830574301907,-1.4115604263978572,1.3296588684681225,-1.4950039482910973,-4.508471462251788,5.1729074014262135,1.9691521527340088,-2.5885637094874085,1.5862896335230448,4.610902562866903,4.236614703285241,2.5029392393260057],"activation":0.0,"bias":0.0},{"weights":[-3.0041301983106528,-1.9839457432587868,-0.7493144221685475,0.3727254533119677,4.746485509495641,1.0274176920414262,-3.4386760102198366,-4.290253518241816,3.7841164883881984,-4.61361785952375,0.4950070249722909,-4.589576878311448,-5.2051398065578915,-3.114594763093459,-5.0,-0.9738720766257715,0.44728016041068486,-2.274128849394485,-1.6157418205532625,4.703401647976547,5.0,-2.147816465355385,-0.03779563093494864,-2.3198451519527463,-0.9972242076009825,1.2587226725240104,-0.3163041090427665,-2.4032182619475124,-1.0731330100930494,-4.028740212353191,-0.7236002582609086,-0.14958836999075098,4.9706730155687735,-3.777846998064324,1.4535387339058432,-0.24276244265791747,-1.7173681512935346,3.2964626339329697,1.355836252349892,0.2540389865935313,-2.449180332915688,-3.5569349532112753,0.12022234353484762,-0.033760979216112874,4.604780555426083,5.311719395013128,3.8711198728902794,4.726446615021202,2.794751345201524,-5.0,-0.8372344749807589,-4.293442117493632,4.093672972040177,2.3212582538187383,2.314027712916523,-2.9784801566547734,-0.9698759841250225,2.2909739388835453,5.0,5.0],"activation":1.0,"bias":0.0},{"weights":[-1.4588803971349171,0.8559541291519662,0.8447937596876414,-4.132327058260491,-4.715638517675506,-5.626914995698792,-2.5892244364200763,3.08549346453759,0.29929800181545774,-1.8214283278072907,3.99273591481439,-4.066402658825693,-4.035644779006674,-2.7115234295422743,-0.4071753553067031,3.269839809913973,-0.25291433674720676,0.1928878855649695,-3.1695881650145488,-0.5937112311751919,2.4119365955298897,-3.344712323595151,-2.7957422150190983,-3.836653672417371,1.8991910424111433,0.053536771051808874,3.6009852437498346,3.7554432913322167,-2.7301599203967815,-3.1179622581926263,-1.31658994525041,3.4489102956641857,-4.531987107466941,-2.848254130116643,4.664919009354017,-3.0273199474549135,2.691348824264934,-3.693655068323375,-0.27475019956015023,-1.4248360420976067,1.0827228494461554,-0.5751622840235898,5.15568361999424,-4.820084899610032,4.560025397451371,4.789535799660469,-3.100001178632012,3.4775627330723182,-4.79991088176614,-3.724014195260158,3.3792472693768127,4.60938325807623,-2.6434797100456193,-2.7909240812243903,-2.0857640098475887,-2.1806105426803026,-3.9820035159251135,0.059783132075660106,3.2487303216453243,1.401921114701622],"activation":0.0,"bias":0.0},{"weights":[-2.602279696566198,4.026611700700206,-1.0275837760584117,-5.9639373001839155,0.5575954030959556,0.060047952758704115,0.44136347978897006,4.401388715079408,-4.881705956837965,-3.068570839204617,-1.8218206116632532,1.7362106763191243,-4.910630666272012,2.016290184386054,-2.7967343271753764,1.0231738973959108,0.7946347912168028,0.8923840829136965,-1.6962914685281947,1.1616379685878067,-2.8955637874420903,1.5205955684972214,-4.0700809177058215,5.0,0.5997449718656347,-2.234296112828555,0.7902283144053815,2.606082493316431,4.990046247226328,-1.5785942755345799,-3.8950405381151083,3.7795347531751045,4.397294903335032,-0.018937412948142773,-1.1463445816753746,-1.1144661860214078,2.376342491298231,-1.507659681747489,-1.3468138948016466,-4.998264198716257,-1.885898593716362,-5.0,-5.0,0.24952395300764363,-2.2215582768936772,-4.6844910991950375,2.4461485892786743,-2.151315955298003,-2.033710568967387,-1.9782224178610432,-2.4348407701328254,2.135073641809846,0.3376466766061754,-0.039276779430584385,3.103737340640709,1.412456537617822,2.020936525227731,4.05467734008531,-5.689458293721177,-2.472436587483125],"activation":0.0,"bias":0.0},{"weights":[-3.9473405978855602,-0.12448497704529238,2.3361416736506055,-3.556446897901314,-4.417128797713559,-0.7868514433044234,1.5723891691572938,3.1935120350412376,3.124349648948179,1.035771073713656,2.9901096082864864,0.06086006391649312,-2.407515475208139,2.9684915627907853,1.7149637839205365,-4.356299035531881,3.814238449846394,-4.548303488690769,1.1774912147534478,3.3033251867232076,-1.974131677516549,1.323010703501081,0.6144163187344743,4.16283937136307,-4.2730829463698194,4.214021725492167,-1.5221671691330778,-2.284241160811433,-3.8589317426530685,0.044071886703845875,-2.378791541848639,0.8032132130175538,0.6074686520033077,-1.1164402329877667,3.049208848484893,1.015221288658036,-1.4244891777169086,4.25916985876386,3.9321432216509287,1.157975337410155,0.3532290654316559,1.433004706607797,2.17069034494026,-5.0,-0.7734169333585917,2.9557925818466613,4.639433050358855,-0.28346645435040096,-0.6365521930253898,3.8032655985114854,-3.6301788362153213,-2.179209927702982,-4.669220386572105,-0.8889545110765745,-3.3095344576417203,-4.716677698980202,3.9362334991275754,-3.7947621940848517,-4.445267481261814,1.261698338849326],"activation":0.0,"bias":0.0},{"weights":[4.550766698972168,3.8359967279839013,2.1069550351366146,-1.0631427964474254,1.499715488134463,1.3602191348727155,-3.7049006887794693,-4.770083372111645,-0.22968698945866783,3.6202880133042035,0.023906163205834052,4.153246335207107,0.8762336265739921,-2.182045785695287,-2.7070352836728437,2.620978904298324,3.1960427215591913,-3.4643026214861252,0.2639381232723521,-0.19969578343265526,4.46672131962472,-5.0,-4.731225321960949,2.1649920775734537,4.346804284068647,4.089443070446526,-1.4298678972935348,4.068473061043594,3.335729797666904,4.518838034106781,-4.724854017760573,-3.7450998074061648,-3.2098081994739474,4.102246760281071,-1.5280315122488701,3.1836084746746147,1.9051425771060955,-2.0941847605405552,-4.485893677836541,-4.714471081787684,-3.712924011636154,-1.574354529946738,-5.6305871751056,-3.1772266640677804,5.0,-3.693626770556013,-3.5776114691473833,-0.24320306545388426,0.3493969691605633,-2.6409503506319774,-1.430686145002335,0.5889144082236494,0.40168979290828766,1.8270189679610371,0.14678097159344794,-1.5907287803760468,-1.4965667509840246,4.904801797106488,-1.858896441144373,1.3993356869344349],"activation":0.0,"bias":0.0},{"weights":[-1.3091695374148262,-1.3056814976784739,-4.036332233669629,1.1959701020860596,0.5032240332964066,4.2291686233861325,-1.1704627081951258,-3.7214847629717624,-5.0,0.8756995237687337,-1.5328133316843382,-5.221508470213234,-4.6694878649395894,4.243341768971334,3.296169299785277,-2.755487870165208,-4.826572031943769,-0.635246980438101,-0.9409600327034013,0.39975998164434134,1.6330083122129335,2.6345783938115526,-3.214299404178492,0.0445130803292183,2.8097526222482356,-4.480064909595426,4.344051191193619,1.820253140519112,-1.513260965268385,4.042737995859352,-0.5645242449628041,3.5789254841759375,4.144220606924465,4.569539185013139,-3.8492457794086814,1.852807525378766,-4.728436371705417,-4.688114506747159,-3.3194563339870253,4.7272249604859855,-0.20393347558873198,-2.8917965345910797,-4.745330488398528,4.134027608199518,5.2116612748055235,-5.354975598129852,4.5046814517858405,0.5392713721465879,4.236010350344808,-3.2637924835109686,0.10786328419981528,-0.21448546340991326,-3.6553448025620874,4.410017841833131,-3.476756927983682,-3.9830729354180416,-1.047028024317659,-3.369371700019707,-4.534836370467761,2.3297651900402734],"activation":1.0,"bias":0.0},{"weights":[2.911604817804835,-1.9598424233856444,-4.554677448375627,-0.6383767909290203,-3.4057449057716624,3.4781999324363175,3.1750396544419113,-1.7997105716934343,-4.806246432278315,0.100172306002414,-1.8177214457240594,-3.9037349031742883,0.4647643649237977,1.742950126420185,0.5746541027791267,-5.139220955877525,-2.6469076930827136,2.117754183533051,4.622442746232578,-5.0,5.0,-4.08508159771176,-4.528339442408933,-1.779815324939699,-2.5830707086190676,0.1593082911706487,-1.0591460479981003,0.6199797259680971,0.37360173026133825,-2.9523473183842253,-1.6649923224631589,-2.148686699797992,-3.791569581732202,-5.985170307146397,1.9912678419336869,3.792000659888782,1.5304557422765412,3.280441573370996,-4.836425430446751,-0.9007265128572687,4.562450990164801,-4.593330476709175,1.1582226208268112,-3.0032079304192596,1.0405161734529467,1.3187595467455524,-2.0044525422751898,-0.6253732018611732,-1.3448070487872834,0.26236881367908405,-5.0,-5.0,-3.4709122364017597,0.24167355170841698,5.0,4.833161103497384,4.961222853476499,1.770666808283453,1.2854335087118207,-1.9250923938764255],"activation":0.0,"bias":0.0},{"weights":[2.4736259392826376,1.107210756015156,2.338044802811838,-1.7442104225558603,-0.2878455496586362,2.866931956982223,2.5560442063001174,2.9517229325892607,-0.28540944014859393,2.0563534001112496,-5.0,0.8693051884065127,0.25845092624738397,-2.1393834220468593,0.004392955280609789,-2.0662334021803264,-3.215513805727542,-3.720806504929456,-4.51655568627158,-2.4500560632959205,-3.28612567834545,0.9807789272318836,1.4257295173021314,0.425271514411929,4.990254545970651,-5.0,0.5772401056028771,3.706106884311826,0.7916857922939157,0.30233301596549944,-5.0,0.4672924645522818,-2.493704755052632,-3.9990540354510653,-4.055405199266184,-0.07365703828943715,-4.568179817437718,3.2020006345854464,3.9272773076600114,-5.513362730763592,-3.771745195744484,1.1230513444141241,-2.3034628554045113,1.2823378073357263,1.9807793323071154,-4.179304493042471,3.698454591198047,-2.0195631071599807,-2.9983239463740343,0.12134804588927472,2.6754866328216877,-2.0582601310516133,1.624352048010681,3.815111610642597,4.350348262503969,-0.18409032820981064,0.9094393897605996,2.033967367943555,4.387565736501519,-0.3698700243898876],"activation":0.0,"bias":0.0},{"weights":[-2.3813941588616325,0.9126323467135151,-1.789546308158468,0.8545862899378458,2.258478409056232,0.26035930116675965,3.0336130045648053,-1.8568788657146742,2.112370114847863,-1.5669333076908531,1.2544913093706684,-4.153366748861858,2.4791242420485973,3.5337243855657205,-5.020321972710904,-3.65466789886133,-4.297250762795367,-2.770389624393239,4.6911921248891195,-4.651723462180205,5.0,5.014948393086407,-5.0,-3.900652272131622,0.8837593534651481,-5.0,-2.946222684622323,-4.122783883485992,-2.142029163458715,0.45948252221718555,2.973195725478633,-4.721131259720638,3.240557169975419,0.06982790413042061,0.7842958460589038,1.4895309708801014,-2.0318369178052667,0.3139094849432168,-1.54999503502654,1.6188724935291072,3.1675090947281044,-2.7854031932700574,4.960559414844513,-4.202800370991692,0.8642803762908737,1.907632832105812,-1.9947938550714972,-3.9912689102502776,-4.2063919527877,0.20922922422735313,3.3529223731563844,2.626991589498598,-2.7454443751489275,-4.544470538274778,-4.8279400256247,-2.0969145144134966,0.8215781740386617,-4.609037989850022,-2.2507005413769754,1.8944987876709005],"activation":0.0,"bias":0.0},{"weights":[-2.2832447148548116,-1.0880767323251985,0.9239144940122144,0.2934456469548933,0.10616343813891616,-2.4387580821593393,-0.5005912669714273,-2.1566484939409296,-0.6775384712167632,1.5405180695557683,-0.08661977434645884,1.3053655797728887,3.925062265409349,-4.516319465031868,0.3565776263240481,3.0385492651221515,-0.22471481071063637,3.8706679392920096,5.232903612464496,-1.4601585094996676,4.572137279640093,1.9470062825916752,-2.621192928681445,0.20555227616385463,-1.2318672120862562,4.956693090942556,5.0,-5.368511947655017,2.422363711146368,-4.071693767481242,3.828172290883086,5.0,4.8993372475745565,-4.523310466984512,1.1091247858677038,3.9532819416227785,-0.6711728100189529,3.962200079509436,1.2294208094970047,3.4906926807260654,4.741992090785226,3.8664816672475504,1.5518291630846377,3.300483994411157,0.25469430288137174,-4.463380178579467,-1.0150293634937309,-2.645182956291895,-1.1032763156971712,2.688580885660943,-3.527289336040183,4.205372605326905,2.1782871998121736,4.846710133319489,-3.309703883208807,0.5470070744153703,1.0328518093453736,-1.7236599280684726,-2.6203257451084596,-2.035281199766331],"activation":0.0,"bias":0.0},{"weights":[-1.6349610348161978,-2.5907703431664366,-3.867879180367139,-2.463362893054397,-0.06140612408725865,2.475484963947698,-1.2634727262514764,4.227068605338595,2.805174691383626,4.805827991660516,-2.621755571507318,-1.1633809262598063,1.0721016562145316,5.0,-3.9023113356006887,-3.560750423497607,4.196555497183189,0.8971772898492669,-4.916337408372013,0.43033991312929387,0.52553118678584,1.0686268271295103,-0.15290374899788017,2.571806622315708,3.3784704113432946,2.670671211407756,4.190761943416508,4.07133732591925,-2.94688769568907,1.4981011231019472,-2.6602647505675883,-3.3241897139163687,5.6347982048844,-2.9450363300443994,1.3450676571948366,-5.0,3.618421572792885,-5.137286198197013,4.211933004481502,-0.0856731768273703,-5.55168589296669,0.04876956151778,-1.5621924215672802,-2.9539100678377834,-4.069938506854948,-1.8062832766991446,-1.674196151337361,0.08553448521533402,2.348429762805388,1.759465591979319,-2.8124396408846914,-2.5456096810528828,3.49750487133153,-3.595267352466406,-4.958759727532533,-2.25840929643145,-0.16415560876365765,-0.18613634101945076,-2.87163162318538,2.475451712602203],"activation":0.0,"bias":0.0},{"weights":[1.0505816833053045,-3.605546266292871,-4.534928796380917,1.1224620332278499,0.9205541566140204,-1.6548128112713831,-3.7115214652309736,-2.8417533061157747,-1.0751751068093225,2.949393437917716,-0.5464883166175019,0.3933036390246567,-1.1650920474944844,1.9206020691587837,1.6367162464668805,-4.839796845909607,0.8244483083904587,1.4272007579433172,-1.6010338115428469,-2.0507409993258667,1.1748956468089093,3.20426087714502,-0.6656115791517825,-4.679122090713832,1.1407608055212004,1.8943305661380219,4.177060033745292,1.2904106381952678,-2.3450489239404595,-1.190365430867539,4.794730232720859,-3.5681631159751825,0.024448170552813675,-2.5271520822926123,-4.272877611592366,1.5431026201422051,-2.866021536188129,2.474674709213777,-1.1673560849346174,-1.5093863899606887,0.36998486731097957,4.040982148258525,0.09491110840784867,-2.0154526519248153,-3.985797740077349,-3.4592908057150322,0.6020720156604422,5.0,-0.7890662168175782,3.0390932019683947,0.7814252816107635,0.6869270328153823,0.4074547513645912,4.549502149834986,-0.3695268028778578,-3.413656062371479,4.456061040843597,1.6172211881305345,-4.058505995083388,0.3313693034506032],"activation":1.0,"bias":0.0},{"weights":[-3.253630925915768,-5.0,5.0,-4.721453823748757,-0.48088257914621024,-5.0,3.4287161820021645,-2.5381192399521137,-1.2751588040911033,-3.356742987598236,2.2477035147483555,-1.9834628017351772,2.9200125516217863,-0.9226234679592733,4.7687070860156044,1.7909051920374401,-0.827860400265726,4.136179718708539,4.267173194489751,-3.422866108583272,-0.10120919484883406,5.0,-0.5666890769960159,-4.081873617655461,3.3415865636514583,2.789578958694323,-2.8591955138059495,2.588324514975106,3.6488237434269672,4.425538570434166,0.7240099065689012,-0.3580243162934319,-3.6085378352527004,1.642166786466134,-0.6068898359124599,3.484532234726224,0.7081390055167089,2.9551574424360902,-2.3630648338925444,-1.421708251873558,-4.647248645638602,0.00507019763983696,2.685350880239162,-3.6087623152201633,2.074712520974845,2.514130432077385,-3.1971911324244573,-1.4112831582653356,-5.994687411978259,3.6030273221831797,0.0557535046339207,-4.733510315042011,5.0,0.031764895208485355,1.2818851810605612,-2.1831154407956173,-4.703619865277441,-1.4255701720909113,-0.2482736577126089,-1.7601855022235617],"activation":0.0,"bias":0.0},{"weights":[-0.9438239797743846,4.425752386292525,4.662215223073295,-1.9076435729066041,1.5534991629526202,4.104783371828661,2.157850363450435,-2.6705290701194806,3.2253335279453594,-2.562219859168148,-2.5168833308862264,2.8645804039126634,1.781120709291291,-0.9851369290183629,0.2616151508315554,-0.8521100588451089,5.027569300901931,1.734141525358991,0.24817541823617173,1.1718288347833474,-2.1279106610955947,2.156806649566997,-0.15956268421466469,1.1216179497710783,-4.098869944891273,4.232363598274655,-1.7299927121862304,-1.0590133205787207,-0.02465849316760782,-0.3695028561750926,2.289916683529419,3.5624364709591188,4.787045496781239,3.1916793781033563,-3.2191699735031327,-5.0,-2.287663452418554,-4.849452892736631,2.8577871977981983,3.5039466755839666,1.9969924636962562,3.1364051388581875,4.819129242485854,1.9856502252704988,-4.794033272719802,-3.3372354373041375,1.777592889837343,1.4741346958962032,-1.7531133778930377,4.920157104607074,4.580597657092161,1.8579380983320486,-0.967730977692229,1.5640764830401714,3.8119730745309597,-1.4979601911894895,-3.2530843827737312,-0.3763714087705614,1.1791305975518986,-2.328668435248137],"activation":0.0,"bias":0.0},{"weights":[2.437113142716468,0.5130453714057146,-0.9979837951446915,3.628728665504565,0.3330472137740206,-0.5543068250058625,3.951836356050482,-1.8603153940117343,1.3752464690679742,0.4003500283576149,4.057937494974201,4.402479860065112,-2.989036869527401,3.6332465208022127,-2.4970992183046095,0.23409733892276519,-3.5111959646925532,1.53499569846699,-4.951129311425081,-0.8852615127875828,-3.5964536633884565,1.3190592602849853,-3.818928908532361,1.7469369125004262,2.3994906713957667,-0.4944287300630906,4.354236375461669,1.8021530232959142,4.271995061210145,-4.022052439128535,-0.9624652528257145,0.12215107384558488,2.6838048379489274,3.5612971847493715,-3.5664694913390225,5.631790356081206,3.166558649876216,2.072125460859655,1.1875425158347641,1.0030303676340444,-1.0051568918101608,-2.5493343338153513,2.789113359081229,-2.843304501404228,-4.970353085277659,0.39654712089723143,0.6940685342058204,-1.0194928108933627,-2.3665360444165024,0.11695352326820585,5.725307544635812,-1.8603775926372725,-3.014101884561348,2.344749948610989,-3.9145814738165834,-3.1879938731392605,0.3058572551367994,2.816519872043519,-0.6642628072675354,-1.2641909616994762],"activation":0.0,"bias":0.0},{"weights":[0.710602706734175,-3.3829755387801557,-3.16565677553039,-0.5539789011500782,-0.4590123978233136,-3.5315500280374,-3.210533584743172,-1.2526541708222672,3.663639226213935,-0.17011432909712998,-2.482345339433624,2.1924388938889248,0.05872316020319612,3.14911308402391,2.4183973760897666,2.437735820603545,1.6251667033328339,2.2610501264428198,2.460139882190621,-0.9222674095851054,-3.5454433600839623,-0.19907100081375628,-0.5732460769253198,1.5657606507015929,1.2571157604058232,0.28252799962380326,-1.9225069531060344,4.569266083481936,4.380052445495152,0.08558869205728736,-5.0,-4.173949758839697,-1.3361352588688196,-3.5267563263334534,-1.2197278640980738,2.240554902318662,0.28863405785016316,4.341518279200236,3.5862448482734064,-2.3983318538158747,-4.812973511196972,2.4486001168309435,-0.6603469808210599,3.9245261807792717,3.7682256576883932,4.570165121893445,2.638238885268888,1.2902547216717175,-4.448105232514436,0.10755570271283887,-2.529311471166542,-2.565876069089837,-3.299958524199317,4.102442459292896,-2.3329846517768114,2.063062284974257,1.189034330634755,1.1351294488344612,-1.7625061589240096,-0.30402299972236024],"activation":0.0,"bias":0.0},{"weights":[3.498762506843726,-1.8925067307330001,3.5857255291198467,2.9670737414205677,1.9413455918321785,3.4170808004661852,3.2872489518954575,-2.2917699801662583,-1.2972555060126019,1.9506027627950444,3.183108881324327,1.0174067241037175,4.24094097396597,2.8427709230373748,-0.7596258897949764,3.5473139776491394,2.6771157586581995,-4.95958264157431,-3.7969876726401486,-4.688769130022388,3.309632389473579,-2.6937643630580377,3.0568964677158146,2.3240054115417066,1.315948852787363,-4.326007880685484,-4.350212558126712,-0.22688853168081435,-2.311614022861699,-1.7884428120232556,-5.738625770336426,4.027627079678544,-1.7971677001626754,-2.513969025927117,-3.491641416984984,1.9524084215583541,-0.5070506628195677,-1.8850929143936768,2.9525244683541922,0.04134924865770129,-0.7382256453611888,3.7983128053257396,-3.779137687837,2.094872009972655,1.6408647681210387,-1.5134830549065306,1.6973414719540239,-3.0012983537184237,-5.0,-4.298348146005344,0.9868756666518748,-4.451578372857115,2.5118636163615293,0.8586811164964455,2.135473849272289,1.0368215004930899,2.723976299226897,-1.2945599184312933,-2.203109111358793,4.541439352833026],"activation":0.0,"bias":0.0},{"weights":[0.9510723238058875,3.725724852578196,-0.6989047460793123,-2.7260010696063257,0.24232644235757583,4.774223351150842,3.8686907532753523,-0.22481790233726506,-4.097028667297208,3.895069325332573,0.4204736499767394,-5.136013133278208,0.2785703927160711,0.7596642257844305,0.3824083571395719,-5.0,-2.2679177794891556,-0.25873441562146815,3.3565457112674175,3.555806264642372,4.612803721609441,3.995530183582688,-0.774589913445172,-1.2180054120965158,2.418140105663797,4.714885298008523,-5.3658317472315495,-4.148210911068278,0.47094152945000767,3.613462124348243,2.2918521813928217,0.10823675673060129,-4.758113460056025,0.8289138158489664,1.7284989288217911,4.056821796172796,-4.996317689413859,0.10867163070340058,4.696031900270134,4.622947804343079,-2.681029085924673,-3.634426403344918,-1.8170893578577418,4.726386405343838,4.643639862983454,-4.016351832405432,-0.005614187550876504,0.9645657868337083,-4.554956512182078,-1.6626486704065382,-0.5247511690723495,2.310485910040472,3.2771181324859313,-1.2205029155076281,-2.241155544261527,0.04308199672779789,-4.2222087672544975,4.115962144770267,-0.7480396160360738,-0.9340173929845547],"activation":0.0,"bias":0.0},{"weights":[0.9766788432674549,-1.0108711096719059,-1.1069324919850738,4.7328943923970535,-4.995048936717136,1.0038145697449714,1.356323794665054,-0.1683814351913152,3.66547676827268,5.0,-2.618695925754473,3.3771906726146725,-3.1051010471640828,2.2955442821226906,0.36724532662459686,3.8565565620669005,3.42003936611103,-2.794431610142765,3.3867950520991785,-3.0599756640866254,-2.0745704553181956,4.003297824306794,-4.068019809598616,-3.0144340510684984,-4.24612638736528,4.8414498457669,-5.976626629659687,-5.0,-0.46193337914847077,-4.30327865252417,4.510326745062905,0.28646335607454476,-2.138671426455904,1.0313114502538876,4.844694903038341,-1.9237576550118505,3.0104326149693845,-2.090468739351489,1.6058026185392658,2.4399425951962104,4.651300105768074,-5.0,-4.210898498033821,1.5925824939471103,-4.647530376899531,3.804143112559513,-0.26080654371222145,-3.899379656279344,3.5699243833225216,5.0,-0.28249545181135094,1.1024419269075354,-4.117951665125564,-1.076375451139814,1.3597624907992478,-1.4593687981788244,-1.7232471007358559,4.813972083792838,-2.1701219487887933,4.908043007689996],"activation":0.0,"bias":0.0},{"weights":[-3.835816461582166,4.404798081837419,4.741683847220239,4.869006589705549,3.332843760450662,-3.682180540679478,4.139732042385268,1.1915944395534002,2.135589876995403,3.0359052538725146,3.6246947373924843,4.265414376175604,3.2534894675724813,4.494512585288453,0.6974555346925526,3.146928709153778,1.9380444606182898,-3.969499179976562,4.8001422803885605,-0.09006520661291173,4.094220975932906,-3.618488737826965,0.3296026510211266,-2.2247871277836744,4.105587247565379,-2.0794651631938215,3.013819668634829,-0.19282724993918987,-0.7264190423501764,-1.303680677155951,-3.2240106460245217,-3.7715058451138095,4.560493011756247,1.1623149208073253,-3.2785008074832738,1.9466639275139928,-2.7784509468310095,-5.0,4.6865590438090035,-4.1308073538603765,-1.9041694799545792,3.7153976239053303,2.920478751776408,-3.5409494491745797,0.23393731666785267,-4.320090190009437,-3.1329717551394154,-4.441587068046214,3.0001743993463776,-2.33396110484154,-0.9901061458605609,2.980301121021484,2.066620356324214,-2.4040299119187694,1.8899285395171423,1.3027982486453014,-2.046884258913907,3.956216135472075,-3.7160128385007365,0.3073592372838303],"activation":0.0,"bias":0.0},{"weights":[-3.1398027883956803,-0.5301698964595594,-1.7858294269112571,4.811166735558412,2.7021175063386083,-3.810783544931204,-3.847377668323929,-3.672236167368314,-3.115757237610535,2.5549378841525803,0.396484411829639,2.0127701586603632,-3.985104233254277,0.19689186267156122,4.420749198675662,0.42569957314307216,4.879198018491849,5.201235930112366,-3.8748282403888776,-0.33044532368052393,4.1765583928448695,2.789788666488482,4.917001937302098,-2.9742359256470308,-1.4702877917095245,-4.315177784907675,-1.163101577633336,-0.6631303725812486,1.7493869456685442,-5.0,0.08539127761530663,3.371070608856919,2.7598742684705284,1.0023748699587833,-2.1452085414002307,-0.8487485431644154,2.805939508306997,0.5109752169703801,-1.0986086432149382,-4.001000029038392,3.6423838155946564,2.0250612547980613,-0.8078108250935769,-1.8376373671380843,-1.6207935086021599,1.0083532095739858,-4.747069597702352,2.693972270745852,-1.1082371360631713,1.2843235404785451,1.0506785003457515,3.7471854361325576,4.1189205214923055,-1.8092831326883885,-4.900131800605518,1.0961967118295275,-1.754256853036731,-2.0196288134403124,3.8841825406926875,2.854467823973727],"activation":0.0,"bias":0.0},{"weights":[-0.35055502876441724,-4.856068617443113,-2.9671605467216637,-5.0,-0.9677257141326467,-4.190090079463834,-4.7596230552087535,1.8114747219003655,2.4656772120348496,-4.6309921220325085,-5.0,-4.715994745668452,4.957976922198084,-0.3199806219557013,-0.23662449844910372,-2.3785032534377675,-0.4870949116788804,-5.182906315521284,-1.851548078925355,-0.535677246513643,-2.463243243601887,2.5877024420924934,3.696663355421586,-4.561401121209867,1.6629793977096066,4.328625071722328,2.896062271630817,5.0,4.898728160258426,0.310686682582633,-2.1568903663171723,2.5512649554030915,-4.117621829478456,-2.511896636262815,5.361696832621215,-2.284138518172733,-3.1529313846008202,-0.4319490563501832,-4.946214595381555,4.860236896414619,-1.1110071823083874,3.9669442424088377,-0.5798811574006976,-2.4480288208818184,1.3357254220524521,-3.0475459073762634,0.09924935558972314,4.735081807323614,-3.0126851300868998,3.3225732567666237,-0.2908901123569032,-2.7495061841394124,1.0118310217209057,-3.917583720146461,-4.198526542290097,1.4325923812313108,-0.8830284385116276,-0.5183231063415914,1.964358640524146,-4.138156125914934],"activation":0.0,"bias":0.0},{"weights":[3.0010640576817273,-2.7252486147073824,-1.1118549013442878,4.418590460971033,-4.5934719160153055,1.7163825534373833,-5.0,-3.0323788601676585,-2.805326711878521,-1.6206914048211836,3.8337105599982064,-3.0678816435307152,1.9768595320318134,-2.1941927586497525,-1.0086152055905315,-0.2745399952640858,2.083248375970752,-2.791848192012452,2.775060625209602,-2.532893585733807,-2.765965057306726,-1.7211732051443211,-0.5638013887916662,2.107274427982325,0.8597540849387888,2.264739484663205,-3.315933336759625,2.124813957237634,-5.33704310139156,-5.82591939341702,-0.5551878003038596,1.6748113595955996,-5.0,4.3179504731030605,-4.55738143417235,2.599257397727646,2.195675211552084,-3.307558000052711,-5.0,-4.672406022458466,0.9108181109301372,-2.369036996453997,4.6113932668963145,-1.926369940235947,-1.7396476557445744,2.2622468302687704,-0.9242193463375213,5.960508328915466,-3.484714941484458,-2.9723834031677256,-4.7888343122006445,-1.296372513407968,-1.4710355105373276,4.588996376160051,3.771189701488825,-4.7353402759218355,-1.508649467891732,-5.0,-5.0,1.3540160144841258],"activation":0.0,"bias":0.0},{"weights":[-0.01366647781028385,-1.3604522866873934,2.691151587212976,2.8354151473060965,1.1013964782541665,2.4018332298776777,-2.7212976458253157,2.8682717155859523,-4.091248430529362,-5.0,0.5192184159936992,-4.371561390341617,-4.1388891169534645,-2.489357327840664,-0.09773131190427742,1.9657113045088737,-0.6956401650333139,-4.902868155907674,5.0,3.0917274886875417,4.305019311718966,-3.5571572487698724,0.5925421151777147,-0.40550679011026025,-2.4416014762231772,-1.2243145223962126,5.0,-2.8330607863362074,3.549296805294574,-4.021486317578093,-4.449844127142707,2.6218107620169593,-1.6670408294627386,-3.7307632402925064,-0.8966063109917625,-4.2756283795700805,1.3709160974227617,-2.0819017941741254,4.100503399052473,-1.0695961555510907,-4.805566898970111,2.849595499254458,-2.6998705505235234,-4.954159490941911,-3.926671629709618,-1.7513930189690896,-3.0709487453325766,-0.15130872144310092,3.6739914115148142,-4.1386593424551705,2.4644183032325118,-4.051726909224633,-3.055388581413201,2.677467358144648,-1.1923828613241156,2.745537794427272,4.095738357410646,-0.3130449308204779,2.27080107029869,2.789916158336503],"activation":0.0,"bias":0.0},{"weights":[0.9927425262034718,0.15312515371915836,-2.2573030271151002,1.3791309209245726,-2.9092263968658165,5.186200613984008,0.7789465843220028,-4.303984751834005,2.629960764188941,3.6447838959798817,1.6850512137913647,-0.7513251974000406,4.555778133998964,0.2782688952491458,-2.130499309029111,1.6789605221915807,-0.1307588479700601,-1.2700090291276689,-0.948754414116121,0.12542494702958418,5.0,-2.748853530980198,-4.751703214005148,-3.322161661913121,-1.2703020113575674,-1.7649787962130503,-4.671491207395203,-3.1770796831732664,-4.380811421671978,0.004831235674892298,-4.3823949417034544,0.1909499700127274,3.493132891306707,-3.3662361515326986,5.0,3.477905620022425,-1.9251767890696392,-1.0571757556761514,-1.0993628873119294,2.7878750299615396,4.1035445567550575,-0.9131535288099685,4.010871608303831,-2.7731657015463433,-1.7680632759640247,4.506090476604278,-4.905130345145114,-1.9989041630964985,-1.333954960945701,-3.0095663827355597,-1.340355505807231,-2.2233173436402707,-3.761472711849224,-2.583491623829655,-0.18486674651036683,-1.365797170602661,2.1237801266466567,4.2030497084114,-0.20124488753556535,1.411808954519972],"activation":0.0,"bias":0.0},{"weights":[0.941908323367034,0.9943293270524907,-3.344115001738097,1.7846892306297266,3.9192804147025697,1.3327367745992724,-3.487205031200505,0.2534108335894437,-4.280865030620793,-5.561554725970288,2.7792236502886496,2.193819976855995,4.978312123821647,-1.5645454281644269,-1.4371372090340444,-4.569621385819896,-1.37545649656311,-1.6252237878067326,-2.2292078280622487,-2.511365519606713,1.969444098928185,4.44701461790515,2.410234242126526,2.9281309641111952,2.505374940792931,0.5553021268586005,2.342105970009526,1.0926204457169502,-2.2086007930063447,-2.696921513246552,2.0616624847176044,-0.9466782990371939,-5.666601442301833,-3.8268672550684095,4.912217732988042,4.816112683975111,0.23809663398410386,-5.0,-0.15364904582221495,0.4130108423553248,1.8053859877802905,2.621229852945303,3.2641164569462644,-2.43794457005279,-1.030690382440652,-1.452534074393419,3.363622040143696,3.6794963488045833,4.814706953072608,-2.461711318585281,-1.935957443774568,4.8441925453413965,5.0,0.19633906165987114,-4.468264908285701,1.317178803834979,-0.6012982210456169,3.4591059135478095,-1.1826981666024583,-2.1903309642887154],"activation":0.0,"bias":0.0},{"weights":[0.7336683864986867,-0.8293840924119142,-2.8898270979571934,-1.3208101706183304,-1.3356397508994795,0.43588675865421944,-0.5243308501231804,-3.9134905219669376,-4.16150096875632,-2.2693033742962863,-0.9849239037801777,5.0,2.6853830167117074,-1.8774698569202914,2.1664469941018982,-1.350604008719949,-1.3675701964400662,-2.544212020239966,-4.622974623720022,0.9943393723698415,4.249080378695475,4.49330709524158,-1.4184347408106897,-4.689641006534904,2.646120984892536,0.9686697034857032,-3.5691039995260727,5.0,-0.6665930920375993,-0.848419875935097,2.004595755810276,2.601632438077976,3.285285664802058,2.8210474243470873,-4.284808501633389,3.0501321645394865,0.1481615556607795,-4.848272233256293,-2.1145136244409177,-4.539413008181099,-2.5573215561405482,0.8183239667111245,-4.148300996481885,3.633099058883908,4.967366205461433,-1.0954032171898829,-4.2187765323892235,1.0788173960466523,4.726057386408378,4.6756114946919745,-4.789518600916443,-2.2608432028066483,1.6832574963446776,-3.269965427686093,-4.343775822340467,-2.6624879124810734,3.0088410347828987,-0.19991441065066262,-2.9546589632161115,-3.1269629966164914],"activation":0.0,"bias":0.0},{"weights":[4.029369853679089,3.1723237035037255,-1.5997871190740467,0.3169788752228595,2.1653874559696753,5.0,3.912238518755621,4.4104864886980994,0.7304238275642373,-2.023522422248902,-0.9719469380974552,1.090714364990672,-1.1204368289953992,-2.390078942348156,1.8186606054624785,-4.963685454722874,4.329767300674825,-2.32614514132129,-0.7844806154510291,2.6991128819681824,1.50622610220584,0.8404254041753615,-2.5194153018557763,3.22793042970659,3.3430012467936185,3.7699554959026234,-4.04526034175671,-2.1272340488067947,-0.9615329432673883,-2.276955983518506,-3.0416500302694236,-2.6952500598600326,-0.9534310570509985,-1.8808177830274895,4.013558395492359,-1.481709366735426,-4.517286081985468,-2.6091063423237424,1.642307122194604,-2.4908344896180976,-2.531661435780406,1.3197103690239458,-4.969771982811556,3.6488407447598146,-1.8824386152964063,0.34247190584330844,-3.1338716018730928,1.7745619207157808,-1.6932399920122654,4.27402687061949,3.341207229633814,-2.101214969689204,-3.802822575172864,3.28469373337571,4.57843154886967,-2.8583137617477075,0.27447976509534144,0.3365150215368843,-3.5160093750477284,0.9862514967033946],"activation":0.0,"bias":0.0},{"weights":[-1.6787668752009257,4.126342956876368,-3.7260454123353983,3.8052741528783436,-1.3100874567336362,4.021331824142471,-0.4963223123799777,-3.4951508762620254,4.064193389058815,0.6482640183550563,-0.3129796732378247,5.0,0.6568224775108386,-4.296156081854773,-1.93719084449756,3.1061707111015444,3.0112945174065935,0.7470349032732675,-1.2350747664196284,4.431773985971722,2.794746889913413,2.367871396737443,2.548655043682012,1.0999847412234143,-0.964081549685616,3.8294063527472892,-1.6953276251381726,0.27929154005891554,0.3273930706399274,3.544964738875571,-0.007143914734741963,-1.575112882136465,-5.385881906291311,3.235628557037646,2.537937224524263,2.0610520852251204,-4.0420625910824155,-4.3460999344203,4.925035603286743,4.583614811610265,0.321677498634907,3.6123169593653937,4.452883444984816,-3.3749986449521185,-3.3316033108086036,-5.0,3.0075618634240193,-3.6243710543344942,5.0,-4.754701753026422,1.0367693740951032,0.8269865445383408,-4.254500936942677,-5.151513452938459,-3.4421746456131395,2.457503303718545,-0.5410857606543585,3.15560067925035,-4.357693982032568,1.3231216886908443],"activation":0.0,"bias":0.0},{"weights":[-0.9020764572428236,-3.700361678085886,1.7823440661308858,-0.8957684986811877,2.0740313385760283,5.0,-2.1270775082096036,-3.906034328235912,0.014976360978211645,-2.612208804095717,5.0,-0.23086575066760795,-1.886856082059142,2.501387201642914,-4.62432859206606,-0.6959807552863624,-1.2726701210030176,3.628788477552568,-5.9009687125717845,1.7116616121347459,3.0626301756560945,-0.7244422700798447,2.8591417198920177,2.8458632681991975,1.5698639095561382,2.0820151643109313,-2.276508444769713,1.3793781034348478,0.0716598051377032,4.980778121815957,-2.145115933925707,-4.438397943176309,-4.314989279451352,-2.360231307880896,-1.966465511451934,-3.4128183880832283,-4.300739987744484,-0.09282229782594043,3.452360304489455,4.229782487971873,-0.8799426067225383,3.625705458967922,-1.2436854079759527,0.28804585958056417,3.14176555332723,4.797140710770246,-4.435870381879675,2.156253559112757,2.36209070383969,5.0,-2.151147236413573,-4.405646650624213,0.1785010076867114,1.3477961378387295,4.79916852186402,-1.1450973555802428,-0.6817812232651964,1.9469575421780996,-1.8157404818607608,-1.6691652381867241],"activation":0.0,"bias":0.0},{"weights":[2.90868533686648,1.5571576439208905,1.7725742277492051,-2.1755935710853027,-5.034191491511621,-1.6379316030713653,2.1776211452258885,-0.1446932425669457,2.3034419922161007,-0.7266317429581972,-4.432711142891355,-2.1658036020687783,0.17574291168799894,4.217769562661941,-2.7566823982054807,3.0748005714386855,-0.353902290939643,2.161926048118852,2.6652798269482565,-0.12386105943314718,-0.5975376071605032,-2.6825244576769123,4.361716025762085,2.2291471956333244,-3.1749081598088322,-4.32336883082754,-2.7522084680853904,4.844673634281665,1.8557312436316038,-3.0808136240161335,-1.879142417328282,2.473498309151256,1.820519307494063,4.0182625912531655,-3.970852489471511,-4.171480688800989,-0.77552295569247,-0.3660397524741026,-1.5152927440268726,1.9203805058687684,0.7548954426878729,3.5494962823739904,-3.772031699769279,1.4495151981442247,-0.8769582552433405,4.581435537263241,4.5196462836733655,-3.2697989591332175,-0.5765404887038024,2.2422882138580147,2.493023531353869,3.8773117721148025,0.9084493938168754,5.0,-0.6891036770858233,-3.3101525562119964,-1.0700778305789103,0.7621287997959314,2.0508012484795453,0.05081418162538487],"activation":0.0,"bias":0.0},{"weights":[1.5229538046637845,2.157264335002792,2.852650689923988,0.28381184384404945,-2.5123158185002605,1.7242266314713313,-4.206109112377111,0.23031922628913903,-1.7315445892246466,0.6239590465942937,-4.1133115739558175,0.5423866449794994,4.458199072067185,3.4230794812029584,-2.955109492674229,-0.9211442837102378,-3.1846270151599403,-2.831312243207926,1.335517389311136,3.5547533735293997,-0.10161161060668156,-5.569129897211992,4.295862943834795,3.2140492589109875,-2.68439131271629,4.275168035864785,-3.438152566079213,-0.34021586242893465,-3.622256407794401,-0.8314418868116715,4.953690589773682,2.6287239058362823,-1.0607158003870216,1.2944580486174937,-1.730873520324302,2.527608640577263,-3.2829354464415292,2.0856608637667198,5.0,-4.449136032898078,-1.6153446510258502,2.2965064839905835,4.7056226009140545,-5.0,1.042327652398474,0.2276104504021894,1.5078790403515636,-0.17321678492760573,-0.24150562628757477,4.902333448132572,2.6594671211933028,1.3329212088459097,3.530377980373033,2.124777557987384,2.3773103119872387,-5.0959191947200075,-1.5180083333466186,1.5578629987120942,0.9069147240710491,-3.909744229417205],"activation":0.0,"bias":0.0},{"weights":[-1.665405387489586,4.514040926019785,-3.54798408847493,-4.714037756233772,-0.20065749350570816,0.5048680200719642,-3.5179957107920257,-4.455617398186403,-2.0712429576394795,-5.198490863235101,4.019122453248407,1.574936121811314,-4.725163262101418,2.437976468723007,0.6959395560190244,-0.47112208785081744,4.033698574540138,-2.8637321629791117,3.0636624143133986,-2.5205706376180697,2.612184444255359,-1.8827843323432134,-4.6598980548198154,5.672882173144961,2.805274004789574,3.8400952298879174,-3.240090712370969,5.0,2.863185553704409,0.9263053717992046,2.1239399009716244,-4.693270111463798,-2.777810796482532,3.7580442784152255,-3.1447134577436278,-2.561065798941602,-4.2535128174356736,2.264100315585485,-4.401524771351459,-0.6061534474549002,2.086297053194113,-2.6535728778518197,-3.0496998144893825,4.0980350747273935,-0.4553684743155729,-3.044452627097627,3.940895860350902,5.088692362900995,4.480697137929846,4.5536860725324315,-2.068181844966275,3.5520133974524546,2.3983510653077014,2.4042942159321736,-5.496675354484767,-3.5617985226326576,5.160364095250916,-4.814152719345213,3.389993046679495,-3.111230275816231],"activation":0.0,"bias":0.0},{"weights":[0.8103351474543059,0.9729184528178115,2.729481843864617,-4.823642349994284,-4.455507172303438,-2.302342206222681,2.2259213704434724,2.5892468766377577,-0.11910623802901776,-2.563753891286214,3.8469382265610577,-5.825890581788259,4.742996062424431,5.0,4.327606138386676,2.829759506082234,-3.489162308058003,1.63265324175562,-1.5648689373992395,0.7099956731894619,-4.443531299091223,-4.59111362878223,2.003051568315905,-1.1390975535032513,-3.8120079565284417,-2.7962357285049007,-5.627335499133157,-1.6557349440052587,-1.5415188688098986,-3.4112364969316893,3.549753092428412,4.390847224188917,1.7080982481694256,4.102020390078702,5.761609483523363,-3.6086363426455472,-0.8019942828270498,2.6939010356157285,-2.2751670480308612,-0.9959587270234768,-2.2201808668378273,-0.4777052263760545,-1.874899033447786,-3.160057689607683,4.013193231956704,5.479939364702018,3.2472572538004774,-0.6505903519820331,-0.45780605053752155,-2.591533531891322,-2.1566110320986414,2.8994598853340685,3.1355271284592665,2.5096321101859447,-3.401700988822603,-0.41921640151221784,-0.8577593670382013,-0.9001433215733984,3.0295055360531205,-1.6298811441675496],"activation":0.0,"bias":0.0},{"weights":[5.0,2.7036131193635624,-3.244099739621208,0.7093084026169074,-3.9049034359208914,-0.6704135857118954,2.892888297742867,0.045723232795582214,-2.1785924491402913,2.372051305709782,3.198925513669906,0.935749648661449,0.8404474881971029,1.5896303493778385,-0.5487340063788579,-0.21833637147836094,-2.4729660007048704,5.0,3.977416638932483,-4.1363049096676665,1.126710147609375,-2.338407183058554,1.9951628148714893,-2.716140852730968,4.4110234582397725,2.2405784751044693,4.614118981436109,4.046099014006542,4.684032717822082,-0.1761082981872576,0.03485379413128309,-2.9747614466045986,-2.2050747942761495,1.7623763086866218,-5.464236604248075,-0.2813838033334408,1.5426238509440162,-3.385241227115492,0.8552016976456759,-4.558737903372312,-2.5641217480766816,-0.8824099915448966,-5.037716155662436,-0.7640452646283127,-4.061460184066136,1.0720282109199033,3.572351787226805,-1.7448835130629121,4.921436392192279,-1.5906378729019108,-1.966104607156718,-4.906361547927307,-3.501585298299284,1.0485254099509,0.31577671694887455,-2.3993539777710713,3.861405031891368,5.702412937948633,3.932262876909862,-1.8370016982879147],"activation":0.0,"bias":0.0},{"weights":[3.5124343326865866,-2.061978317884742,-3.0314922803665363,-3.1552076943688676,4.719034625852436,2.1373134597003336,0.5131306473035885,-0.6720146991551834,1.2171615602063204,-2.6044647854784473,5.738442766097671,0.8227442835484962,-2.1462553929612254,-2.231021168201003,1.943004968475836,5.0,2.850203802871988,2.5036136553224395,5.0,-0.10354659971529956,-1.3402707494704362,-3.3456456998443036,-1.516095564432357,-1.4259941701999814,-5.0,3.160594011036526,3.083209721176143,-3.62005034327771,1.4176844935856163,0.9329013681814337,0.3918161081578847,-4.632443886861535,-0.19373699748635664,-1.8490173965613768,-2.2557271421008602,2.7597625877737233,-1.4372912279304089,-2.802356037331391,-5.0,-3.3519504703225755,-0.41269660300953304,-1.1582653100280922,5.0,-2.02431738849803,-4.9295484680681465,-2.2029804592478923,1.3801234287402597,1.0359846451845485,-3.3534030537866695,3.368202519518108,-3.365154788603144,2.500604566708839,-3.3856148117162217,-1.0930084211634972,2.6170681735875854,-1.1157765388109226,-2.424482920406432,-1.1050153576792643,2.106569072801224,3.3238761087208526],"activation":0.0,"bias":0.0},{"weights":[0.5348713916248773,0.2324005456892364,-0.13711364141511395,5.0,3.274150290634959,-3.7158792115110244,3.359690365572538,-1.6538556055649254,1.5142697407688712,-2.4250738962308303,-5.0,-0.7363463283439511,3.4829486826608806,3.4161420445734434,5.0,3.9565485039930413,-0.6229565708298048,-5.0,2.1102086006284173,2.9769609104955936,2.902911314975791,-3.355016004346647,-0.6576762650236214,2.943561995043943,0.9096695705825684,-3.689431780436931,4.084139242691359,-0.2512827419661954,-2.4692211904027075,1.6311466283313132,1.3400591596283196,-0.5963862276917962,2.522294133489373,-0.6542677689424318,-2.6126370928410747,1.4266358555263783,3.2113527547993526,2.180126015624064,-2.2402843483754933,-2.337051178167254,-0.1456283631808144,0.7568292222547195,-0.6273072808389696,2.668442572497181,-4.599394177363924,1.842011530615864,3.5231858989444986,1.448605787178482,-2.3598920683327598,5.0,2.9352212535186566,-4.5090883047760135,1.505656847657241,0.5260112999425972,-4.453042575552023,5.479959825753915,-3.033235197373342,4.516331241681975,-4.306298196001245,2.510556479702622],"activation":0.0,"bias":0.0},{"weights":[0.5088659418005352,0.7575634040077271,-0.901685139150893,4.281517073976465,2.686001787965525,3.9854225695815466,4.47823857325871,1.4968124115868564,-1.5600951797469236,-0.36058296753219155,3.021143079579252,-4.417276778653671,-4.967137595268399,4.928456992407598,-4.183983151713481,-0.6687308461819599,-2.6891630198900414,0.23443429874318533,-1.3227762237688765,0.9737009017252379,-1.7547809188783445,-3.304956206041915,-2.154023644236921,3.5923912099093913,-5.0,4.621597883521723,0.9538255343799894,0.7487457884538665,4.38526314692598,-4.2591792922462925,4.636402680173208,-5.075597623124085,2.7588047038390373,-3.09911175849921,-4.461577959209806,5.384889502172088,-1.779461812613411,-2.6735854652732893,-0.6970816512295654,4.342698746407371,-2.139068281016498,-5.0,-0.9220274765511302,-3.283196363618071,-3.047771294621739,-0.38927807028965367,-4.573653882707557,0.011543992902873224,1.0599336267366892,-1.747433705900609,0.19129290134715293,-4.705377043258319,3.2869486946598907,1.1695477575115967,3.429487314810948,-2.728267691388423,4.156725685375226,-0.9697353325325699,1.2225040762600736,-0.5906592811960591],"activation":0.0,"bias":0.0},{"weights":[-2.9861080135150533,-0.6151240554813313,2.0500825274836982,0.14634392781055006,4.545021889864847,-5.0,5.288688976335672,-0.19512057586545628,4.805195565610503,5.0,-0.6789222483030822,3.799653467462198,4.717600597200249,-4.095536353609033,0.746420536742309,-2.549104861438562,-2.5783032931159866,-3.537100672139366,3.946010933252101,0.632738780889925,5.0,1.6302552805103259,-4.497103261019696,0.6075900253038682,-2.067427032683219,-0.6416916275187041,2.373749890428287,-4.265375330874246,4.100696908750783,0.43803728862307123,-3.544855720938318,0.2736374717862726,-3.0028380415039675,-1.3899139388622892,4.671662412591079,-4.2150726595313746,-2.6425352208413635,2.575115316874851,-2.3125174498740506,-4.861468111854458,-3.2238964018023144,1.687011837775312,-1.1598202917125706,3.1517860911853814,-3.753414787669029,-4.762092077670851,-3.823230986316519,-2.077222545149832,1.4006194847788782,3.542554615972758,4.140380423493573,-0.8284061804272773,-0.26802242085556083,-2.1429113596578024,5.0,4.943306420983387,4.479744141194451,-3.6930399302817336,-5.0,3.87651860341216],"activation":0.0,"bias":0.0},{"weights":[-3.261715704125147,-4.53773567319149,-1.1504167950428363,-3.141299923548935,3.306922125777957,-0.9528724606103515,5.511454967884236,-2.6268145934218543,2.1236645271834886,-5.0,-4.076385540918709,0.8440390144226685,-4.2530415490577,3.286297408812833,-4.146702768315136,2.3283519446429626,3.297505549639856,3.3825397443620138,2.849248274086073,4.837864399704667,0.6085026446051242,3.6124147911149502,-3.04545618961993,3.493618761370076,-1.0242664025298116,4.769717947700723,-0.2806126047912305,-2.2844684519948184,-3.8706291751911373,1.0969023061982426,1.8757776908676296,0.8833561262614991,-1.5942646067441406,1.1716865012884807,-3.6650328212619847,-5.0,-2.7185597002014275,0.1930448818454874,-2.6536389896758275,-0.013970900760910676,-4.487692836883508,-1.051867572040644,-4.176916903082144,-2.515154051348314,-0.6157023834203137,-4.555754638189811,2.0794240340615735,-0.30959617732752565,-4.377950009141208,-0.18372078336207398,-0.39726761981126835,4.903458087981308,2.019608936039081,-4.26337661097663,-3.3148948547301305,-0.22348822522646639,2.6088206004713426,-2.335827425556719,5.0,2.8042148602869528],"activation":0.0,"bias":0.0},{"weights":[-0.19665444427914291,-4.3262032448309204,-2.7716559364005002,1.005340100601326,-4.975599287802734,5.418915855298032,-3.4885926666855718,2.2506283689631896,3.008082259523118,-2.1691157959175857,-5.3730354520025765,0.1949003152726122,1.3093156611934218,-2.1520233440059684,-1.4489374136694178,4.9576235871172925,0.9177055214387657,4.346027058510915,2.4816351492519093,2.7290609703383883,-1.5791161590638507,-3.302824495774817,-0.6291538684564276,-3.7403321602731876,2.550053946414129,-2.7970244163813303,0.5655519835032486,-1.1116593762220641,2.372000430712879,4.3527497061483835,-2.2983886322092557,1.4429052110987073,-3.9739651328769794,4.887185575090552,-0.9046263724346342,3.0950442593079175,-4.885341364882453,-0.7428005287664001,-5.0,-4.1120782403903045,-0.36463683825833126,-0.6649637284422473,-2.773610792569837,-0.6173633027822716,2.3284553314071563,-3.420315937211977,3.9562640150097477,-1.8655011754124056,-5.0,3.704531495159553,-1.0660499571236615,-4.861738716080931,-4.35678418411935,4.24045069689835,2.7415111478591707,-4.929310449605132,1.0075602578865142,3.877064790969072,1.1665448206678963,-2.030413262854002],"activation":0.0,"bias":0.0},{"weights":[-0.8359238917820334,-2.115411653784742,-2.464250392434881,0.7577513052741178,-4.158890534138358,1.9085692979936852,3.83993527420692,-3.542491797267093,-1.6181985937767331,4.956352179577877,0.8182203996408904,-2.2656126673158505,5.0,2.1533268703665485,4.146059550052161,-2.9933849856368933,-4.919561587013819,1.661392128561273,2.7992034353288657,5.361075160892517,-3.0696133044776377,2.2377820950206297,4.751589628493414,3.443015454468738,4.422305343198375,-5.6090647782145915,-2.8782161915530677,-1.954326861417886,2.699235112214584,2.131527535863282,-4.743377222210229,-4.718309983072173,4.658060655719882,2.757000033419464,-1.730506105975455,0.2484350867130345,0.7382571489273313,4.405417814449755,-0.12542252633103557,2.529303315486784,3.3346197111973996,-2.909451407681482,4.411024129347724,-2.8438771792197173,0.5801594580030687,2.6873658998361973,2.0260060347703215,-1.1896687275628322,-0.540549950472465,1.3125101167938373,3.41336153728516,0.2210742545901382,-1.086891188118774,-0.5504507378703901,3.944785317604883,-1.323356680738082,-5.37765491587373,-3.73174654758214,0.22373696635666507,-3.2654708013768086],"activation":0.0,"bias":0.0}],"hiddenLayers":[[{"weights":[-0.935065465779348,-1.8057832176417306,-0.5987229231715705,3.181595596008371,-1.7457487346156846,3.9732892087703737,-1.3658530186686808,-1.1135978226816148,-1.5029867924811555,-1.1393624663736144,4.875560331042068,0.9219318361918095,-4.199047818181484,2.2819653499723103,0.1532329854991682,5.0,0.4562043941516766,0.9420084753092222,2.2467136205040776,-1.6012680213069845,5.0,-2.5153519041380354,-2.8093871269911084,4.307720627723639,-2.594480644114394,-1.1063855854423221,-0.999228170533622,-0.9970390253020007,5.0,-0.05896057326870663,-3.4059730827790724,1.2039669835863747,1.4349357400174527,2.615664503998614,4.154735516757215,2.5211413482906524,2.0830837456319786,-1.3063742397771416,4.863617857491108,0.969787020425338,-3.3472263420969246,-1.2125222388746641,-3.7472354286284038,-4.051198870950546,0.7391323361292736,4.110461246865796,3.5273936141363493,-2.27860077008239,-3.278648198477256,-1.6336508945261121,2.8676724605198913,-0.1750382654512619,4.308046268132563,0.25527935268545665,3.5032400049224655,-1.2464341302294422,-0.08623997913198078,-2.9913401307886267,3.0476243811174446,2.135725560153891],"activation":9.06973762649425E-8,"bias":0.0},{"weights":[3.1681113923999242,1.1817341894568907,-0.3229546415953706,-3.8758371382961228,-2.9806990394965753,2.7323859196985993,2.710974059681814,3.422065239170718,4.128268834424886,2.2411007611265825,-0.2581713209093891,-3.378209135185722,2.6521312982350285,-1.9920135254166063,-2.7871817630882667,-2.3669935605980137,-4.899555423543742,1.3125312567507397,-0.28385945713080074,1.4301721998885726,5.038100256384542,-1.1569436465700988,2.2647770939638394,-2.579916927218247,-2.8760961552065734,0.8805671869543186,-0.29461087195645574,1.3586893930205628,2.9904591447210604,1.2443482511042652,-1.8502599137573403,1.5220982628696742,-5.0,-4.777636025089386,0.8252444023636568,4.574159124579956,-1.7974243225896147,-1.9675840699058047,